0.16212400960381934
-0.22802861217627055
-0.07702853756111501
0.08789572288989915
0.11828876967799146
0.20800141653434326
0.09622396366804821
-0.08426342288607745
0.13819242725459127
-0.31195362055984854
-0.20519635142287598
-0.17667754851236367
-0.023576724330887706
0.3467163189372813
-0.004874963762185282
0.1445016978803365
-0.3486676894758822
-0.21113123467535908
0.05443762994700231
0.3139813555720989
-0.36966499063022196
-0.3099031163354079
-0.13151997901970355
0.12163128212673051
-0.13743214996635003
-0.0814848586308803
-0.3657580417346463
-0.0032986393627813825
-0.3270629694673005
-0.19935567710987934
-0.2004332478794719
-0.38821894132509904
-0.02400233536814914
0.30797209309392354
0.3337285540737063
0.3762864837141857
-0.012937626270986078
-0.0857300223814044
0.040337309440454154
-0.16161451806956312
0.3290465865445734
0.3328243602586957
0.11252182967930784
0.029975235765022683
0.08197355041706521
-0.14562007350893585
0.2858417411343434
-0.07496046161309437
0.3907244094244928
0.06512075545073974
-0.29563624086673473
0.006187422981339801
-0.3885043640640485
0.1257649162787225
0.18638824348155436
0.02619127508723856
0.10202963818414844
0.31273509759614176
0.20561290187255518
0.0639118938241625
0.14062956626802367
0.08928783310438985
-0.3312995695653349
-0.2769061967293609
-0.16323459774098303
0.18351506787971608
0.12450324028594319
-0.04606776851004818
0.00977807409367024
0.022440001560556522
0.18213625008071468
0.09918054701184527
-0.04497146540937869
0.03925468425255909
-0.2191310641276133
-0.27494606980656583
0.24600718910751296
-0.28192315784822575
0.33716753084204787
0.02755887269871642
0.3337226419900731
-0.15623614281869685
-0.05540348548838661
0.2860466832955928
-0.3778645812291952
-0.1733384226165526
0.006482250131808956
0.1964314659759205
-0.3323650712537218
0.3806110400173823
-0.1448435572083145
0.17751360843586766
0.3585339545523589
-0.2370534975674724
-0.3173037594372923
0.2976704920085408
0.02985895765878754
0.09109600704807953
-0.03554946786578108
0.39025228130994755
-0.19142114273965377
0.3503152119544522
0.14096014343383856
0.15354630340183917
0.3856578429383549
0.1152840130512779
0.019199432783607674
0.21666068676322262
0.22950768294907786
-0.07723776273654877
-0.21646548829850587
0.027066755847246514
-0.13597869569805335
-0.3186672065389838
-0.21466268386955123
0.2971227698504317
-0.19111270203086186
0.29605237688003866
-0.16660891983986625
0.28449629665465387
0.36899038261364075
0.3167254652688402
-0.29267968379973175
0.16605252929790004
-0.20882065329503388
-0.05344559578035825
0.22488843377849954
-0.017726546416500462
-0.11375816681192812
-0.14778729862090673
-0.2255862183057003
-0.21600238345454983
-0.08642537247541801
-0.1621537273460549
-0.11596520822596744
-0.3556201798872386
0.22883867848088926
-0.2078273969317063
-0.2243436423040428
-0.1782380249370665
0.10323305611390737
-0.374285030486023
0.35550220460455473
0.343387822940333
-0.23458958920238135
0.34876142291720214
-0.3917503762468406
0.36487363032080106
-0.10930126460091792
-0.13062803475052717
0.15134212911140763
0.033285152220081
-0.017794867770776227
0.03759794877101142
0.07270487178664582
0.2666841052790058
-0.251209343214497
0.14743275595946673
0.3833982787480889
0.06067061935404011
-0.04875703427988112
-0.3412815511423109
0.07136511681876732
0.35113083583375704
0.12634752060358356
-0.32481228143223695
0.0169856351975217
-0.3708595805424817
0.10008968659926251
-0.32357888432709353
-0.3258577312409743
-0.2641944082728264
-0.35897201111525817
0.14242356853220162
0.13126065378415366
0.17972827164513772
-0.04481446879252464
-0.14460826299429466
-0.13635677778739722
-0.13415025102957126
0.3749024966395119
-0.3051107734287767
-0.15302604622205793
0.21001113475054345
-0.13240676131378892
-0.015262479656709738
0.1772218239400565
-0.3664167012206254
0.13540825935506462
0.16179162825972151
-0.2324271905090266
-0.2562314378206401
-0.36025762689685065
-0.05685015961373399
0.37361272836197346
-0.2846862287906762
-0.34525184600332365
0.35261844499259376
-0.08329141252197735
0.08238089478470212
-0.26111628076703075
-0.09882900192168086
-0.12069869488262003
-0.11073337661460939
0.27133172907160275
0.2754445824327718
-0.22871446431102604
0.37570616019895114
-0.0145959335797544
0.09132517953735206
-0.03547372256230343
0.004029983742480747
0.03712059005161597
-0.30009465252943796
0.3324709840966213
-0.18693967955656823
0.21925818580859724
-0.23421998187070756
-0.3439100666344175
-0.2470304608321444
0.3163100470631753
-0.17962968880341448
-0.2682164896302856
0.29777084732755466
-0.20312523360284085
-0.12777253399297098
0.15344922715772008
-0.32584656183891114
-0.2031557628399524
-0.3133830028398664
-0.013004164698141737
-0.05167007467795839
0.029487050184174635
0.04296550773925923
-0.2763148463774655
-0.28886838047782193
0.15258349406003544
-0.3082721198058437
0.3056987645096338
0.17062384824134236
-0.2603868177450426
0.31474179287247783
-0.2686490142817304
-0.28298462261632495
-0.11624765491390955
0.25135535397200043
-0.3469420607754725
-0.24209219373067467
0.2215750174839476
0.13365173499895117
0.24570193604727586
0.20118195388714383
0.1843073410840224
-0.28325063451125904
0.08504272714830372
-0.057668787228405
-0.03926277500363875
-0.03497228235622054
-0.009484175459985852
0.23910360596031965
-0.2456789317743394
-0.3159465766260832
0.1840510863988521
-0.25387267744076913
-0.27736486267711025
0.023174213219151172
-0.10790901318192246
-0.12339729629341203
-0.34359556023856075
0.14232649590623356
0.33382503717982565
-0.33808441691685526
0.3270792849926535
0.2600848240231478
0.24968281136581336
-0.36948877988880935
0.24095689505032458
0.08560221060891074
0.14118687472951208
-0.3102701424820323
-0.026580940361659103
-0.33452533917893745
-0.18359142473994336
0.09598555571628524
-0.14982670713413754
-0.22457521059803298
-0.07732199024204846
-0.05819029881807275
-0.254111174856997
0.19453531043479896
-0.22438317307670622
0.15390188203520025
-0.29006583002320185
0.25110384244746353
0.3079555535500568
-0.34090670719019106
0.20706074486889275
-0.3685920299493201
0.08551374218698533
0.3221915441820969
-0.021006129832053733
-0.19124970998783739
-0.29598750206198965
0.10333679163734227
-0.3260605915280552
0.30237406984542164
0.20993921438246876
-0.07255671655884685
-0.388978256203705
-0.06712050857059994
-0.22417679691376818
-0.2944911199460241
0.2536605699970294
0.27632575464271913
-0.044739222021615885
-0.25443870249595235
0.31571444344529875
0.3722140230636601
0.22596389329588587
-0.10399827850015703
-0.3609129406179924
-0.14343149165253732
0.2564859944949175
-0.03273713963076684
0.17588844949878638
0.16617939488122288
-0.29403039938002196
0.1773512294983285
0.26701505435739226
-0.18100286917087233
0.026464277224253933
0.028786175065756384
0.3776407775895663
-0.3733265183522117
0.24740763471773328
-0.3127268483985564
0.0932415664048723
0.2451592631442499
0.29917531044130946
-0.017183280370849277
0.008679401055960677
0.053384613455797814
0.2299464999399828
-0.08394403630445318
0.12435493335541345
0.3623579971563998
0.39117290663983345
0.13644554418218796
-0.37033625697185585
-0.2764717911285811
0.37393898904644146
0.2972813084775355
-0.3657971083749858
-0.009003474807687553
0.0646229806298903
-0.1970556078271399
-0.03506968283174603
-0.1799254760119489
0.31455824160144646
-0.20611969477615902
-0.3248977952655313
0.26033135579678346
-0.12634923140774149
0.14233544933975673
0.31528483256905165
0.38139363963390593
-0.3603558400336208
-0.2659770099791495
0.3429412258147617
-0.12259927311382751
-0.06619666728945675
-0.23239011861391867
-0.07395537662940446
0.32874052620701805
0.1925300361380377
0.20427518096853622
0.23150326289491588
-0.0766599782479641
-0.0983267819251246
0.2622271235592562
0.23725522397312548
0.11371734805352139
0.3514430716754859
-0.2152395329262732
-0.36369559749135805
-0.2833506539920929
0.008811734265228889
-0.3176710277293293
-0.14021991502489128
0.22672076424222953
-0.31414791787043017
-0.03335280942618349
-0.1579568831324845
0.2532880088461992
0.047657204006371155
0.22368348987964562
0.2331660771225345
-4.535823835332469E-4
0.3821241898645861
0.08100869378043143
-0.3392224521013848
-0.2741366161110734
-0.31178926652861294
-0.1230197037066934
0.06293073317417884
-0.23850595698649116
-0.11752965663291746
0.18031529839531185
0.015308551082466282
0.3812714725889655
-0.22899308818054886
0.14635647682795525
0.031132776042905774
0.1783136951671083
0.009194506095590168
-0.3351699059493642
0.05917586341820293
-0.1694821479093872
-0.2901689449164833
0.04439810899761461
0.19096592015214725
-0.12787082952496923
-0.08040979860611376
0.0662479485993673
-0.05385499800281278
-0.18607066313977627
-0.3171688574643211
0.18910378774304373
0.15915249173902485
-0.32335012144091524
0.12868715552006293
0.16628659625370332
-0.3607238684078807
-0.35314124373697536
-0.009791804960822771
0.18282305474147187
-0.17437486381592468
0.09848333342693111
0.2606560986246473
0.11686478419240373
-0.16807651222912245
-0.11579657022200031
0.37514100739717743
0.13390191545289817
0.0914764110136625
-0.047883301260444995
0.09231835411957828
-0.012346419311591902
0.2647394072473748
0.31996682034691015
-0.06965037658940071
0.10404107997972795
0.18533696865983718
-0.3846370408323729
0.2964867853571113
0.3735394520092853
0.33271743901321066
0.18456562224193376
-0.013824221089429474
0.09518583823494708
0.08834579147557738
-0.009660955328841633
0.2733491715202868
0.30942654359622096
0.014114156644535076
-0.028164234227779143
0.015155220207989666
0.25658815419159287
0.3067699748578959
0.2285074809999189
0.08196253143733945
-0.27217478152901126
0.12810602551191821
-0.19724958019725242
0.32284913244879526
0.38050307793799104
0.060123990611388935
-0.1698788703274312
0.32547338175351465
-0.2520767644367526
0.3413293008412126
-0.3562271834143336
0.38648496196833754
0.33527633503853144
-0.1345469251799115
-0.06923970500594834
0.3219790368270489
-0.22225166837377078
-0.17676794796669149
-0.1758057723463955
