-0.075835853763954
-0.3484820109263391
-0.27071070779995643
0.06944924877818417
-0.05938077312626005
0.38052041219456967
0.22490824992683792
-0.16452128715455341
0.1472876453082078
-0.05577552042471381
-0.13027126720694887
-0.2109943938558226
0.09745997230626174
0.14760132236040086
0.2335742622610494
0.323110362789366
-0.21238808414344085
-0.33759618705008826
0.3603797948686313
-0.3885044595108066
-0.20715297726500048
0.3146661312485765
-0.1468155125093014
-0.056769345917023296
-0.11991563748326438
-0.08420372165668373
-0.13660490920172252
-0.06279667171981206
-0.24856090548882992
-0.05060816031176598
-0.11391812602072258
-0.25848842825381735
-0.25522641130062546
-0.34767932740196694
-0.22175355943075478
-0.08053224045310309
0.09538267613535666
0.15869582741162455
0.3687720337120882
-0.08354853017281672
0.02968254525198363
-0.015173517254884765
0.3278793869077472
-0.1726361494511522
0.1623357328304399
-0.1996820214132218
-0.17096771787197718
0.06387642657484159
0.050287265439574264
0.13961122858124958
-0.23084590841364766
0.23126987488646272
-0.26649762368842395
0.054034430040803286
0.3871379285895737
-0.13997032735744855
-0.029294109974135972
-0.2803818989178802
0.056412598539314775
0.3829260305162742
0.1407190946991891
0.04858051789043171
-0.25630546435722273
-0.09594404187226227
-0.2823710056848197
0.1797665869522462
-0.2938723687566646
-0.07120884118546718
-0.009121757579910225
-0.29013588401541635
-0.010912054080910222
0.2807774110283132
0.06667241773249523
0.17906883318526398
0.3614473039519006
-0.3477316929902694
0.07797560787183874
0.27348286118017745
-0.25323586638254125
0.09896721427590294
-0.24416127994608344
0.09151295884286864
0.3429134568726033
0.2779966874999069
0.046368836247694424
0.16967675910341776
-0.022158149113479512
-0.11416259436415026
-0.043586021197016385
-0.2628316918669524
-0.27890666146542054
0.14006838646292374
0.19927744858802818
-0.10622973108024747
-0.22232627048605733
0.2751753997662914
0.13821045534944704
0.29567301434708815
0.014507202987196925
-0.22174059144294536
0.04584110482972771
-0.17475169613764577
0.31699816162168853
0.04797517841950985
0.19397868903171187
0.3542224902134034
-0.12100618170669014
-0.26544375818951077
0.30596558367021437
0.2885876667491003
-0.06559633325027625
-0.07754906230240788
0.32072023184439563
-0.1988008936524391
0.1308071302845511
0.00750810623531625
0.36037667965956954
-0.0064081741124048675
-0.28747577342336966
-0.16340286608806046
-0.2201743435330739
0.33945129156017984
0.22664700282517533
-0.39072371706880665
-0.1740424366533319
0.18396769453757839
-0.206855777395837
-0.3455229858092787
-0.22416484416452345
0.22909636567996913
-0.06479054292982918
0.3641373210827014
-0.22007458262000618
0.02915562546518382
-0.12557371671803916
0.07190822992287069
0.1885050548815082
-0.08354304067414166
-0.28759157589067097
-0.35218149890064965
0.13882167345921903
-0.3792686417972439
0.24726708950896306
-0.09227884209029526
-0.2804295990984665
0.05818731551939184
-0.22928941090163282
0.1628805747197228
0.10376700188794409
-0.35766152029707343
-0.07427435429130647
0.30116974766282273
-0.21153280334981506
0.349177782903198
0.385229638768191
-0.15200386440717722
0.14187201764335497
0.3297040153499814
-0.38178780935983236
-0.1725080980140943
0.14196202501016342
-0.09270931623471557
-0.10537584360417374
-0.16223746213528956
0.24132388227418963
0.17839094150394927
0.20348672815155858
0.085212806435028
0.2560940473875546
0.16185747154503147
-0.3856949204044984
0.24389734651946576
0.3720943531690242
-0.2348152574680751
0.1389441267794944
-0.12442535754064565
0.3863081164649971
-0.3903804828402551
-0.053616661148140884
0.07534097855170886
-0.14832262806090904
-0.24916936404889242
0.13550505792507045
0.27659453186945754
0.24168847083702283
-0.1570959893727068
-0.34723813327485303
-0.2606280908872279
0.370887713948052
-0.3895546696488295
0.07085323305865765
-0.0878989755436172
-0.2554100577745583
0.03986848250551324
0.24743008474458908
0.05280681644129583
0.3473422929475102
-0.0985609303985036
0.009768088350656514
-0.03284843106669572
0.24281290777874262
-0.28496734337589275
0.37863735943767046
-0.2578221799976144
-0.10895959559492162
0.08741665850279422
0.11955149938374326
0.21439678999456316
0.03178514548180458
-0.12351703296621158
-0.17294250427897265
-0.10918434675152179
-0.27139788828400246
-0.1681099555709732
-0.038107470544693184
-0.2879120028164382
0.22826935824411138
0.007141638377350701
-0.044865586509368366
-0.3589536007092049
-0.37062009376620003
0.0989581092378668
0.1960490018382249
0.3258914693696701
0.3203995661999361
0.25697479289762254
0.20679870155602345
-0.1442882898103447
-0.2953075860813129
-0.19500642054994163
-0.28666212948550934
-0.3629563311390916
-0.1702987518144405
0.374381663860217
-0.1254063083061837
0.22522173012237218
0.30623731837404516
-0.33148832100010756
0.2683079453961021
0.056224989924330206
-0.06153501488118782
-0.3436395375206443
-0.3706864424549252
-0.15178181693028572
0.3630388255202515
-0.026894936955237227
0.24074742183534428
-0.10596164659493665
-0.0775946792557702
0.049927773405916656
-0.14334201733805277
-0.2679394690435321
-0.3029914901982886
0.35796246480374416
0.19583537189552344
-0.11770016436034596
-0.08939828406442304
-0.1995744694719429
0.11216048340686624
0.3545882245774822
0.055444776428624366
-0.2647927346686212
-0.08783640806009028
-0.07072348591574895
-0.29243689172766724
-0.19812685476429734
0.27250829767790496
0.19367320339750926
-0.20749991600920858
0.13066695390751992
-0.2714815611327154
0.3600280996627297
0.09695545081282951
0.2317392251005368
0.23492483856940896
-0.24336744183375525
0.11190707641528248
0.37521694212946544
-0.3771844650139262
0.0984386098016998
-0.10622692962715967
-0.19323823724217157
-0.07940111933120604
0.12747564503293346
0.13059910894767746
0.32745968467164777
-0.15568890711289365
0.15030564096498514
0.27132391721566346
-0.017818270106917226
-0.033538252097683914
0.17345155856792663
-0.15005830533152684
0.3766061679894967
0.042541409365210274
-0.26204089554702314
-0.1906644444486055
0.11725339698909189
-0.24188503837779896
-0.11640496188915579
-0.3132850556110418
0.02104823867058763
0.32477590156083364
0.12427044022429821
0.039492983540793995
-0.31992170293538225
-0.1371452498404906
0.23752600152091446
0.3354250685541617
0.2996481528084669
0.007479112790296858
-0.06028397413852737
-0.17045227084578726
0.18534663536105245
-0.37319650534097404
-0.38213916728564123
-0.14321264968892322
0.12648336700922652
0.23994331356816698
-0.19900301620992583
0.3421396681033424
-0.23057814635830542
-0.25886576230913266
0.32855666860609956
0.013064052546836456
0.3358383752992451
0.3767320245118128
-0.3590891620194443
0.09113271386440874
0.19514567597348026
0.15077266996092714
-0.2880567665387495
0.2904809901501545
0.3870054479790287
0.16782735247686983
-0.13711539201907294
-0.13209257984505665
-0.053674501790454715
0.36205230596764354
0.2389183647556112
-0.12806703964412144
0.3556298554839006
0.39227696267372486
0.34349051712042966
-0.19214051459251308
-0.11881654573255158
-0.016783571330847645
0.10320962868616856
-0.2532055453380975
-0.164588539489697
0.25692291620943764
0.14622813384360733
0.12240222584085082
0.20775750078356078
-0.12352607140339136
-0.12497676619664659
-0.30458029222805044
-0.29649431095383655
0.2904660804150707
0.22209219308589134
-0.057638243499141144
-0.06043887473114684
-0.20400769932181867
-0.29634245396292674
0.007320630044614833
0.3373242231513796
0.02089179296672713
-0.2185216917070022
-0.0923376844632375
-0.025536732236656853
0.34939544250433213
0.24086933487995918
-0.07977270964579648
0.27020251787648786
0.34355725864270653
0.0036634416121177423
0.19757035922268748
0.14228793933708458
0.05005787950775835
0.22819050514216196
-0.10968449893485492
0.2613212499755274
0.2612305531627954
-0.1219915150992649
0.029923575697318343
-0.3870217647550164
-0.37719571279650593
0.39041325417161254
0.07568993509735156
-0.11296949992391976
-0.13156668899352816
-0.19467329275019585
0.1462427157314017
0.04196571539762053
0.006193441150152792
-0.09955276339015974
0.17645534100474078
-0.13126030849507234
-0.34740598099299236
-0.28083391160357435
-0.22694400696588155
0.03085822256681146
0.3248236333924933
0.16116589987887664
-0.3073927041509759
-0.003996477905071507
-0.2636402792742988
-0.10924761043773241
0.18270365338200695
0.3071681243996824
-0.054640226237158904
0.2084196808381569
0.20625471570814088
-0.028048111933120304
-0.2603576764614021
0.21370298408350105
-0.32747244707493034
-0.04254327700891782
0.2901604043029453
-0.34143854634539117
-0.2814429145035986
-0.2884940478769568
0.13501824720503336
0.2382980768786749
0.3251863013957648
0.36570388323110625
-0.08427462108696629
0.18042360037681873
-0.10866354867741668
-0.2530084762753397
-0.11547589651902138
0.0727322852404426
-0.015445668315666794
-0.05940488390483572
0.12837280196220388
-0.18667870300673312
0.11921171457565166
0.23209211896990592
0.26205903042649437
0.1012209306304832
-0.3727670838497491
-0.18010910546864417
0.11761450595391183
-0.21528723460495017
-0.320212551774741
0.379664248162047
-0.16198594753793824
0.028138790401350713
-0.04449801978667654
0.09885692861128031
0.055263704269594906
-0.31333087367510515
0.3417688883652222
0.3570355856473274
0.3397887702333067
0.3060565148106399
-0.27611349677730096
0.09678606435917392
0.1729671850466225
0.27409707428677316
-0.34588959810751235
0.013182778901788704
0.12074165352279076
-0.2236337516714191
-0.1438087723640986
-0.12194436756086327
-0.26365394156548544
0.3468004323642911
-0.10627203343057415
-0.0039091512600692106
0.06261071102602463
0.04551026524525846
0.34647492065186974
-0.3413710233388273
0.030765817403744018
0.30141088372492997
-0.2774053196310378
0.026556557358750225
-0.18779738478374358
-0.17823526989055022
-0.11071813780251347
0.20287563446588014
-0.0402117480219012
-0.003476739937259964
0.21038080912053223
0.2818792370833015
0.15191278705374392
0.3368774391592397
-0.24100096085495
-0.33824035665057517
-0.24070789033742077
-0.022730147532166418
-0.27021380191743494
0.25832486345741207
0.0052683839003141155
-0.026059734621802663
0.2910478913287303
-0.22005414884354108
0.25217455483808465
0.38380278577190885
0.355211917232802
-0.10644960854797582
0.3430178350001079
-0.38210401008687084
-0.27399041460293866
0.03150080492953555
0.18669513880627878
-0.08832502306252143
-0.12471572881080166
0.0626082267294505
-0.04125648850217943
0.3862492362444759
-0.12412108476599609
0.0772817664731254
-0.10471292029589983
-0.24872123850348735
0.2945677536458208
-0.23342296189376652
-0.3051781630136838
-0.06385408619944903
-0.30167154959687703
-0.29790889577326907
0.07376243731115624
0.3450998110994387
0.26586377994763216
0.09284813235730305
-0.30145362602100395
0.03475796386838347
-0.29614717735076734
-0.257033377261032
0.3826296566231575
0.20922116271914862
0.3570245988665336
0.08427665904120757
-0.38620615088997695
-0.22291325152259248
0.24051176804582883
-0.15883371657192843
-0.36827566351847585
-0.025136668101113733
-0.010183338259308028
-0.29284062339237427
0.029657408734026496
0.09589690145915761
-0.30684915105961535
0.059243883601581816
0.2822940951452619
0.07888052535368666
-0.3694885642596691
0.15815132927725944
-0.22284269572610807
-0.15709348976608659
0.388380986968798
0.24185171671349703
-0.21191593507710485
0.3695992380786647
0.03794535745979219
-0.1867996733968854
0.3562564098551193
0.04908436525157686
0.3528974320951464
-0.16855914472710673
0.17819294995968385
-0.12842008984098402
-0.0305164317216928
0.016314213686362246
-0.08983781393595856
0.1814514500810895
0.32212525491568017
0.271127557357846
-0.05724058074161919
-0.13100002517497703
0.2504113151248253
-0.2357843983041982
0.19905681199942118
0.2511767401147968
-0.18017503283021663
-0.2557020346945996
0.01848833219958643
0.30833948719546045
0.29860247592288774
0.1663274543118454
-0.037096442384142427
0.05598028300110128
0.32461128899909375
0.054167724785448304
0.11009600064429347
0.13856750354793979
0.10605258275546635
-0.30552132777158386
0.08825981350451796
0.377159266114988
-0.058119600319963424
0.08035202478319568
0.25773540280174034
-0.16245717202571425
-0.3315711863583682
-0.07369948491473133
-0.14378887182667646
0.16191551178066438
0.3455414503816327
-0.06895614135103403
-0.015513371941914537
-0.14484502070205696
-0.17594738816981145
0.048181978646856895
-0.12834325624816667
-0.3800080725219732
-0.18884254677956208
0.05003718128493305
0.1207326903828032
-0.09970465255341249
0.03360737747261365
0.2123707188916621
-0.017876893085430882
-0.2721089800544497
-0.22623008010611
0.15055451522059238
0.031245119046710026
0.26158959051396097
-0.18994801880484644
0.2635981147621361
0.3259472566642201
-0.17506237579064343
-0.08559577992388437
-0.08975993449357604
-0.34147886943959543
0.2711816805959702
-0.28156939692778943
0.1819082033879084
-0.2935915369709879
-0.10725425158025155
0.17381012743263363
-0.3786602867992648
0.28894261886159667
0.20855259701804296
-0.3713213248456825
0.14878480310476155
-0.1734290546371399
0.17328263200327057
0.0160033589031066
-0.018923150428586076
-0.288992725891421
-0.21172597262979703
-0.04496408690983496
-0.09500271450322675
-0.2363311236835439
-0.3896623425593959
0.3778249480219753
-0.38811522711041635
-0.37411026407267883
-0.07683647786963087
0.03243990278577382
-0.37215610521816544
-0.18135004568878496
0.2987841741865497
-0.1940411852149143
0.09532526678766579
0.16609410067735145
-0.2742013838713927
-0.2452580142242873
0.03273372960465984
0.3001748953074411
0.18581861083394483
0.0371474489251017
0.22612740001550746
-0.22408299813235377
-0.23707131390333072
-0.19524353014058587
0.3921365053003237
-0.15217032024068755
-0.3355473625356862
0.34692876601856054
-0.12709422154593988
0.05038458379405764
-0.01011265403239335
-0.07533348422534453
-0.3607706234912579
-0.33301656981965416
-0.015802478327420377
0.24329743768506454
0.2556249929811687
-0.38067476972422704
-0.15638088622654256
0.37321135067697947
-0.36023437246928963
-0.17723473533307196
-0.12405243525440485
-0.3522407967419852
0.21400541465906212
-0.15553584495895867
0.3131305163269041
0.12938453928031346
-0.29919607622368405
-0.1433979665131902
0.1261782633243656
0.040929751163053946
0.017880446134323033
-0.2606171216348554
0.14811987509988178
-0.2631304286195454
-0.14330419539309797
-0.3092915305060579
0.11269792016994827
0.032419515103146196
0.11880625332333616
0.13160848359105748
-0.2302061837125199
0.38560308412501015
0.03590991753524326
0.12372905871402443
0.35658330481071765
0.2219576398455963
-0.28176766162359196
0.3670707229557141
-0.06018333830503462
-0.336676617168327
-0.30904316055525877
0.061643758310176294
0.2081556744261397
0.20922279504967328
0.22378458291044687
0.1148282594910012
-0.2811538778250493
0.3143296201088412
0.3110823539080506
0.39045485002308505
-0.3836513396029403
-0.13133217245337042
0.011248987131002025
0.1756199779371283
0.013388043630993456
-0.15691207681482156
0.08294305281895006
0.24564179671585154
-0.01021146249718158
-0.07815291785422959
0.09413133344007324
0.32155692848192813
0.3559171838321997
-0.3154014186499931
0.006490846646146901
-0.09492096749368965
0.13964499417843015
0.17837918885371057
-0.34305511997338983
0.24475783622412783
0.3221892001457421
-0.18445945588745297
0.12774038252653658
0.3801753074313758
-0.015485562388148529
0.2959757411209361
-0.12395476983803468
-0.32137609251965876
-0.09311970519159417
-0.14385441059723117
0.09044798648087472
0.1869477939487526
-0.23954031623188649
0.2523203088457974
0.08921524854727841
0.2351530675416322
-0.3418609911798739
-0.3661580518059429
0.340374315903966
0.1855524054988171
-0.04503353732965529
0.274141295569605
-0.36732134967466445
-0.08324680397316717
-0.0024980667912642175
0.23037633033607569
-0.27325937231520425
0.08338236172058693
0.3111357226324488
0.16518588295517653
0.010043747503562055
-0.2674642041548886
0.13311783172060143
-0.33839449341476646
0.3648597856311247
0.23923793665701673
0.3718955856837924
-0.2579985612500566
-0.1020309347950898
-0.3673504173332917
0.31241071753390787
0.3127812794116684
0.1888201769269516
-0.1748122171217467
0.3032624943786204
-0.07347970163786412
0.03772533886755316
-0.34375382416150685
0.36071878549221703
-0.10598169396716557
0.1593572237652482
-0.12161745832475354
0.14661444413070865
0.3136892621883039
-0.08580246880635939
-0.3922139875335911
0.21555910913746237
-0.07466679614703425
-0.12029754415343245
0.33588533106972723
-0.22659506394511858
0.22464906414268257
-0.26289095758656167
0.1978132371159632
-0.2771185799824738
-0.01845337525966428
0.3376134796248224
-0.02250898709989965
-0.3441641921893977
0.24183819775185142
0.22920978165915162
0.1410409319261875
-0.12943825378379722
0.31781687668598174
-0.2995833518801427
-0.24178111867221966
-0.378325949222127
-0.15209327400012224
-0.0086758541009903
-0.3906153083541588
-0.023478140627615277
0.3489370927342431
-0.2968674056730702
-0.0019679923488150276
0.026552170774230187
0.33885610045351666
-0.16442517712922453
0.21296485978471516
-0.31718714641069323
0.28743464799651247
0.309585064750975
0.15739955535989175
-0.23703989838009673
0.38635917833869626
0.11179240757173023
-0.26732652477721025
-0.11966208826454922
0.08969201998058443
-0.20614806389158133
-0.08681286424405558
-0.14091065241527764
0.09576390421758603
0.025715831571641045
-0.3401909810516103
0.02693261410923846
0.26615080865313756
0.30648758072943794
-0.3397064756366015
-0.3747720868701053
-0.24339821053489366
0.2897237066732593
-0.18899731505083067
-0.2716363455400042
-0.11704921378644659
0.3361716800571941
0.33165180454835946
-0.008467826874245958
0.09975093720187314
-0.35271693316596503
0.03749423190592261
0.08140971336812079
-0.15453392374066013
-0.3425685928367564
0.26930254379052077
-0.18325894006421617
0.07585045581121082
0.35674177532500356
0.18355519228133435
-0.31087904930875454
0.11500124995147777
0.13864567577380646
-0.3576453748098627
0.20436985470197652
0.14724928186137448
0.21618723003371365
-0.144300641214319
0.09026120581450024
0.12724331553364882
0.11849644538055998
0.3267658912386369
-0.14302784292662943
-0.3534237021418075
-0.040116914612373475
-0.23932389385782707
0.1972998283281853
0.09608686546714701
-0.10906562926503062
0.35413751021557693
0.0394028976917643
-0.271385528009497
0.07360854269944263
0.28322091951603495
0.37562207174268053
0.29738480236979503
-0.09432515454773234
0.2977870525518564
0.21812688401180313
0.07585493788860419
-0.24174176241291678
0.2396918176278049
0.07814643782486261
0.336064516671036
0.19193237580585454
-0.11039845493182732
0.1985126326800096
-0.29372020872082844
-0.02848774708612012
-0.27448632252903093
-0.1497396690546598
-0.18897717965689848
0.2844121919384584
0.2723845205761473
-0.35505993452961365
-0.13847376457634503
0.10697606434806171
0.17467140798164307
-0.13393279090438395
-0.3680186634341092
-0.08768609549930353
-0.0010220129142629198
0.20247148207584872
0.08114020122236712
0.058397966605004493
-0.341171397434418
-0.07944527116280882
0.2982758607297225
0.12314224077805447
-0.20984566846930158
-0.07323400527947724
-0.02861695087694828
-0.022677670547341943
-0.28618482036009973
-0.2857245501960761
-0.0729621451436284
-0.0032578109944643484
-0.15721555202080062
-0.2286924228355296
-0.2621672081647764
-0.3460112846519165
0.12217802815041588
0.03543333220171805
-0.27009469368092975
0.01000684308947174
0.3801654331325521
-0.3354372406434695
-0.183738817958554
-0.3525062417700049
-0.0966826234217194
0.1422565962474506
-0.3019235122274751
-0.2537379851888499
-0.15996233153472839
0.39179999969724055
0.13246275156943418
0.20511497627235556
0.18229728719487528
0.19638576635470742
-0.3448224378618029
-0.1684897164454575
0.21291209651919818
0.20272776424890748
-0.28174307375125757
-0.29731953360135377
0.09212560629034189
-0.269150507343515
-0.1729711446491825
0.11123795216233406
0.18177137931210768
-0.38933283974159283
-0.036671650851612156
0.035453779206343135
-0.16223707935226983
-0.17416843682993405
-0.013070785222921898
-0.36922033763093304
0.10697232029582676
-0.22968425584520097
0.05613591642251842
-0.1216544459358147
0.1135360151374945
0.3673567026729084
0.3571096534267862
0.2498374686590466
-0.10106257448425227
-0.34751924059933453
0.06752228423559503
0.1299219454614827
-0.17240869769092762
-0.32994291101835166
-0.20898705722447086
0.21167233782082945
0.0772784396510091
-0.21265553307392568
-0.16281404157739923
-0.2890465753465584
-0.2173353605763121
0.013264008648230775
0.3079255398854054
0.3116922970488847
0.020609287531248372
0.12335653322366469
0.08555812395304638
0.1417860007484631
-0.2632380568627633
0.059755829208028625
-0.24055872197814943
-0.04693832689702116
0.16883859693543662
0.16542142189957573
-0.19969378399875773
-0.18271521323203235
0.028092394682736853
0.09103684334056786
0.15665986189558215
-0.15648694179206235
0.2191395022783
0.3275372350260418
-0.1450769624654864
-0.062045567119897574
0.29042288516803033
-0.15055824704337284
-0.30731556331813936
0.009068834499450834
-0.3134637793410829
-0.2944306593381477
0.23326757075606705
0.26859677181507685
-0.2298932412960351
-0.39250574406322936
0.30934311224288075
0.0626941472026595
0.32908185502483733
-0.19340994479417037
-0.36088971017402544
0.005135277276662977
0.01717788168155167
0.35372180640002404
0.021450809085716324
0.22071369788460404
-0.07529092014631217
-0.3737520983271192
0.1793540009881951
0.37917586475422127
-0.07012118055628451
-0.02960521243085303
-0.11785603661482613
0.18410982365853026
0.06669814302126001
-0.1478949492924704
0.37403253057587277
0.32588316507745646
0.02822596989787237
-0.2475817178013836
-0.09090678764007948
0.27355941901984715
-0.2045560958036331
-0.3757282351938923
-0.002548173651861656
0.3014165334263738
0.043155169227175876
-0.31816956415432757
0.11174035401279223
-0.030930975676126432
-0.30360584335983465
0.09945025386846673
-0.39196647262137846
-0.3136768105375641
0.024156312138798226
0.34573835218302384
0.17864110536464436
0.20504685058680944
-0.3311393802114509
0.2061878673635656
-0.18529149040963483
0.10920643611401308
-0.34959653865724527
-0.2747208695079765
0.22273973203561045
0.2548004763357488
-0.3176174907723114
0.02226521694731721
0.025398843816462006
-0.2623413381285599
0.061509410420891794
-0.003254920548881547
-0.32217795514148767
-0.12664164324655006
-0.31789603128905763
-0.09276309521957529
-0.2395909488913508
-0.09821390390118491
0.14372800704120167
-0.38434538499080906
0.27867658856508976
0.28263020083554946
-0.28353036066948367
0.21998572377358813
0.3126200495224643
0.06380117754232234
-0.16950122364722467
0.3495800609511291
-0.38762303656247954
0.13535173370159742
-0.02141507443308945
0.3552258905269919
0.02037536221430111
-0.24788011211498645
-0.3897169328184922
0.21515312328310265
-0.3664852671816237
0.07362388344244376
-0.12609291693159336
-0.03299393479376247
0.17729532766806075
0.35834382765013895
-0.236354434541751
0.01955890449240948
-0.255242765827054
-0.15830963514081436
0.12702203897860498
-0.06420135713666193
0.3158100483475972
-0.10920476741919463
-0.08677123302103265
0.3538034085570992
0.009913307854307035
0.3900768078042764
0.35892644256089207
0.0530640754055697
0.2781252489012467
-0.10726083538337791
-0.3418915091569162
-0.15071181533007835
0.20566918967018138
0.039761153443588444
-0.3134934061325252
0.01623546741851394
-0.01108914193881087
-0.051540105312993426
-0.2998059281314196
0.21570936854522135
0.24922471219577436
-0.1115980523579489
0.23562344123796117
0.31298856519569407
-0.18728709254128342
0.1647029313639326
-0.08691174897325007
0.20272792846272863
-0.11672578662837924
0.06756041757401819
0.3063010325079371
-0.22951538218941242
-0.13119246380103544
0.005484378011604388
-0.3498534641796094
0.10223367030764162
-0.3815258427492433
0.06956908187772975
0.2492181182277631
0.09325279733349916
0.012438292995321214
0.12761295626321773
0.2804801165767808
0.11650499094817512
-0.3602631884608828
0.06829256731849889
0.3331643778781925
-0.3648366876806606
0.03037849873948736
-0.08648062438135279
-0.07034516343418175
-0.3248252491783661
-0.14515027109804526
0.35195231727260107
-0.08212950043271629
-0.31012610952547814
-0.2021755288671608
0.09616289593584111
-0.33951695247619634
0.2697718836106961
-0.2496695775592019
0.10988406351975132
0.3785959230474396
-0.34871203004709317
0.1213553208173213
-0.36033987162092174
-0.321523651673045
-0.35301904864485467
0.06124795365592327
0.1561885648941073
0.28653282383543843
0.011760199508222846
-0.30374431971674604
-0.196071622993419
-0.30601629340849035
-0.043348817076307854
-0.18873796108222105
0.22668803567932042
-0.17936771021397477
0.15244259163415277
0.2924868127572074
0.23887340411148952
-0.3002783199299742
0.024460448932374767
-0.23745056896749875
-0.24764920486551392
0.1657683543083471
0.07296720244709141
0.2777687448761559
-0.3590471693944544
-0.025453542174908302
0.23480193813391284
-0.059225313190601515
0.20753427983516257
0.3416580572748569
-0.3048741486959784
-0.014413261783210687
0.35062807662570444
0.11120045137021332
0.012649762130621665
0.31132358556216044
0.2639219666311073
0.389138689391882
-0.2215285765337029
0.2121279158358082
-0.031746210705912464
0.1978655494173235
0.2896063574649611
-0.26402923598773353
0.30653967523862713
-0.38692380519239705
0.04893466124711837
-0.3211141937257623
0.3927168789030697
-0.37028140363925816
-0.028405950435519557
0.31785946568840423
0.07943425712324377
-0.015285922536080425
-0.24459714751098816
-0.1594648607949014
-0.313122301553209
0.21615693403423855
-0.023762449105774967
0.0937451268962956
0.12930820045648836
-0.12948907743894156
-0.21144583173833123
-0.29418649394197255
-0.07664656842235587
0.026982387885603323
0.31947013466400387
-0.3619796352473798
-0.15543445131473338
0.36399315212404465
0.19228927960198372
-0.3435971658829439
-0.04851147348252085
-0.040169921392069395
0.28788210591733343
-0.3543610741772982
0.011869022133805808
0.35366154566511687
-0.3420613091332862
-0.32430657417387443
0.3438527746828065
-0.3470792601194968
0.13296416013059062
-0.2562708122905236
-0.06460738085811371
-0.14358919888927665
-0.13224005076299053
0.3734421121682167
0.0705328214908448
-0.3793218706915746
-0.20681210266803285
0.3395929008585778
-0.20873861107246292
-0.07730528069639114
-0.32166854639152814
-0.3219394416222762
-0.01634372939923736
-0.01707103831523339
-0.23741811477792168
0.08316355065884384
0.22880461691273118
0.1860534017525062
-0.31747569207049625
0.2586971580600041
0.12152630079317854
-0.29739177895440266
-0.0050994240517858525
-0.21704498462898517
0.0676233871075289
0.034084763324211266
0.17452750533961023
-0.2648548056183064
0.025365897916485847
-0.33589582255619177
0.004585050743302559
0.249542151508716
0.2079147541782001
0.1535903999125116
0.09943863416218762
0.3364741453921316
-0.32029013840487885
-0.23741914616418192
0.37324091635472856
-0.20031935830397793
0.07151712061701654
-0.17254319364874893
0.0422286517651926
0.2507498577831973
-0.33108417827445163
0.012103816874927153
-0.21180841483098722
-0.290480193247128
-0.2054587427264027
-0.3104993082354691
-0.054668260782277676
-0.21102027035980764
0.12060633346805416
0.1613290495756522
-0.002884380910803581
0.1785840411710101
0.3822726137866056
0.21332566112259227
-0.28008658484381654
-0.07664252703952845
-0.21986073885723406
0.36455371855971064
-0.15499295608419086
0.19931648628310122
-0.26981973682055527
-0.24885625819647283
0.11423100381866817
0.012170240608762326
-0.10669516913888685
0.14726433603556155
-0.1872473680449802
-0.003957465620653817
-0.10787701398345263
0.06929652585830813
-0.1698141166414706
0.15209838428916603
-0.2937130478410612
0.1732668447545441
0.18258159978512908
0.1824999569312963
0.3285738133412255
0.02591872267995929
-0.003941856976732327
-0.3450620011255027
-0.34667662042919045
-0.2631240151022958
-0.2783952041173361
-0.16149631717938726
-0.021463716371467604
-0.1320470679807604
-0.18685629890134053
-0.161112736252045
0.21791954002221373
0.37586356568839924
-0.38942430267288863
-0.1714655993880179
-0.22399062514378953
0.33090906273171183
0.3753012622031771
-0.1166564093202927
0.3633969429217959
0.28285235321184565
0.26084528018563163
-0.18255411811230648
-0.21788031468745353
-0.23016541251008388
0.0845609699778123
-0.17416922534741885
-0.38079495104856065
-0.2729937013008523
0.06968055181001008
-0.3743532115215979
0.23016797492580543
-0.17971371338130526
-0.1582742636721297
-0.1564904394139978
0.2589334394630367
0.20047919738172879
-0.14131788763179487
0.05549330203175918
0.26135063963157185
-0.35194967436118707
0.2571850805053042
0.08274382093726347
-0.08862470695830788
-0.1671668060024368
-0.34104591759385644
0.08772833736958371
0.11212745672829871
-0.1122926329817635
0.026674752007539326
-0.007265410144983306
-0.2938451632315933
0.37743506950560485
-0.1643364568176491
0.10693053348604124
0.1394639168582805
-0.13589938861857892
0.1030009112115491
0.25021390561133505
-0.1588387071254797
-0.35184713950525265
-0.10855207896243932
-0.19057065340299928
-0.3045289073903003
0.1642598900388748
-0.36116813994626584
0.3421503414280343
0.20935856445099596
0.02782379128226409
0.2660810276662861
0.06251231419718083
-0.15725397682542547
0.04584682719714164
-0.28050606957066165
-0.0021510597963023126
0.3582471002641205
0.24659778491498907
0.07811279864912889
0.11243623094626423
-0.04078843367443161
-0.21658924391546322
-0.31719289042963045
0.2843816981053302
0.317153328245676
-0.12389376490203816
-0.33991518816295163
-0.19433688143172212
-0.3125203307490915
0.18934128599725877
0.08071421535152692
0.3839012639165052
0.10003603076555738
-0.1610739730359485
-0.3440828461550048
0.18535032408643995
-0.18796344315092298
0.37936221951624594
-0.1683495225665826
-0.3850484236857401
-0.18554504123416712
-0.2900101006575195
-0.35808338015413244
-0.0490918868168392
-0.2262045180952919
-0.23832378512254482
-0.34919324003337265
0.3177506381415434
0.1435796756541574
-0.14894843644870384
0.21159728780224968
0.3870567830983051
-0.0651980094715757
0.2162811979390258
-0.2985414588828082
0.35545233408622967
0.0289937381810971
0.12226103074063563
0.0980496076009081
0.1485634369181181
-0.3726398486886935
-0.08699450523144775
0.021925464056065883
0.30513085008938623
0.354781760170427
-0.32209234363861855
-0.2605728821200154
-0.03078043534924709
0.28030934555144144
0.2606255514588287
-0.08321936099513087
0.34343095416430763
-0.1447067916541748
0.1930147439515409
0.10600634615688359
-0.1415932177979708
0.33308715913507114
-0.23630383257629903
-0.2393349278808501
-0.2719111276270997
0.29400941298695854
0.14166261004170702
-0.049776961722540855
-0.17832360610534834
0.26526491555626763
-0.18632143266971155
0.225288654354881
0.19112115476113622
-0.32432362826339073
0.14543099236825172
0.32900459763895884
-0.37044282503791204
0.1322883842953842
-0.27360746875136005
-0.36641419672589054
-0.16554814445410063
0.35704475868495045
0.33762659392454725
0.3132010246663074
-0.36359779103862877
-0.3124447613000589
0.16026983816494586
-0.23990733105908096
-0.3441871637789258
0.21345802230218955
-0.0575060647644713
0.1963384178103004
0.1383674816922337
0.36788428927498396
-0.3103141270203398
-0.028339146851047606
0.26379128200581
-0.3813801544618252
0.04366685204207465
-0.3484547368999246
0.09436061355383579
-0.02020473312739532
0.13362953661165636
-0.15253980042660514
0.3086983256838477
-0.143530913495324
-0.2850252369189288
-0.3106836237072528
0.16031385850259788
0.1788807571562906
0.3087208692889206
-0.014387370093089023
-0.2890245888591185
0.19524268991375546
0.22918989061404435
0.1815386985993782
0.2567709681999791
-0.09490379225265984
-0.3032145303221206
0.32459847668710545
-0.02698257850556247
0.26740281192951787
0.05846708263123613
-0.15728599879076458
0.15503655982530984
-0.02685742862516695
-0.05655497711803245
0.21638355702299392
0.33673257850759825
-0.3297002921535765
-0.29762444689313255
0.2526550726767529
-0.021162646422641842
0.22781882685129204
0.1523100161146147
-0.02793833042299395
-0.2569077605975599
0.25204421361426044
0.23362655173592914
-0.004609978011773096
0.07272905702923733
-0.06776949875446175
0.20165280263609514
-0.1299263844677305
-0.17721301946132978
0.24924945812470933
0.06840407618871788
-0.25679133178975283
-0.1156365242192789
-0.31395316624039077
-0.1979070173376916
-0.11779269024968925
-0.3690131857666604
0.2711559739730903
0.16258102127449603
0.04012837774975361
-0.3687450712324018
0.22570329979062165
0.06035636116672896
-0.35816965747788004
-0.2600916098707065
-0.3063598282494735
-0.24373521409135815
-0.34565957359192817
0.07939873337639584
-0.0618217335858389
0.3729271333872927
-0.05399377137065206
-0.2739002571466697
-0.07677897392063321
0.32946466265356006
0.20928676043090907
-0.11544033976721696
0.1851266834043224
0.1636311888345842
0.21070241154118566
-0.00994167604444841
-0.22934718739628768
0.28403579610551843
0.2221334765510071
0.3538909329449449
0.2407370470011444
0.2525257886983144
-0.15317139304619218
0.192024071607175
-0.21307072490155016
-0.02175275906659338
0.36044319245413503
0.19212757588645166
-0.02755191841504845
-0.37475256114877886
-0.0601311935278685
0.1363200102856473
-0.37684570131300904
0.021839986883726025
0.29683535309125125
-0.09220951793619823
0.3148232002043955
0.0621891441894177
0.24138149035173048
-0.29209638443615027
0.16186100019817518
0.28388050298437095
-0.05991720107279489
-0.37822206870542774
-0.3625434384655927
-0.1336487321378858
0.02917341067188293
0.1591021153520879
0.37189970817155277
0.19327982063589735
-0.04725268537068161
0.13601891078527426
0.012583424049824874
-0.24756449141363912
-0.19202361506145776
-0.18420515540938048
0.24176585860178798
0.3227195968901514
-0.19654238044558509
0.036823322336901734
-0.1158505795363548
0.17246586953380752
0.23339070326823136
0.24590444236157552
0.13619899366071425
-0.05465434326174149
-0.3473433806640211
-0.13099108892105218
0.10352114127958315
0.18105879656412338
0.3361918002044165
-0.14169565901995693
-0.31600723178057083
0.37252783657879085
-4.5484818098862065E-5
0.26439249467790027
0.22619121418934832
0.28554993377198895
-0.32346917452691715
0.007378205559433495
0.28673308269485875
-0.27019733359841785
0.28674276808274546
-0.044325255667904226
-0.13920796304526503
0.14125855448274652
-0.17049435020326434
0.1784980556082461
-0.17390633691710455
0.3680224369013609
0.2000574191001833
-0.19766480174893133
-0.363341901191568
0.21328599088376074
0.013208737297066458
-0.13144727052027755
-0.23938666393570915
0.03633534033333218
-0.2339868761277262
0.3017659838829688
-0.3054021590936042
0.22852428727607108
-0.06694666205539967
-0.16279474403421443
0.22978595530898432
0.18810315571688374
0.014946206476244202
-0.10932733478956302
0.08493057233529187
0.004729565424887936
0.33386191663162995
0.3155877613101376
-0.1771095275516638
-0.20258955804776335
-0.08507980770621425
-0.03272781541486814
-0.20019908357137417
-0.19895961578457866
-0.19697994838238223
0.23627724698148203
0.37000387682910746
-0.18915767747310958
0.3867465941287527
-0.01585973969438597
0.0010649914963016171
-0.11518726268527882
-0.08493890175281131
0.17621464411208787
0.03276637966932187
0.35584756548467955
-0.2909877779301758
-0.07002718037002689
-0.07579189804707603
-0.005924615399894801
0.37450950947999817
0.11767725261168689
-0.206909041192576
-0.2699885394924748
0.1591124958923402
0.22819912000410392
0.05208605050431485
0.35499024037614374
-0.21778217332508723
-0.17612793653854047
-0.0576346494829401
-0.3217614760733289
0.38119747008848714
0.2677074096617297
-0.13784706712274303
-0.17293664879013038
-0.21692427141836176
-0.38974610025182416
0.27836913276835307
-0.3321168129659556
0.0016685397770277311
0.12346529413642511
-0.3680229871695404
0.2971089723831396
0.33658422268900023
0.27461163725392984
-0.14373188878131538
-0.01364261467037384
0.015975689037635382
0.008089678005663768
0.28575961579171166
-0.06396440880297877
-0.029182165821209312
0.3637722632245147
0.18501256985315415
-0.09427243992615857
-0.05645684332744447
0.04913715389373026
0.16479085741471483
-0.24483646008336246
0.15021773114457673
0.13821061221404446
0.2525946298223481
0.13535516168586129
0.011911249595305097
0.03514079119658666
0.37243775950135927
0.18442783032045537
-0.26666369885381713
-0.18944653017428684
0.22867627803207852
0.12608652432560555
0.33507194629598025
-0.23731900642483178
-0.09270296027536201
-0.0645130725626621
0.2508991517059431
0.24423921245131783
0.26710659297331324
-0.16009305578675562
0.24518975293513004
0.024113831943237594
-0.3038739577825423
0.1852127673175673
-0.2645521103237731
0.3608948666336334
-0.12926814507750253
0.0858557122712998
0.3431741085232485
-0.24228326807289388
0.2763800368653193
0.02974175234571194
0.14992144007552588
-0.16239736408471173
0.33580492632824
-0.35686903816925475
-0.17818935481153414
0.0054263443060067204
0.06070393131455483
-0.012335338005030942
0.254153384718763
0.161117693916429
-0.35907796098147904
0.15950184278433732
-0.12188049785762439
0.3823567313764224
-0.2482721583420689
-0.10235709344474075
0.14341007317834506
-0.3348343322512599
-0.028578441313624175
0.1646187085762342
-0.12165843658299651
-0.11862404422169547
-0.18861085973804212
-0.2552924249310506
-0.10916015164010051
0.3571044793697118
0.3549002268277323
-0.21667475512900009
-0.1631242457140506
-0.1091877306980972
0.08498586866806519
0.35641671811150466
0.07401774683912771
-0.2268779188815659
-0.29661674619296047
0.23763714413439693
0.19347021671872855
-0.35250179942539034
-0.12836798431096189
0.33371143159815453
0.3657358214705133
0.2017810065126782
-0.3735611990344976
-0.30062427184370966
0.2795864049948542
-0.32098392108401114
0.08494520261163407
-0.09577274589015002
-0.35296656118059955
0.2665014962933921
-0.28306185751864493
-0.18185186174976714
0.20216833386843036
-0.079179576396648
-0.09830904317059419
-0.18645763632217055
-0.2870063206476427
0.03006657689313281
0.19675522588260988
-0.2565994665631593
0.06835383319515108
-0.18555808636857268
0.14261353148995604
0.04942193368304127
-0.07593257959032773
-0.07561352141643062
0.3035710995008963
0.2146785301502715
0.10636510016265696
0.03266023623036251
-0.10072769532437607
0.261755376233534
0.19874891202062134
-0.06879602588098961
-0.14994762787964513
-0.35522882505164466
-0.06939303796641816
0.1787167464642905
-0.17621434113905488
0.001090107967563456
0.08668896380804496
0.1304465257606325
-0.2060257623897743
-0.3351415580277336
0.10294986399663028
0.3542985831114974
-0.22417070502993983
0.23777980560458772
-0.07193975543964849
0.006092310815496657
0.21683413868662893
0.08794305914041917
-0.07741964145440168
-0.24061243013748862
-0.07775246518072118
-0.03131460506846096
0.08851758902506371
0.37829898094610553
-0.1997226038318334
0.37117857245845065
-0.29266146316614106
-0.1687075835217848
-0.338341063963847
-0.020816574204377374
-0.043731920868686346
0.24714740204258653
0.30159673712020846
-0.28852478981957286
0.31328727121770794
-0.018338970401930683
-0.06432929542956922
0.10354342971600032
0.15072741351623842
-0.12413107505180307
0.08829470739150944
-0.11392463054470393
-0.08880816248715068
0.10827487446620516
-0.23992215121668536
0.08439409053542352
-0.19217472822427684
-0.35044474515252794
0.26216966337938596
0.2273366927578451
0.010168378351309846
-0.09043053891456238
0.0031693832547829183
0.19778970993787218
-0.13945461011878188
0.14953798494073972
-0.029072282892797997
0.237927439093806
-0.06741733753834322
0.14651389972122472
0.14142034914254625
0.35522408282625967
-0.14497673101308803
-0.34522641631524226
0.12091793385023125
-0.37917188266080515
-0.02080500858360552
0.1962449045504296
-0.1651545209960949
-0.2637433561291467
-0.3868682496086764
-0.38781696470087335
0.33023451029262907
-0.15800836052643324
-0.054247211932482005
-0.20773904171026156
0.08912495761324182
-0.01577600921438382
-0.040114802492931485
-0.2404641780835909
0.09168441231362129
-0.24541178279020387
0.27615949993817
-0.3104733545705579
-0.2539746425032739
0.27548987379426987
0.08203148422582204
0.12289529774702672
0.3774403414726892
0.0024998599617083684
-0.028167676718632597
0.11761215829253406
-0.2601014738518842
0.2560147718184733
0.26478516858968504
-0.1885686348926003
-0.23795321242688341
-0.30143669111435467
-0.2807046407059259
0.00363867252883953
0.25771324760608477
0.3255927543127363
0.11079038749401836
0.016955191295247883
-0.24482285482212418
-0.29694222953888766
0.03841706212161403
0.1489055094367862
-0.29350109928706053
-0.04432278233848839
-0.18513948487587414
-0.03299548603355178
-0.32282040750521257
0.31987715728552246
0.16494239907945946
0.3867794736947927
-0.1285525006373543
-0.37748720001697444
-0.3020876174154463
-0.09046982638170849
0.08886704390019728
0.2740194591674168
-0.35954812812231246
-0.2101118896629248
-0.1474235280597152
0.3588584099880922
-0.31290812274762486
0.27163130923208134
0.21136273863759367
0.09943956811804229
0.07687281877504558
-0.22755811695591935
0.05158448472902299
-0.1651836150143342
-0.16615161997700775
-0.3165050910611587
0.10125044862942356
-0.08147247565535091
0.04129504306384794
-0.0821228349633041
-0.024387139187651407
-0.21491034725489816
0.023345242548625623
0.2532300223323921
-0.30432298971317123
-0.15131859313891816
-0.23535808894797572
0.11919744047425045
-0.25911054576473386
-0.2642615901998774
0.36233633199941356
-0.3881554447439953
0.38468371568598536
-0.3121091170271586
0.37734275569707093
0.038349259043992404
-0.35508232121608496
0.09418351136139375
-4.430283096736221E-4
-0.2876403693663027
0.04668967685317141
0.22783157325683548
-0.15756479480688848
-0.34208784634077494
0.22772068360088796
0.16172815794866055
0.19209767048876586
-0.2680887221791954
0.16536481579270973
0.09838919767497593
-0.2557463540878231
0.17687474053926436
-0.05494957600488017
0.3847932574465911
0.33751795832546977
0.3097512187628515
-0.13415203900650705
0.3072349460700156
0.36352017230783706
-0.007445944622522491
0.32979396474992967
0.2959332318478497
0.24487264197019623
0.21387738268366951
-0.19939549752236424
-0.22423133367115802
0.15606914381241402
0.3326494111160293
-0.33584255145669084
0.2822168156302692
0.1148464560371856
-0.2893118437842144
-0.24074499961729282
-0.07339713670224329
0.24121801937327295
-0.03303126347987498
0.35833362782106787
-0.1903853822325977
0.11358297835475901
-0.021337328323819637
-0.021745631902929902
-0.3391195483713605
-0.22441876752834078
0.2405733124820885
-0.33251840090848495
-0.1478581268126158
0.043660292721523754
-0.12030617799916975
-0.16551230745801992
-0.04316061958335248
-0.2957735204114926
0.2447878816685835
0.32877737319504247
0.18412174815934343
-0.18489035330401962
0.2408052254775961
0.36723842452118866
-0.17912625404443872
0.37316350785856295
-0.16180172796289047
0.14951128597346416
-0.31918189091911625
0.046633747240025315
0.07740439753403477
-0.0067404820725459925
0.07512865849999663
-0.10612587075137886
0.15051903272080877
-0.12012117793734534
0.10740260263564762
-0.03725575134060427
0.013804640657128752
-0.31951762729393685
0.24798378527170595
0.34077448583844844
0.03939021449045866
-0.2149647044443124
-0.06506197674925938
0.16264320128254434
0.08094467478120382
0.26064333904253223
-0.05836889754682201
0.0013584966851355798
-0.27109358758883084
0.29594206712841414
0.26476174561413973
-0.031983382822755854
-0.3156239466712831
-0.09423275589764024
-0.23588565632827202
0.36597379338907954
0.2864688692768327
0.32487034958093275
0.37257840314496105
-0.32612753240692655
-0.11386215747279756
-0.023696112039587817
0.24389220052724825
0.18320403223299592
0.34671365527521963
0.38063398922264047
-0.15601597803845552
0.1572265640381551
-0.3102762004912217
0.16372451978181002
-0.30229171861009374
0.1589853236286497
0.33777261833273814
-0.2580104062531989
0.12494231654932268
0.3497714078924373
0.21228015086780708
0.16880911907147206
0.07702031876196816
-0.3378822205892926
0.3038052410538368
-0.064659406016969
0.0820688532247633
0.3473574792513167
0.19570844584179073
0.23133565875746195
0.16591236704072368
-0.01746808445726576
-0.38468881744042094
0.2427881108412081
-0.007090207785387242
0.057861464863443464
0.26914338130543397
0.07673857286497417
-0.3143918550595831
-0.17880077442856201
-0.020070040328566487
0.22866121935706943
0.31019124335846227
-0.01834496081529543
-0.19425535282143572
-0.018450141052152636
0.3492972482577749
0.30830916293590166
0.007445900810731243
0.12028787807206053
-0.19438083433111203
-0.0836253378671021
0.256634821354519
-0.004123928289896293
0.33142499743906656
0.12522506881617193
-0.36099649755869684
0.28695566301260805
0.2521145410248156
0.22011389729885508
-0.020405707700318992
-0.15847779692392136
0.005878997514548381
-0.01094195174944164
-0.0563326629994303
-0.31618428000348636
-0.13556163308296734
0.2429383319957117
0.3402018970220949
-0.1559331319238801
0.09462696439767006
-0.17659886648426568
-0.3028684480758732
0.3924933983238079
0.32549573028628936
-0.26134630978858625
-0.15167196712881345
0.31295382285663353
0.2677191128065916
-0.3724053852782012
-0.21887009999627516
-0.3271121405465403
-0.19457326812019882
-0.1656597351331936
-0.35167187550172374
0.12294061950252776
0.151205932532159
0.33012378403803583
-0.07086766535387713
-0.1738232474038094
0.3356451164524794
0.33402149131535563
-0.12258319632379605
0.15442517316516574
0.17882322069802745
0.31950108826299267
0.03398872501022889
-0.39129942443090365
-0.024275407515298185
-0.24832861376816012
0.38343197530561157
0.17214676959724037
-0.07812377412929533
0.03899872694249461
0.35990248613425146
0.24906710818820368
0.10269003965206572
-0.0439130714153314
-0.14620661519571693
-0.09191082946884105
0.3698124864302506
-0.26110612478246525
-0.08253583255939709
-0.3757017118816055
0.2262078997228483
0.22426645866472167
0.17098179805641822
0.3875631413162177
0.33367079653313647
0.021948162420056844
0.3037696064245449
0.1873855840435459
0.051687435029110676
0.2578226105820022
0.22415332473307426
0.1622036203586134
0.11744987549823666
0.09159552128955252
-0.26740197854391545
-0.12041620160225054
-0.3468441972998675
-0.2947698425176078
-0.2602314893932258
0.16251765531961426
-0.11607178324584985
-0.19367643763464154
-0.12457796966825654
-0.13153172115423709
-0.19149164856321707
0.002419053965032143
0.11162528694281142
-0.34125524146980274
-0.031144511810451615
0.057694107185809695
-0.36477430981642445
0.3102332773968026
0.03368413237419745
-0.38964485710765934
-0.3806907294863028
-0.20659480876800654
0.3873114564102383
0.11140852728663629
-0.35040342944613834
0.30154435649659295
-0.09900553414380896
-0.15421355304883005
0.2566523526849442
-0.07991889290689366
0.10953946049141465
0.1754603868174245
-0.1063880276184088
0.31916030120033784
0.002037107647682923
0.21362621434701315
0.38901164400515514
-0.32082407310970595
0.026580676830320282
0.37329834833650993
-0.3504941477365341
0.1421344966824574
-0.1063413481113951
0.043792023593043405
0.27832795154993994
0.294154996061878
0.3666413265662222
0.06596369149636991
-0.11644167130473529
0.37233433583356734
-0.010691341413384538
-0.12979829221588834
-0.19997385102071663
0.34296946213984314
0.01435543760392819
0.08912987180193506
-0.37330262673357767
0.15530903496951168
-0.3703059946853912
0.11283228142192352
0.07520643640179059
0.3048097358244354
-0.11575656378092053
-0.3245569921025783
0.14355501451125913
-0.38994577600190267
0.25845430295946387
0.3179812197007827
-0.26948557164876197
-0.2531204646596769
0.12824742056925462
-0.3386925811646787
0.23983162457838408
-0.037120314316957885
0.0465896624718866
0.05214469865043227
0.2589464383571816
0.27443484959481124
0.004365889603277502
0.21247535892237387
0.026791384432111758
0.07533681721308723
0.27919349352438316
0.3847148496286533
-0.19598881278179026
0.0707958639461548
0.004285619663882281
0.34892897311396864
0.02730836114580237
0.03396500212900696
0.03097699858376801
0.37888580355653473
-0.34101523038445436
-0.17256424624778702
-0.24875182361193024
-0.32292473394452537
-0.01704398978101142
-0.11149480700998722
-0.16323038360529754
-0.29991401627965475
0.05549203175049846
9.679172969398064E-4
0.2984828310513997
-0.20801725621405948
0.34742863089535647
-0.11358174182036515
-0.0842998877613614
-0.20237344745782462
-0.28618141911574707
0.16322539287046794
0.019485006151393026
-0.13295574658136003
0.22279271551771473
0.10822154177782708
-0.0895303445594823
0.2386791402723586
-0.31432876966275
-0.3747936153025671
0.18208242896282434
-0.005063251067002184
-0.1709706828139581
-0.03921580236841616
0.2306902347766897
0.3222322332969362
-0.35023681614645014
0.2829145435339486
0.36517834504867375
0.12117626530177024
0.08524221789113101
-0.24707903737415268
-0.2123369068003176
-0.19683212098433953
0.150461115388203
0.2627259947419143
0.20283067873577187
-0.11279248442244841
-0.06851648192561377
-0.2948188655495818
0.027346738885700734
-0.1782457720604564
0.11800365618527833
0.12799618655070336
-0.21140221854201915
0.18379017435381845
0.0707236858204809
-0.20369422102495413
0.23111319492728274
-0.16774929409937445
-0.3738708626823018
-0.3786593489384177
-0.09092008671061658
0.34300128066397595
0.015031514258699294
0.11807125031613346
-0.11829251240037224
-0.12714712012979798
-0.025400707790712365
0.028215520251801286
0.3302525304176827
0.016547846601790022
-0.13553153474009685
0.03574835820397376
-0.2599033126906326
-0.34914741387989795
-0.33616296728839196
-0.04599268826181836
0.05449751757014375
0.06141963567721026
0.37885013698401665
0.1457170516800066
-0.2413728851311755
0.2508412284919617
-0.051728641785027306
-0.007030893410268178
-0.26451627356886653
0.09195673180007947
-0.1885844796046888
0.22222216952795246
0.006484023770202818
0.3325424634441352
0.07818944122140789
-0.23860876608110462
0.3510273130636697
-0.02117424240856196
0.30739697886242434
-0.10621237637633894
-0.016104844938922364
0.08761215747818163
0.23651010468402547
0.024366299163124067
0.2846380944943327
0.2050018781245216
-0.047996688627594056
0.3465178890446353
-0.2479043370795366
-0.28325131906417605
-0.2582117388206487
0.06462455782287962
0.23161594440758662
0.11231930346506865
0.1573885308755533
0.04991720291220705
0.21905015540454426
-0.1942167667211353
0.2769328728890855
0.2738199217107059
-0.3770366800254139
0.3373068083173238
0.15325720503623835
-0.3109674961741336
0.11728500001273467
0.17987663552364436
-0.248606713867772
-0.27796150347369303
-0.12629477538172845
0.2229396665657902
0.023862643742102937
0.26619301113239485
-0.026710295464192874
0.2946609552567954
0.3011820643665568
-0.13596667036031868
0.11235152660693853
0.039424534877096296
0.15704126178219713
-0.261622119671891
0.0016418897021130618
-0.292990946620109
-0.06666165996389127
-0.18185999388865393
0.305422791952389
-0.021223820684201054
0.09068958342913595
0.03597161221503227
0.2597638222023675
-0.27926875635020154
0.35154076946667495
0.2670471500993132
0.18280204915878226
-0.13434725134239045
-0.0618272086767985
0.3756057880306098
-0.18576603522744328
-0.35538673227017126
0.07680528811239419
0.2382436340425656
-0.15459800430994608
-0.20385216623579971
-0.08364650328140887
0.10147800474670639
-0.27981747941641005
0.14674084457230527
0.294716786067352
0.2789081695930154
0.2786591878392486
-0.24384079916329335
-0.020261536234099722
-0.07272125401890618
-0.1114188800451468
-0.3190149302871628
0.0043473789495452045
-0.18261140685980526
-0.16431706564937984
-0.3903299630138396
0.18959859973459164
0.07230494043495274
-0.25206381249842796
0.003899600945474906
-0.3456791274033121
0.26280652861667364
0.2294378562051688
0.2569627503117753
0.28733050862320925
0.26535501028472624
0.23789151786323093
0.08245033161543955
-0.3422887045746019
-0.32912550013818676
-0.3602384443909276
-0.1082898588679213
0.2787853036619363
-0.28347362813437416
0.15266392028090853
0.29994087466306263
0.012044692828348982
0.3453908073516454
0.21997475975090036
-0.09791681421679349
0.10609505900767328
0.06777098004051059
-0.3113256637554024
-0.20287534125137266
0.3770051708563205
-0.11159473064344456
0.14782974525654022
-0.1854909507033083
-0.17833158282405204
0.38955559799346096
-0.10419462462476067
-0.17816003258448224
0.15795959434100681
0.0270015227958016
0.25345251948015846
0.14543102131185925
0.30368166324471185
0.19427241734212242
0.28072508610565206
0.24422723251957992
-0.08763684094232461
0.1956490405129859
-0.3106271815099065
0.01890310755640429
0.03647689303747944
-0.07443633203181388
0.14944635471658244
0.14749922664604703
0.09315357601557185
0.38490233923420625
0.07220784439476004
0.17225837584686626
0.1721332355555148
0.36483109804171426
0.04892055189778543
0.25588139889882855
-0.37596731655816273
0.2623899288969193
0.0231301868637789
0.168715206026687
-0.35210284797486957
0.2326508610385272
-0.14098473594450303
-0.34897551312073893
0.13818597100164665
-0.16391360501374774
-0.07193058658680218
0.045977219561509984
0.03895883629457198
0.09949637005291898
-0.2863119277196971
-0.14960449845929724
-0.08233858773848826
0.051138241427852636
0.022880228329594954
0.32656473888772397
-0.04046511697591849
-0.28782591794822626
-0.08748786326654441
-0.3243602270812927
0.25323592922299537
0.34723775460795403
0.23864106344667463
0.015799381483449317
-0.13385368333442785
0.3844770338806846
0.10683671637019017
-0.13273374474734911
0.013376970808503785
-0.18765261691723423
0.22490947138442402
0.25699781538447136
-0.1712714920214145
-0.04895035599168706
-0.18540064471427417
-0.30195076945341726
-0.03641988043336428
0.1366730719246547
-0.2614186937558152
0.3088061951617583
-0.26824875598423004
0.17662341650961544
0.15466751101927698
0.22270060632911687
0.0881723963209421
0.12027024519909511
-0.21576908174806475
0.19507409376169293
-0.21181181151459746
0.38093528700720236
-0.1765590941594273
-0.05226774534113499
0.06598012348799828
-0.03742081107663106
0.36929303181020645
0.22219068162278915
0.22714817373089702
-0.08381904159741092
-0.26556234056653044
0.31338781101365126
-0.10278598197676071
-0.015815910298541156
0.3665076330492716
0.32741896600587167
-0.0029984190479354815
0.14282087137495167
0.3078577909410834
0.08850043261596413
0.22863864304447565
-0.167556489361286
-0.33183370281855107
0.05619835915084978
0.024609711333200713
-0.12225230028485826
-0.05316298893597406
-0.3904694036806711
-0.23133897436032402
-0.2874628469856738
0.08995148058953018
0.16749941992298695
0.26857834500807476
-0.3038714736452384
0.28151943949189745
-0.1451123287624548
-0.05702280266102105
-0.1265114072726544
0.10705477172740546
-0.007648307181148451
-0.35808483186656864
0.032595777305890604
-0.37867025064673643
-0.388921067359551
-0.3508373549281973
0.28359457450320646
-0.09650194388943405
-0.21385910079360587
0.2132161803091168
0.21178845098542584
0.22651054774914736
-0.3202896619673825
0.08169169873817986
0.2630468045423784
-0.3522681542710877
0.2406311298023589
0.023446930068416683
0.2459523395363545
0.23290852301489154
-0.2913223759540038
-0.26449676721180504
-0.3882732740215453
0.01345514377675424
0.14922781918025366
-0.11474754933746764
0.35206444605930853
0.16747835117464988
0.1329216239788624
-0.04662899058027005
-0.17704029569098914
0.03035474050211378
-0.29650956681296614
0.24869930148768302
-0.3684238240655601
-0.015317470656698055
-0.09144476166525081
-0.05568757486527351
0.24507182979538766
0.10715907765001527
-0.1850423737181096
-0.23978641632504352
0.2596529757232472
-0.3199950208827442
-0.21741974525340557
-0.32279710144110807
-0.04394085300770665
0.20599928572536474
-0.16634685201307803
0.26581183780667567
0.16514503324635707
0.2270715426234512
-0.18412328878946113
0.1813058424435083
-0.17887560906623498
-0.16490597555071662
0.16025739778166698
-0.3545116125065226
-0.20822890550979267
0.2160212079837266
-0.2789366184657405
-0.37499040719401866
0.1797440140749488
-0.3495441663586718
-0.05636757870516636
-0.38550086999077665
0.03179039336310634
0.2593582747760807
-0.22950495056443868
0.23463076558898496
0.02275012023123991
-0.049896186694680156
-0.0985965358488328
0.0619756882072062
0.03573350615678491
-0.061469347803044326
0.2276833359494072
-0.3166665749663567
-0.21514248331007393
0.17117705593750623
0.062368936429341985
0.3855111998566267
-0.1272793274416908
-0.24695951284016718
-0.18859236330908732
-0.31794325184140443
-0.1377625138253788
-0.2241549640977898
-0.28701450619408625
0.2048714189806021
-0.14332584270168403
0.30137860806938266
0.17254019807000812
0.2987173531578048
-0.266622478214663
0.31809111620076475
-0.042984411329574
-0.11240203434245478
0.3355742125573715
-0.22951452200900518
0.009902768267735172
-0.22189778517901537
-0.3892120613083445
0.04490118804546792
0.0659977734813367
-0.05594095255004563
-0.3482524778369841
-0.3632743625155455
0.3369822689099958
0.1985784232638704
-0.31637559056619347
0.06818791639388261
0.20448212673947058
0.11745430610142847
-0.04246985737760634
-0.3775309675622852
0.20062938706130054
-0.14184321917515036
0.05472350159812866
-0.2874721701040246
-0.2564432607118315
-0.02422578065914324
0.1387263948161076
0.06112307551209113
0.04912280721250825
-0.17603576577211397
-0.03147293390308628
-0.31451365885218524
0.21248194089205039
-0.13224027822059164
0.0603292269704977
0.1744314431815975
0.29458857680376765
-0.3514480048946782
-0.1724797568826402
-0.29246609562416254
0.13964501751008188
-0.2698037168856436
-0.2912824493498066
-0.18414164888286094
0.09397531308384412
-0.13347540154852322
0.27109994274912624
0.2144183153270401
-0.13759979351834078
-0.28755669446815946
-0.2317234070938552
-0.14704941487479622
-0.005545513206405041
0.021540527805575724
-0.14842212901205143
-0.12434902685866528
0.02554031735068236
-0.2859772154753987
0.16856129303576897
-0.2850856953142207
-0.27671955007289467
0.01872211230828806
0.11120786472514915
-0.2810499447383431
-0.3290777010265976
-0.1611401618568631
-0.39186388426351293
0.2395687775549339
-0.126877569969035
0.23013381812020012
0.35643664319526935
-0.28337178262823864
0.026148234865893932
0.037393386673763504
0.04899614060258394
-0.2631795187955217
-0.06053880096312957
-0.10120934048347686
-0.04181783377472664
-0.2032837078753621
-0.13717357267599295
-0.2369717478595958
-0.054565610261561016
-0.34599999518725716
0.28513459448369877
-0.1269576881248729
0.2965223796304402
0.1706774694834263
-0.078029671794554
0.2345684348446819
0.23000323477364648
0.29777013129173335
0.09437230913549625
0.1867497861995914
0.2250711255010417
-0.01725519046768973
0.3172536626028411
0.3149581239231422
0.14712837763440234
0.25026529011275356
0.0709104647568456
-0.3068596170456823
0.33891461279986745
-0.22892877663779568
0.1605698436626101
-0.018037206523973302
0.2755574155616489
-0.04244966830310323
-0.02286514563849892
-0.34571160620975194
0.10617525069685799
0.07275674206379656
0.21138634696022152
-0.34508294059102357
-0.34866407672810307
-0.03643006827429657
0.1624099120270669
0.039930982789563065
-0.3887350873324329
-0.30061698400936715
0.12129377984551905
0.3228212119542724
0.013421349817616689
0.15776263190910997
-0.07154946451091222
0.25734905446944434
-0.20865406025529476
-0.23968251459856624
0.10795092143255644
0.19715898376818314
-0.23832832347066218
0.3233479525147142
-0.08731992468948029
-0.26479941419533287
-0.05107040524636655
0.07007233265193674
-0.19352382882416666
0.29398821827990845
-0.3178077774342394
0.11092848711105832
0.16153758464135987
0.27033568990363516
0.1702352583035404
-0.08750533547914903
-0.18627451255762303
0.1415406278459546
0.28060082982820117
-0.09832936244065457
-0.10310782575652273
-0.3305940850864256
-0.027581810697336433
-0.3851203608266831
-0.14649354617403523
0.34008714507162624
-0.17794862908328837
0.29335564004936626
-0.3207643831876367
0.19392725124966312
-0.3725065992595758
0.371527375944249
0.25222705303598947
-0.16054841510570847
0.009651793249134082
-0.29426736794186614
-0.2043996237390768
-0.2628703614124365
-0.19214676433779043
-0.04970451705515958
0.26310286422599566
0.3458837799634879
-0.2641155958309827
0.016858145650278725
-0.10307972945320687
-0.15170984074141192
0.10974401717862993
0.17930639913327032
0.32131522239153737
-0.16689522572286453
-0.058639606288662244
-0.3013561565993758
0.3908478163299059
-0.28637791282239067
0.3487161629994005
-0.10724810114431739
-0.19651108535628276
-0.25746393183806626
-0.3810244041185239
-0.32471335802161233
0.006881834410105365
0.3844805977674671
0.07467391653551843
-0.16888751008339414
0.12304879571061644
0.38324343615939727
0.10943676602462965
0.19720395567084179
-0.1390279639088746
-0.2442971920150071
-0.19012051407313377
-0.14333675483182234
-0.37089634569431135
0.08787547805391432
-0.3116913885552151
0.21045295776669878
0.189232680769884
-0.1650579859609925
-0.14883840283786312
-0.33654617675578036
-0.038408766925636995
-0.26665701493335253
-0.08598990315333178
-0.10356181305782312
-0.31514900164848636
0.13029004010367254
-0.25520696772129914
0.22443870292977053
-0.2783880385313536
0.2941553353738597
-0.15920251499408672
0.18929182905551584
-0.2920517566437014
-0.12817949849468646
0.16703716383705847
0.2726895854885607
0.21805198657681696
0.1478865121375662
-0.03810308174482561
0.3418495472764493
0.13304415419652293
-0.21628752314314117
-0.28453131971831874
0.3739309813607858
0.32919300945319646
-0.17336878746625575
0.23570313935275577
0.3053016374332605
-0.2902186061608547
-0.18545529576555508
-0.2660526105801587
-0.14522505831310675
0.1323274471874963
0.1209065084888155
0.3109520997472677
-0.04078790207720516
-0.12923586044535237
-0.3652254466960096
-0.14424116795140604
0.321710419133228
0.15763394278164103
0.05109429449931735
0.05168171263670347
-0.004303398779826483
0.12464429934022431
0.2784522224537018
0.13889653153038364
-0.14259381722052064
-0.180012075613833
-0.14457647382995678
0.22937125405921122
0.02933691963708986
0.06908931088003663
-0.004883684705172465
-0.05981900132701316
-0.1224469928652245
0.343123861197288
0.19659304668912295
0.3077748111431912
-0.08735377521098119
-0.3038337957928789
0.3548596504110848
0.36714858199157874
-0.3001440573775449
-0.3746813293486554
-0.017284996900608994
-0.14058311271019686
0.22253340584266293
0.06376696437773804
0.36098479816478773
0.06409891983759401
-0.3680178613401395
-0.3205378948468993
0.10885104493883208
0.1491061000844621
-0.3499286707160723
0.3258556972078405
-0.28198816191433274
0.20197868221495988
-0.19536868595184248
0.35102094635902825
0.19924294856386252
0.2517763601734872
-0.20801918061509778
-0.12423856642328839
-0.38822454667194295
0.1840827654928259
0.23931912188789387
0.3398968933273507
-0.025806305428170223
0.3359734949690514
-0.2444333448963165
-0.37611274782936116
-0.23520301187536266
0.326198817243543
-0.01901148457474995
0.042134804623735554
-0.21525183720933896
-0.19204829964072156
0.11088445085144161
-0.21968977766210881
0.1525209189104039
-0.2990453070769185
0.39216764153647987
0.1408020814070384
-0.23475398680969675
0.19746979222566297
-0.21825667879802843
0.33903597035563665
0.25330168353355353
0.3030497957747368
-0.16378908695472855
0.2827440715912812
-0.39252749207846355
0.08830530408268508
0.299799261793352
-0.3334326957679902
-0.10344480461112954
-0.17162122500299357
0.1609689545454113
0.012146937404409051
0.37063707359589865
0.22012289474955996
-0.16172624589896373
0.14329077262340598
-0.3118284441935401
0.3288968467785884
0.03709440522874469
-0.3753069143888424
-0.2725744309243629
0.17472123083580832
-0.3046322310539466
0.15835274379006128
-0.027430211493264522
-0.279651413277815
-0.11773639839880445
0.36577259391210604
-0.26711866080027635
-0.33058122709082816
-0.2462339438038803
-0.13539102500979128
-0.15593008106217127
0.07908301354046429
0.1010804411973394
-0.33089475320100914
0.05814409255070926
-0.38698472995209465
-0.30496410712007094
0.3860163324867787
0.27278560941187685
0.09912457851787362
-0.29967267113545876
0.10487629437267701
0.09606783453251101
-0.1523985540175839
0.16767157741485192
-0.07062598638741609
-0.10189389904947202
-0.2454102996388116
0.17919402829602432
-0.14965387721080933
-0.23238629367128008
0.12001633087317795
-0.12597893804579538
-0.12682884763363028
-0.2710231590921933
-0.14558494280820244
0.15499015744221858
0.23864722115354364
0.05084757668723976
0.02768068045309755
-0.3389324343870694
0.32980493645383985
0.19882815644736113
-0.20630727433030227
0.15432993114344606
0.16235620355103086
-0.26199624959282264
0.16312903665770115
-0.23721480766398836
0.21769562668941023
0.13827804464551358
0.14395135918260885
0.28130050778116744
-0.07193487391490266
0.04547485910350127
-0.1908628283685588
0.10081809871181552
-0.20309419234360912
0.3562929349570199
-0.35820802308521793
0.3748293025142322
-0.34572669092867103
-0.16267240625081822
0.08487233723160338
-0.39100915637315886
-0.10888335728338008
-0.20617259019299478
-0.10569472226160359
-0.10293076580823018
0.2785160247062085
-0.23670853043909926
-0.3519684458180708
0.1685779249060326
0.06938955768462486
-0.09990937781309737
-0.10083024813032988
-0.29649157387922687
-0.2724390896454381
0.035375641127856655
0.1003264962151756
-0.26877956465234953
-0.17165804190865597
0.09021696299604448
0.3739446293524135
0.18764559674308426
-0.22190222165331674
0.3262852318167419
-0.045650824527683175
0.24468047095228407
-0.05707804037305203
0.32719964588308814
0.3851680310392892
-0.08550701640179698
0.06060058412991897
0.2586779245469788
0.1998421465313909
-0.35740906360676505
-0.2205207359372518
0.36295244922635234
0.38110909376640767
-0.1610542152681571
-0.1609692964976626
-0.06392090025945939
-0.06530378613190084
0.18947871631514895
-0.08663459115006912
0.2927754145681319
0.00945719704825076
0.3367577115517659
0.12028797568301959
0.16265181020302744
-0.006543568439862839
-0.3066056530427123
-0.04594808822802816
0.20476271761395273
-0.28149783524602023
-0.3218025347495119
-0.3715116397163575
-0.1610749941985818
-0.28525352675598586
-0.16008530522487086
-0.2580183684141309
0.04476745100655517
-0.3715214593521558
-0.36941779431943694
0.36943770913736146
-0.0010913920690483602
-0.3248509782959971
0.12645367449942854
-0.2893339500524394
0.2264055757432661
0.3516017325585105
-0.27874379112366965
0.21717441233873147
-0.19898166118818136
-0.14922483513059795
0.2578683962010863
0.3314726891779938
-0.21259045734032764
-0.35971784537785156
0.37834248848495705
-0.36281223164637233
-0.17077922616301627
0.1433832003826145
0.2973708635260147
-0.03174245283562639
0.08383645942379314
0.14534584299432526
0.015059934665727628
0.3732063996694271
-0.019295433205791714
0.19382309618937874
-0.16112123807275425
0.09398687040669383
0.21923031521249692
-0.22097032148577203
0.38562450916446195
0.038367693986130956
-0.16564681074247453
0.31439357732285633
0.017934283373204664
0.3064989524367672
-0.33758330741033094
-0.007078101875527351
0.17024075894233381
0.10380811411800055
0.16523405394213994
0.07013168591577112
-0.1862003625714315
0.3442364116145993
0.14157092254733775
-0.06882531027579368
0.15089711985887022
0.20164470447500313
-0.2451720031536736
-0.12496686133976248
0.2787312763306013
-0.212225165449228
-0.11631445177243487
0.38098034077538867
0.33188871674092185
-0.23151915121555888
-0.09355109157412979
0.1701497357349725
-0.10335824659860983
-0.3150007471582106
0.16940717755142742
0.010018697075128962
0.1859655207456068
-0.025137208098501153
0.2127454653289522
0.014113161852069837
-0.18569759292978033
0.3225942624720753
0.3860835444209819
0.35167499912958183
0.05648118759398676
-0.1289622688807377
-0.05190125542816904
0.25655968306712373
0.1840429633172852
-0.22619756620274034
0.37020221583586144
0.06574162641574005
0.3664516961731683
-0.2787172765104139
0.022569192274199318
0.16748449631740292
-0.31565095262318044
-0.3810212679768902
-0.03103453733293713
0.03799593260091487
0.19653496281970426
0.3518583556761194
-0.1602567718090928
0.15104436819694997
0.27085825559097104
0.08411302788347735
0.07857223064348176
0.24037343741972567
0.13158120326230394
0.09798422279101036
0.09707173082193307
-0.188297416199137
-0.22863072411370397
0.027067357735082398
0.19581261426832391
0.09824011994574555
0.33474875836691675
-0.22838938000064352
-0.016671480397461264
-0.31828454545719376
-0.09670057858771522
0.11788329840756637
0.27788875451909795
0.17178200081603237
-0.07383994267226947
0.35140390256521414
0.1994280990807397
0.19705641940851287
0.15308508848651786
-0.10004284774153457
-0.022217046612679453
0.011609871817417471
0.01354998393065528
0.27945714583747205
-0.1323664356786055
0.3392923695087925
-0.008934781052725847
0.04024630987221494
0.3045827333850371
-0.18626458222547876
0.3514782952557094
0.23777726471761199
-0.06609967841387146
0.1341850428264796
-0.11144459105688352
0.06303291613994051
0.3846876463397013
0.3410763360243659
0.224061099182996
-0.09395989028034489
-0.05138382077697905
-0.3907300521391317
-0.34212021213111093
0.12394845998146285
0.2601681469032842
-0.2947671588581143
0.20174803672319236
-0.32509440368059267
-0.3469771133051853
0.36011395857609046
-0.1059044736705561
-0.13097568944831495
-0.3462960307827925
-0.06898743388531277
0.05255596901365985
0.06625400541964298
-0.2818741242054184
0.3665839396330241
-0.06394456668829801
0.1871581523566563
0.101972529125314
0.2995214787488258
0.06310005357189065
-0.33875169171169567
0.10391923824427977
0.3849247917031833
0.09081153946686844
-0.2779030618679413
-0.006532663656769836
0.21259112836956173
-0.1310346805933088
0.38602913869258715
0.20420563771778824
0.37822470075667874
0.3566248784544296
0.19863745637468405
-0.26951274581610496
-0.042711231177479964
0.08716477510536771
0.1435322541341071
-0.3643871613099853
-0.005898008352341753
-0.14283003340949618
0.2558927735181545
-0.125228049413105
-0.2666127481471917
-0.3272020977170186
0.0995375862438522
0.3032755057220119
0.009963578248897926
-0.17385976618758484
0.08889468915584654
-0.31937089458572443
-0.14748844383756993
0.18364834303153865
-0.06520425064915215
0.35556935887386243
0.2969123294762533
-0.17866752140494124
0.12665836371458755
-0.31299773361487804
-0.279862806350356
0.054945507424158276
0.1233567245507187
-0.09948204599560587
0.25306026992750413
-0.17273934704916985
-0.0550679922216434
-0.32997344807543283
-0.3101349836373505
-0.11324024856894083
-0.13453391397128311
0.06635593503448893
0.007747867970648048
-0.1102748974502561
-0.11422819653659405
-0.04942398490056643
-0.13456775301005636
-0.11427035705899197
-0.08178707898013435
-0.03746967561042616
0.10301027761210499
0.12179509353148932
0.19513120326825947
0.10570327597104966
0.33373776400965866
-0.14506469397281005
0.13004754743232766
0.21993399865251428
-0.087493614204034
0.18699245968829142
-0.2456196084330776
0.3280870278009861
-0.34820543592032627
-0.23647866046392335
-0.2579325379721876
-0.004960931772590824
-0.03177941111387774
-0.07986147618019056
-0.17739418424064246
-0.12262894930130168
0.3912417022002934
-0.09812505924472127
0.08229291913942748
-0.34804334272130805
0.20999475860825245
-0.19830141936204515
0.3351770755947362
-0.17000652754235865
0.10772943136656966
-0.16958370632327685
0.04526893568315168
0.3257669316640465
-0.28257712833570825
0.1934211975458976
0.06560481324681726
0.2517273874813634
-0.29388924224925284
0.2332767638106417
0.0797013084139505
-0.3780287303434885
-0.24126706054111768
0.016121042899373068
0.36952682033845635
0.17734805654431415
0.10716499709271428
0.20824965007826945
-0.02514356602061434
0.18188009922398254
-0.38479104493164057
-0.3301958722643558
-0.1363934354195894
0.3397577171225
-0.05201527871322849
-0.0015002971873942883
0.277377383208357
0.1303558062033681
-0.024235187619831736
-0.15787404189256832
-0.2133956348382216
0.14696772629932556
0.16830308492214122
-0.27098921435558276
0.08950151826046518
-0.19286665977416806
-0.1758560620958586
-0.17159417323245027
-0.06757656676790522
0.23669041390879675
0.3334747445243245
-0.16451843146579367
-0.09713998088225059
-0.31182242419934725
-0.35153243391965705
-0.03150191915664811
-0.20153469371514443
0.14321616110721314
0.010942947339269508
-0.35919435941290034
0.25563627018203783
-0.05533237897485094
-0.3479826484690254
-0.3503698066522423
0.15462849751609914
-0.33950508124220113
-0.13528015644058808
0.1576166529745814
-0.2384009396612905
-0.28487624376469733
-0.10530280257822673
-0.19910815556190944
-0.35247904688638326
0.10799523881007705
-0.31353690084584396
0.11130149521879672
0.1850610399001203
-0.13858233620952912
0.08079549234153079
0.14924574653865288
0.10266698430454581
0.3389491062398032
0.1989208629071411
0.29313556816790287
-0.2735683318334042
-0.17626255533263657
0.03502640366718602
-0.22921872575173188
-0.17543683653073358
-0.19660436392469285
-0.03677815412692952
0.13508339683867107
-0.13555627710567764
-0.19353741613626924
-0.2458056858109293
0.2390039138121298
-0.05524274370709607
-0.03472449082497281
0.11342845754197378
-0.3494816274162128
0.24278379853679696
0.08854511744837647
-0.31128078385457625
-0.12209587374406551
0.36912946457769463
0.28739722245980936
0.0032007448455178534
-0.33541557744656253
0.27135510050794137
-0.3442667082175215
-0.25418961162186676
0.015405178913824265
-0.22830385916746576
0.11321518714074819
0.025230405956251496
-0.2650214283801513
0.3887104692863808
-0.3020831219451242
-0.3661567890656566
0.3617234287024468
0.14170354091128515
-0.0934894410650546
-0.21050240334167925
-0.35473947277752954
0.05451023403129268
-0.3665180578422527
0.21707821812506023
0.08704969930539258
0.09169889478511323
0.2241757647882356
-0.32250461315476725
0.33778967242206326
-0.04917428897591109
0.23764996432560853
0.25283146503281234
0.1770191051226114
-0.1817327806776268
0.12226860055762204
-0.15356489872972343
0.3491255144354959
0.35466930433415933
0.3624704078863486
0.3554771430703394
-0.3093502845346004
-0.039636806381806576
0.054596709382711044
0.3828099739999108
-0.2818173572564833
-0.37385567103446965
-0.1442035594465468
0.31167497484672524
-0.048004665033586684
0.35865873305349427
0.3566241936209007
0.21305484368544492
-0.03231269822291983
0.09219525464980141
0.2777559024992135
-0.37176878362449955
0.2705836755926786
0.2060639105008576
-0.021134441297366163
-0.35201509651463553
-0.046035829064028394
-0.2588370796295557
-0.08539084074678124
-0.3906437857071785
-0.38741521768759574
-0.30046080019880655
0.31474500019294127
-0.15003297481418973
0.1429405867326914
0.1804396725881167
0.2231210706702169
-0.039323820476092314
-0.006544663901128708
0.3640593843667518
0.32279226462073846
-0.22050962179544287
-0.20978834518311942
0.2388507283973408
0.16932079832686253
0.3893544561978193
-0.2978573883287672
-0.15672841700718376
-0.033929789422194746
0.011926876589153803
-0.023176780602844907
-0.22339231927292766
-0.08381424188172236
-0.1954295426639697
0.008869129022227381
-0.08060507511452221
0.12782943602836036
0.2329663020183609
-0.2733710464086586
-0.03111639240535524
0.1481912672458394
0.054351907349603865
-0.27700884711034
0.39202188584809095
-0.06638402145257681
0.20093913441854533
0.12027348106836529
-0.11253857602634038
0.020424082810599205
0.12623875177991714
0.07419971626000295
0.32736328160675343
-0.34228832812859084
0.014553271195959026
0.09981798731996105
0.3865094030784952
0.05635224842234972
-0.0771082663375842
0.17461843617379738
0.11934733029076884
0.3297396855156564
-0.34500318967062393
0.05323687788363692
-0.20097539572589457
0.015428221768718262
-0.06989940156304757
-0.3566360911836186
0.34829856256779124
-0.022738167720757794
0.32017735956091575
-0.3757987231833038
-0.08423137464451193
0.026289253593718323
-0.2089536606118925
0.0418082833003421
-0.08912922285861588
-0.0039019724490691864
0.05588842337167175
-0.054117836717548516
0.07364304208488417
0.10510712280105439
-0.2264859651436035
0.09976354521375853
0.012629017722542575
-0.007265002687091889
-0.05148701817154046
0.27843240429747856
-0.21012477795097817
-0.3203344045995094
-0.10313881720834589
0.33686530568753653
0.39127578572942423
-0.31059761476033537
-0.3626523609826339
-0.36101714759675846
-0.05642587932899751
-0.293714994820027
0.3153144619030247
-0.11303949349161474
0.25698285450922326
-0.012465429361570295
0.37614081643368946
0.08438069942444706
-0.22975521905457036
-0.04081932466250668
-0.3155670913418409
-0.05108512248736648
0.13276000905869415
0.17584442985480503
0.29213553409175946
-0.15189166247597224
-0.2993303614076588
-0.0229533989501603
0.2161293814763778
0.20849670468412712
0.1954219514374261
0.2659078893600623
-0.3206545518142947
0.08751710907822144
-0.15476913776011422
-0.22446234788643296
0.04476654763411944
-0.0961772862497519
0.33360600419422
0.34114498818148453
-0.20366571011790366
-0.29780097723513443
-0.1614988270575651
-0.21702196050355557
0.06864054000184432
-0.30165817044844984
0.2707008381248428
0.004892318358836907
0.04531668985121528
0.011786401802440174
-0.33857258796379597
-0.36118423393364585
-9.792824846768688E-5
-0.06800723842345592
-0.1344046374300491
-0.36438387891273527
0.17435037631738257
-0.3526899970098245
-0.30645206667638525
-0.3680748113922806
0.18118559299445006
-0.33918054497662004
-0.09979414362155387
-0.14405081105441436
0.20297485556586392
0.2643827316803902
0.007749624654287901
0.10241223088470587
0.005376723936508787
0.3042400985218541
-0.06502889697803693
-0.2508760289123884
-0.3898617321629284
-0.10032242677128438
-0.09399024212511925
-0.17035040900082116
-0.32163937699987294
-0.148743000476368
0.2163174882706091
0.04352775843425678
-0.12803039447666406
-0.31650722294202266
-0.32466830418160064
0.12338669961075274
-0.304365862653878
-0.09698199445899539
-0.10343513086901829
-0.3738936887293107
-0.2857383233563361
0.3366203193456391
-0.3314582859911669
0.32158252976827845
-0.33327528265263706
0.1141086075074174
-0.27022032232005627
-0.14553891959229398
0.12787852624145873
-0.3652314644346442
-0.13087720298939481
-0.3392323742567004
-0.10829096803512157
0.3468170060388285
0.32500097702265146
-0.08060126284209108
0.26345516649633927
-0.13647384478167854
0.15052518045874144
0.2546775030733202
-0.13792447165727031
-0.36933883588109345
-0.1988276928823591
-0.30532504087338963
0.07655059767513618
-0.07512565690138062
0.06734819284939801
-0.1659690968399429
-0.16212949988626396
0.06718012799049959
0.3820128586163117
-6.127538243056496E-4
-0.1286594601194641
0.361182664270284
0.35383488117495476
0.009213065021914837
0.06801115818165085
-0.3322202096839986
-0.10701808480355718
-0.17584557122826047
-0.3447549238955803
0.27753406754785487
-0.13843422224408003
0.24986807949902115
0.2702608328736811
-0.0638024278158467
0.08339486433186058
-0.3097483337147089
-0.1595732156378489
-0.10201935499506266
-0.07048213681812526
-0.1904542398443256
-0.17176001225814613
0.009083586715810488
0.27367945281670214
0.0878006385702336
0.31414016520275584
-0.08948964213249332
0.1001392579044786
0.17353247086479706
0.14440462152283476
-0.36777515007430034
0.004329407236148046
-0.15629223844095422
-0.19284729366949135
-0.05210545266345283
-0.07577574447462604
0.019478027722380938
-0.21169949027251275
-0.32747480166214876
2.849951405247664E-4
0.2516178640085774
0.04283477581469729
0.31857702132775884
-0.19943984182997734
0.009779319942167995
-0.019812130304447548
0.05843939467875911
0.38620358641273866
-0.2137472515711326
-0.28986269171969453
0.30235539275546736
0.27683397094015877
0.3727524531385044
-0.33922336564145167
-0.04964425512049341
-0.0031177700993694902
-0.2351910472237321
-0.37054307070975745
-0.12591372789948696
0.21981700600389636
0.3448196905856307
-0.34930218266667284
-0.3591655769766544
0.038038041986807304
-0.1129175327427415
-0.16520028517715935
0.13367820355870472
-0.04281130486642388
0.1026627213004779
0.2556985635891079
-0.0461462565315022
-0.15943260168074744
-0.30282119948609304
0.12347005739996718
0.2732571846960183
-0.018724799173347052
-0.27272741027466785
-0.35285562143430194
-0.1788956618413167
0.1375320098289856
0.2142059783876646
0.1124259455142552
0.1046544231299993
0.13893075961730406
0.14866854849920033
-0.24165500571247298
-0.02147414215753597
-0.35656282632566433
0.17570263273895262
-0.2506704201994428
0.08743599650518386
-0.28438653425182653
0.22050554450640703
-0.07077373456922816
-0.2837602971371559
-0.02766046072566613
0.3840389492721824
-0.14816624573667297
-0.36630748508508076
-0.1965161590773301
-0.02141408433106532
0.3555945666021643
-0.2696841634275647
0.35452848057379655
-0.0036549310725233976
0.08873344049247622
0.16011617908229214
0.1146463905901041
-0.08732644955474418
-0.10466253990002489
-0.02691719717007998
-0.06270459135746254
0.21175944459098928
-0.13281124310719478
-0.08130230186322747
-0.12370571889759083
-0.3704612951012684
-0.3153903735067518
-0.3402471094023193
-0.2672671947495366
0.37468538231487275
-0.06764017618908424
0.036034167799067936
0.07412043181016895
0.2669397726855741
-0.13467549501992496
-0.28330825356419437
-0.3864508776763423
-0.015707217339483732
0.32588362158663114
-0.23977322673984106
-0.20581895176377252
0.29158423956150725
-0.30113216247175706
0.2987964749698009
0.0918370949134609
-0.12411513409294452
-0.028956903974109768
-0.04735142938341071
0.03072708232389334
-0.35602730969318275
-0.24402637393874527
0.33739868835816156
-0.03803947113002687
-0.03678508452386467
0.2071462684047754
0.28507029935377043
0.24868013635893646
-0.10038659152761797
0.35652596639356254
-0.006911725056422283
-0.0647916208643557
-0.23316329354416868
-0.13103088641434313
0.14707138343565374
-0.10986492310356903
0.09378073985506377
0.054471064014556314
0.015410511787815002
-0.18701867811046083
0.29570674449998463
0.33493201483997304
0.11284359742452646
-0.06865829287437104
-0.1653221648096459
-0.26977727634665677
0.06196518323641291
-0.28112748803924725
-0.2377610141189661
-0.10706732994930197
0.22743135205880846
-0.20702371616342652
0.31982346121268235
-0.015406937019866857
-0.20336383795235055
-0.3875136228954211
0.15542697178701262
0.1673239292119778
0.20842731451466615
0.025865784329689917
0.35021497866111917
0.14560948510118366
-0.28576316564485577
0.14387185199792074
0.2657215414366302
-0.3638551913225337
-0.21321839946680288
0.18436623294867854
0.341616106577818
0.3271352021433874
-0.37936588697510515
0.24951322605092546
-0.35229753815151826
-0.2689358474993753
-0.03714089056130985
0.3459289751091387
0.038938203836584306
0.3203494192248856
-0.037428378254327585
-0.34596759966878193
-0.28252810111681637
-0.2727374479939504
-0.1330968523480121
0.008885239733909039
0.18383121265205724
0.2913832049317316
-0.3835898290153411
-0.28511352598024853
0.15921344891676234
0.025108677330527445
-0.18173553374096343
0.0781347046287742
-0.26715256495465234
-0.18479677931716268
-0.35010630278880256
0.17132999199738158
0.007712822273811264
-0.15145804387231976
0.16665784953431853
-0.29298469677313166
0.05341628033687849
-0.17375204600673688
-0.010019411506830452
-0.2352304713268285
-0.3822082309724857
-0.07026993617885087
-0.16593565289627077
0.38121141929839375
0.23393852343798346
-0.30388888506369144
-0.31098787174657544
0.2555764986804892
-0.07211221357858423
-0.2607864130597448
0.24191959969299798
-0.01926465416374076
0.04110661208286398
-0.09046420719772254
-0.10360610937030452
0.20461450705389972
0.3342316331184655
0.22412979320374052
0.08435745216085516
-0.19110056575565035
-0.2350704221253228
-0.20010611073555018
0.19965999912975815
-0.35682399260349096
-0.17050982786677202
-0.3502562164394525
0.3772265681584513
-0.13725060371680436
-0.2596919486909088
-0.36265374143424517
-0.3838994606700801
0.03636076410970765
-0.0269297983448426
0.18275600437853917
0.13837138293980056
0.22881063106707378
0.17384224424194272
0.06508490502579939
0.3606778086245017
-0.1502041320727789
-0.18189601768900496
-0.14621422797580408
0.16554040969941908
-0.020234172382599936
-0.25389031248913624
-0.06919203905846132
0.14481205558858196
0.3635760500728532
-0.18227373190987198
-0.29092303596374736
0.37239130881763466
0.06712891874812695
0.29230036942572524
0.037494093710366494
-0.2003831604583037
-0.3414437940568359
-0.2689513755751816
-0.38791791291732985
-0.09840883900613889
-0.37834661494713606
-0.06907678745845455
0.11677438094214526
-0.19545786029458223
0.022355698983939794
0.0915682689111369
0.33132239632031146
0.007528130028076423
-0.3805610096963996
-0.38241370660428103
0.08422492765331617
0.3407936369762659
0.024006972443600477
-0.2822178754472047
-0.09491749358234443
-0.31705450761939413
-0.21033920454631921
0.3849147878791996
0.33951588962732004
0.049460281400167325
0.03893906639390424
0.007335894506293028
-0.045190796920882265
0.12246140510492257
-0.027726298528590636
0.1456996224398969
-0.002428857280903075
-0.13402543584747836
-0.06522454931890696
0.24840618190361724
0.1208372788951505
-0.24579028623291785
0.051193244918064915
-0.08213132582013644
-0.012081980368969535
-0.3477659933642904
0.02731433384905782
-0.20556834004272134
-0.1721572758627817
0.24844373360740665
-0.14840167517738997
-0.3233977686016361
0.09175813870801118
-0.11465955669826254
0.12032604984229453
0.3684906315193706
0.08204062078555598
0.13014984869541574
-0.19745057828488619
0.3698886140350129
0.3843990053634529
-0.3412723354391386
0.2726941780039832
0.3866598943432927
-0.2332399344176801
-0.059967134732334705
0.22012367202775163
-0.2347247420903137
-0.30879158893835634
-0.2761458395734776
0.07433792690648665
0.09444264072607889
-0.045547697761705995
-0.1103905532580857
-0.3795778690985745
-0.1589086895345757
0.3453315611581263
-0.13828635384582819
-0.3188846042455014
0.37445950806732403
0.09617946839706347
0.21166704307246473
-0.2666018065390929
-0.3535581929619547
-0.31924229687138855
-0.2950096023529041
-0.22040219503851852
0.27035388738522603
-8.209120187480796E-4
-0.3226569504839968
-0.04499675823370326
0.37151944247473045
-0.06756416927941059
-0.2388612800799277
0.20091466184477288
0.04431048271489726
-0.297167004445964
-0.2608472167733771
0.30008357469984936
0.09288408213800504
0.09233468000638535
0.3732097986625664
0.24535997824920636
0.2806691532675942
-0.22639169285419006
-0.051667449241359256
-0.09024835049405958
-0.1730585005787442
0.2163338992679703
-0.3168610319076037
0.041474735957813556
0.3231276227880017
0.01939489530180615
0.35328107666887576
0.3600713090697155
0.31732399506208747
0.18264729930249932
-0.2776446442282468
0.11109448022672279
0.2946467650927494
0.3208890310200427
0.06414577092707444
-0.3534304113663882
-0.1938963772914003
0.23404180363333044
0.10200417764106284
-0.3532477804409224
0.17456165847370664
-0.37733622697160313
0.2263915564284317
-0.16306501941517118
0.09211429898377498
-0.17126133055427104
-0.18961219459842102
-0.3011222047534637
-0.20538831778650754
0.3088623626514689
0.19966250597959462
-0.2631640613098734
0.10848695816453001
0.17231930185114075
0.33584598294971285
-0.3910051118942192
-0.10658496802570097
0.26258495548322947
0.2822617603200825
-0.12214357858932218
-0.37138724450154453
0.27691262893561747
0.38516113747061903
0.3470035622449554
-0.14808807381611863
-0.13112731280198833
0.17758251294187904
0.2095011143327264
-0.19810930502110163
0.1704210652999999
0.1557347532792147
0.339339828020024
-0.2916168140128104
0.36065630332106274
-0.13337413109002366
0.1289993446160611
-0.03998741729828668
-0.07808721600619696
0.32788206606421716
0.1974713000566702
0.1141918987149811
-0.04158312545579648
0.32459453836296254
-0.31172323610777253
-0.22898036228966456
-0.1460456459198636
-0.013210807407898893
-0.03585412727583826
0.36146624062394983
-0.05934957894922444
0.14450244303624044
0.22527813216790893
0.29881784470830186
-0.3478764663149832
0.24334487398105448
0.18817162644989405
0.32617334864848097
-0.0052914377823301975
0.04049132328019219
-0.27796534367501624
0.08261754127793729
-0.23115274125924326
0.09190037568071775
0.26020632508533237
-0.22438696266231653
0.0972014157262254
-0.0998189973803374
0.3840687650826353
-0.17515327324066315
0.08468934258502524
0.30173445958620615
0.21395036691260047
-0.29369505074371505
-0.34673246394371915
-0.035068052926647615
-0.21957045987336643
-0.37735771096034876
-0.379625629066482
-0.07891492179408305
-0.18014801280964285
0.3421875643420275
-0.23911859928594212
-0.1527300605310726
-0.0675970980385724
0.3741187728539242
-0.2775166762039719
0.011269168765676718
-0.005609916781315718
0.06573321217137935
-0.2760487258598669
0.2798632679464183
-0.20141350380747106
-0.03117992372428332
-0.015692608898561236
0.36877939036047686
-0.03277315276887628
-0.27214993795977405
0.3510995443547159
0.13068391174741978
-0.3504184709228553
0.20895600669583758
-0.07131337758921918
0.31373539184515614
0.32317758656109136
-0.2797196877382762
0.061652563544731656
0.2569572915728736
-0.32907509317891015
-0.24001980419423255
0.03587315662870712
-0.08695447119867625
0.263270679037938
0.156172399618809
-0.12966009449299565
0.05112972329781554
-0.31453677624858256
-0.31893383126315644
-0.17426655081684472
-0.24627849645843342
0.38175992190678376
-0.21933960497955496
-0.2635495978160984
0.2229227139013205
0.009753859115964493
0.3646651907231389
0.32306541915729103
-0.049983650227021545
-0.3103039647500191
-0.3608945785940212
0.38754467842817375
-0.3764973680378441
-0.27370021000753225
0.3346090235071507
0.3668027819608853
0.043126282677639106
0.14955374674281877
-0.33450924367394497
-0.22310336925429755
0.058604024689593144
-0.1466431738977908
-0.3087301297921617
-0.014746032990075493
0.0774133179258448
-0.011259909733628937
0.10943206393102187
0.24878228010825432
0.21619285695603627
0.23109672649289315
0.1929853927356936
-0.09614894009485728
0.19722984433770793
-0.33783822598196167
0.2819285597125129
0.2586642016140892
0.11525776433941019
0.35237012215603236
-0.34323629256109256
-0.19654530196188805
0.22005926881284654
-0.23763568357664816
-0.13772097928065144
-0.32338689179166524
-0.04548711545501774
-0.3642955235880794
-0.2350026091064203
-0.28637065174743315
0.06929333329892894
0.2243666380689044
0.3535583073645083
-0.014839467602529877
0.23315997277476644
-0.09392710060566159
0.22187272915532127
-0.3046478505854925
-0.22572237763372363
0.1471909093429391
-0.24567915785048988
-0.2656955896027578
-0.013302967462099975
-0.3072229609406819
0.3080284675876031
0.23539066420649635
0.3099577870653871
0.11731469055803469
-0.3676010098922262
-0.06056810489671763
-0.38924708364557503
-0.009423675022726997
0.0195621570271884
-0.31505248447425777
-0.33471288043683245
-0.3166319971570475
-0.0043716960347383845
-0.23863125570464647
0.016723212523198482
-0.2882958535551636
0.24296154154785404
0.1951773320659692
-0.05750567836612204
0.11164732720739667
-0.03059863621145996
-0.09670569658590797
0.27052349991479585
0.07946410359781296
0.041150528748649606
0.028864934503205122
-0.14724054889825086
-0.030808032314060638
-0.2960848008978257
-0.049068292072105064
-0.013632816494136984
-0.2776278089776875
0.320679069299304
-0.20340673477474194
-0.20904319091428955
0.33433039861437835
-0.0812351832012687
-0.36714492973009366
0.3819199429698813
0.11732760286796629
-0.21997085664761593
0.10775399173333725
-0.24913980068593386
-0.2735167913188625
-0.3831266375330482
0.041881291891724
-0.3364904815099661
0.38905633054725114
-0.12850811795032208
-0.27138464782093275
0.37835187333346887
-0.12704005985029673
-0.23635053011909005
0.2688976597406263
-0.18112924333649316
-0.06290794440012819
0.35892055148716273
-0.3858541875028748
0.37852853561938177
-0.347459838723293
-0.2853027702253464
0.013610089390208328
-0.3313954602684032
0.06932573485360004
0.23528319437938322
0.31319470050306086
0.18427732092643015
0.300637672884591
0.0814618781470537
0.09495376569310547
0.28829481625056913
-0.05295439851694501
0.11560150291305399
0.07436665659656726
-0.0017940680201940396
0.3925973244107104
-0.0012375559167456774
0.03559249159287698
-0.3802409078050923
-0.3820692419059897
0.058279867023499035
-0.39001362167076253
0.1501419009684291
0.1565815745269703
-0.27017025735308464
-0.04441030943055347
-0.37220362279073177
0.3352956271614342
0.31338613350085187
0.03037140903555727
0.12800964333706097
0.3057560745219504
0.10877169107176496
0.06462392505947336
0.07489803238813555
-0.3748712394467202
0.13087849040570315
0.30148834518995865
-0.09342097562079638
-0.37047067909669323
-0.060485219857818455
-0.1223097463922392
0.3088594028315833
-0.030104837946408725
0.16784398591661373
-0.020517683512902115
0.32548324121731703
-0.29876633736090263
-0.26150845916789167
0.26545825426823727
0.019451141476109757
-0.10056610568894865
0.08823192664588277
-0.17140692386861542
0.24726575463167555
0.12713736031014702
-0.023002603514975916
-0.14309598537485277
0.33094195387602826
0.10175602642610194
-0.3557819647907061
0.18867385855651697
0.20651183853414878
0.15837703135062287
0.2485998473276326
0.29621208341750427
-0.2777232707233599
0.02504505512035165
-0.06031724453346436
0.29932631034880397
-0.31860352943024284
-0.09272078891233175
-0.30460060835190916
-0.2995924240937704
-0.11229488015496711
-0.09235409992680758
0.20645517684737505
-0.3732472131181758
-0.3407187386160631
0.10347273708726551
0.007226705065829318
0.2017221292953751
-0.07545228338908846
-0.1905540174028555
-0.2523591111802028
0.07901974792172503
0.37528847826893724
0.30538570276569393
-0.05827662042458726
-0.10647988300447192
-0.14622515940301695
-0.021335098166731074
-0.009632806033053444
0.3380135946845747
0.008933900859282539
-0.3903053375400084
0.35234509505610817
0.16969544993573177
0.11043226128544671
0.017659467297451235
0.20415400811553283
-0.3451787320455963
0.31593534378714916
0.16904712039795686
-0.3607489797938308
-0.049137643533147306
0.3315178321893865
0.005049391378856647
0.2766013788053286
0.36769759571331073
0.2392516912105857
-0.1167591898468444
-0.2133535749643316
0.3278617968832197
0.18225774472734246
-0.1431593078183011
-0.21146380355967143
0.17983063905483412
0.3648446798572037
0.10400255858833901
0.1532884130925227
0.14786068987405954
-0.34098873724390466
-0.30707761258294625
0.10360218060384943
-0.01795555220439819
-0.341261219569279
0.18934892729402633
0.3614195158267924
0.1853658993214371
-0.3550228009673013
0.24324361205058267
-0.10913354502057084
-0.20543292268460234
-0.11227532701558296
-0.36093993936100643
0.04808518195924837
-0.04735077730930432
-0.2367501203182057
0.16256447113209574
-0.17109481330259715
0.36848240239558555
0.3392031140622549
-0.3223507441490433
-0.05964799740013204
-0.3107503242683744
0.1953595476293859
-0.10364757202458273
0.23263618442008116
-0.09184937964166576
0.20633466167525935
0.27480315999891536
0.26780356777800524
-0.1638473654279895
0.19025571023054091
-0.06351351272832631
-0.10629414916246813
-0.0794207273215887
0.28840731137679176
-0.21326415481222752
-0.2086592291812063
-0.07658551695297375
0.32344078269142534
0.3532937938648265
-0.10190196621276197
-0.16595974307630695
-0.23147857062239852
-0.11759156540196315
-0.28909332183934516
-0.21501744983227158
0.053891828295408395
0.05098379236410046
-0.099301225429139
0.2836244532810552
-0.25066772694455347
-0.23158717164045226
-0.37067206692330806
-0.07628623313724868
0.38622840541360515
-0.11650150432319922
-0.34281200945054047
-0.18837088527933196
0.28066535273069104
0.052261826265957004
-0.3452484473068074
-0.38037171355210153
-0.34498825323419413
-0.1706428568925222
-0.03889724968723371
-0.22592067017015938
-0.19688659515889306
-0.14093052599583372
0.1348893498508415
0.20756704594230135
-0.3052162662320866
0.25417271092914645
-0.3093522592010802
0.23867319104935203
-0.15228508167434632
0.0833069040022268
0.14764975301744593
-0.05654597261266944
-0.18816566272876156
0.20733299455076648
-0.001591725382464606
-0.2991406692524703
-0.04032993370411397
-0.07327137275765913
-0.009934939208701303
0.060356785125391284
0.14525839897747667
0.035616424400466425
0.1752184105878296
-0.13702209741980775
0.21556718152101426
-0.007404950939446541
-0.24895886054875924
0.18486204679369045
0.0727365478540785
0.07762671379482619
-0.24653848593871863
-0.3678283969786038
-0.16319811463786738
0.2684768043241999
0.3922469900686998
-0.03285962407175355
0.29402519652458303
-0.024752150745471494
-0.37062686881062035
-0.38818464470276004
0.23634397125244855
0.3761664314304271
-0.18447753704100373
-0.3745591137759208
0.13802284336296589
0.1854771526002394
-0.11493901598337819
0.06560970215203515
-0.1760329014880972
0.2387084846407767
0.1566253124325824
0.15680795894381336
-0.09746884110990843
-0.3781023143739182
0.04540423315477949
-0.11893864663362898
0.29471646264944457
0.29628148543683025
0.32800987422908884
0.234921955670144
0.16685261016356912
0.04419371401645347
-0.1539761340775557
0.3274227868655211
0.3378239896349387
-0.1863937626738714
-0.13237216683894437
0.36451299870819165
-0.36113532609057164
-0.264591328502185
0.35585286292094287
0.3203449512125974
0.024995376349008093
-0.12786994105806893
0.2905718744171475
-0.07535337766294298
0.36336428367768986
0.04494742618725564
-0.0037631008862093686
-0.05210890612491081
0.062245852002779475
-0.22811487574061398
-0.2381963572962853
-0.3661143628249489
0.2542162771768679
-0.12448685660141233
-0.16959741999122252
0.14829884228077173
-0.07863135412993995
0.1123587602615443
-0.1181979665165173
0.1748705492130599
0.23451779264401057
-0.27157469439803633
-0.29424040564706416
-0.02159161997684958
-0.15110254869019837
0.09914043713780138
0.37511076498290197
-0.306453108201573
0.05664692577303855
0.2032846645191048
0.015585216061137464
0.17682843597385423
0.16544911161250928
0.38212795474443306
0.08091038486909241
0.15342231284139202
0.2686320217062796
-0.3201422582982921
-0.3050889104613893
-0.0695500913173721
0.10433083566227261
0.15019106096457174
0.06385588999754059
-0.2661349331382772
-0.2855603842113188
0.03351938827571176
0.11191713967826461
-0.1317999730625186
0.205495542541449
0.1807873221702032
0.14725678568109835
-0.28975170564760167
0.14397252746603645
0.37133548238328584
0.36440954759201505
0.15420200162502604
-0.08946780062350061
0.17670704352014466
0.0024839154273196473
0.25595047274676175
-0.1412739572177922
-0.1858650857147493
0.31877427182244267
0.028145834615136013
0.26544018176885253
0.1249165010644089
-0.36867293634570836
-0.1408002327062902
0.1433362165623571
-0.08505955037115327
-0.3500376707746463
-0.16092307649722631
-0.1575250762050734
-0.09969951304400716
-0.2283569395521359
-0.1082636318276658
-0.2676782069107477
-0.1434777037091532
0.18754191272758114
-0.2536338826590596
-0.32152028126609883
0.17324772174113054
-0.18783112332376145
0.35442415048046855
-0.11561146479441727
-0.24086227682652164
0.21908489782254625
-0.3315326251149981
0.2357471144643039
0.02174482367301184
-0.36232221056164304
-0.2745458776996114
-0.3662651747915793
0.13650857063060495
0.22996965267342362
-0.24152959165644872
0.2921609419268951
0.19837577243409973
0.2410390064007395
0.25191595687938884
0.25572355161315335
-0.12914350025513577
-0.301479842023626
0.09639094720701441
0.00951637879614738
-0.00975995838758989
-0.2942166330743885
-0.19922706842916027
-0.3050906698089981
-0.01170504251951207
0.1056478808165099
0.05531415204344849
-0.37077126544171823
0.15717795260962703
0.20942077422284572
0.2781330935819064
0.31237349068589687
0.28997314396952456
-0.3311337967792077
0.3512365698211215
0.3645185360316551
0.2796221082294187
0.26657597015968226
-0.01234852880203512
0.09768579643590418
-0.34581698643769876
0.06469295852166447
-0.013330355755449705
0.11589356881617116
0.25127263086085216
0.03608221365149317
0.3298026851936242
-0.2663063189952359
0.023813964164445586
0.04627676430706286
0.13029845070055834
-0.38833761673339745
0.1392784082886616
-0.1980989498611879
0.10362229475092594
-0.019462669967667365
0.15580402828974108
-0.24506078624654568
-0.31892095083697053
0.2115810636545099
-0.09950944249696558
0.20931560859673248
0.3512085407891962
0.16732025956162044
-0.042380751347809886
-0.33562060560794893
-0.3350733026163927
-0.056251903630706084
-0.1480278805115801
-0.3182212029608181
-0.31766659790850854
0.14019141006045965
0.31052565229824874
0.28446244801100756
0.03295015163472312
0.03538090231491839
-0.15082089236371574
0.3485776887834575
0.27030086631197736
0.3545805756718914
-0.03635123804764667
0.30810219944060846
0.12041096783827424
-0.1591541817552319
0.036734869458642926
0.23736853657476373
0.13798981878834415
-0.28913823266507055
-0.07853613506444881
-0.2787937559521911
0.07870335264953168
-0.11024547744337693
-0.057315132308118875
-0.05190838904943515
0.17026347727119234
0.3522269667501007
0.02558094132398793
-0.3316085742292359
0.010253995716014064
-0.010934701057656674
-0.03795771207831902
0.38361118416573214
0.2942158715724939
-0.21985245507283113
0.11328377524518586
-0.29735185188350716
0.00904161827590349
-0.07114681648947298
0.03724460713643854
-0.27440218101248004
0.305173220627375
0.3210582732467247
0.2749458786820806
0.3154462781102505
-0.20078668356503684
0.32994829851648705
-0.028474955855732804
-0.38718671014022227
-0.1940194281149179
0.19707065266655216
-0.36798887707382816
-0.01583029805068767
-9.773752949828762E-4
