-0.05754196207973775
0.11819131542169836
-0.22874838089796026
0.3539072634292738
-0.18611403810586963
0.04600312900408271
0.14857801773619697
-0.2920228216924981
-0.08252380726348854
-0.013893030097968027
-0.3911391949871837
0.19764891495102296
0.2142337587118405
0.2816076162769618
0.028788528940229697
-0.3597376483652819
-0.28435100816360726
-0.24835524557818267
-0.011177613312672805
-0.27537389510897975
0.04480897379632846
-0.3646548712268725
-0.0656926243075577
-0.29501754569838573
0.11721713998307828
-0.3457577445508524
-0.20993926323302892
-0.08177440991703247
-0.18023317262409747
-0.04855769205654818
0.2905382753491749
0.02113173288083718
0.06345432847308374
-0.057541846226831145
0.2674759738343624
0.23050033599526323
-0.3817655847800298
-0.20051035836347708
-0.07635401219914044
-0.35442004878866357
0.11541162974039508
0.3890796812849105
0.1414105050874234
-0.0760810293441019
0.2951288786740147
-0.15747831166874715
0.04588352252038988
-0.005684452568265944
-0.3208635039481328
-0.37094527996785287
0.029634358528238702
-0.011347510096244495
-0.1790198689228735
0.2757314138345512
-0.3689793163250103
0.025690244828803045
-0.38609198790734245
-0.13786953621979053
0.20400875002980615
-0.3494466855157599
0.009941099270652932
0.2988609707925305
-0.3521929881454126
-0.29577203314956885
0.05797524256323919
-0.08142782445120307
0.20626475355437734
-0.2311278854492381
-0.1782900557007705
-0.3892824147303948
0.04532434293623889
0.16553438845702967
-0.01109445095577095
-0.08951254390778839
-0.3741732507005452
-0.3179771414623811
0.3045878231701523
-0.2921446547668356
0.2720218708595573
0.21658460196684295
-0.2637112415489889
0.0645531601211997
0.3256505251179206
0.18159588743673222
0.12651058201474466
-0.12689693352944412
0.18422170530816484
-0.02718519863849751
0.00937799859157492
0.08061369949438761
0.3872863191413745
0.36150662236233677
0.07163347283154221
0.16807058957442794
-0.03818775108070524
-0.12071636818529251
-0.1667766941672275
0.06347656208070389
0.08617786142729927
-0.16011946879548553
-0.2269217985433815
-0.3699391570182035
0.18946936088949168
0.02949452561481297
-0.08557870795824098
0.3428861495316835
0.3563735388283396
-0.005938889062234034
-0.030154315126283436
0.0398818719885206
0.3425809659014615
0.19697874573468813
0.08644503955309003
0.051546358027162203
0.30594924009263197
0.3856789815955276
0.2070527932329525
-0.08648692224463263
0.3655051084227506
-0.39244441661366514
0.10608895491670177
0.017997304700904035
-0.23288044517381143
0.11698557012908135
0.18143592151033128
-0.30904866314451357
0.04576209692110128
-0.38162429882779636
-0.09028410728379824
0.03521474792802984
-0.28870964655569975
-0.08157316806422045
-0.24414171374660604
0.026805739582469644
-0.30440033268512634
0.07561025930766163
0.3527229988813294
0.3738140597297
-0.18898110569089543
0.15009042740051137
-0.05652508064840016
-0.37334066598999205
0.37640558272264923
-0.0150005960943978
0.15441690440782677
0.35111925950662803
-0.24958721029190184
0.3610468854769745
0.2879419395383893
0.05897548373848781
-0.2801929367608135
-0.05125736449473571
-0.11631322263464722
0.2934326773809942
0.016839624125853266
-0.10397689188746337
0.043678215480077956
0.030596519092293117
0.03922528800291508
0.10144578470026082
-0.3218672918458278
0.09743871573668511
-0.2563167970830016
0.08626272735161479
-0.24646491284188837
0.30242442479200626
0.03666243059376521
0.04547815415837303
0.35309681305554846
0.3272210597246641
0.30728649351573206
0.06516495531408145
0.032264294021430696
-0.23823214330961368
-0.23973303813972063
-0.38759043728783554
-0.30670417402803823
0.2315818813502157
0.055257292249632224
-0.3110227396469656
0.04998844146482261
0.31314074130475084
-0.046700592559418934
0.2864132226135571
0.27430667909395495
-0.18644270747948002
0.2771237318138169
-0.3479910234178724
-0.0381083766152863
-0.0989642425816897
-0.1076934664520702
0.21467074863730407
-0.22349501394818774
-0.08039508768999273
0.32016345774542093
0.09470527764447796
-0.012532569087530898
0.37324258839474456
-0.38129394565343655
0.3167772510145326
0.17279606906282563
0.031239586938359803
0.003327757337568576
-0.024920576313257482
-0.017720461444571553
-0.31507743724698406
0.055162034058519244
-0.10790853886338654
0.08463929102994237
-0.09442697140796237
0.19050721742872734
-0.3262199350106343
-0.345154745556313
0.23921549149368673
0.22842004796176937
-0.3761952864759
-0.0035598861831624405
-0.36927724533215306
-0.35289650560421587
0.07260239483039861
-0.24029001546393347
0.13536881821655156
-0.3764033865324383
0.1984528274742167
-0.047887120231135706
-0.07052031712231083
-0.14597018958334299
0.18619627995703822
0.08492860168265316
0.2862829648336389
-0.21322374748240341
-0.09123482860205642
0.17456086749908664
0.0265334460454447
-0.19403726568030702
0.33114333090165876
-0.3286495290331217
0.06995301635035762
0.24305733774937377
0.275893883401116
0.3320206809957036
0.013044776878611785
-0.07471588186536175
-0.05055162891721752
0.19209866585569987
-0.05229155057345978
-0.2718761253042955
-0.11601409285683617
-0.35013903394061024
-0.07264820385902801
-0.13127050844891147
-0.1760579151585153
0.2528689307824161
-0.18724500125704463
-0.22903720199191063
-0.0038371736073985817
0.2636858634780596
-0.27560218625336885
0.3255216371964994
-0.23625950422436218
0.0041629186814486265
0.11713031758813656
0.019807725899425466
0.17877521685600484
-0.08680582350382945
-0.17485145627074666
0.2630452581746706
0.31769425600552254
0.2854825127454457
-0.358743560930789
0.026913613677264022
0.04803259081222543
0.3262079654288883
-0.26066540996042686
0.10786518804031285
-0.008559951024446226
0.3795000292404102
-0.2962526246497436
-0.3704724959687
-0.11320763620400985
-0.274388976840377
0.33761388442337115
0.3529046126683304
0.05605315456462478
0.19985659843414877
-0.3512521374509522
-0.31613713136096644
0.15183649504089922
0.11999544674584417
-0.18596724996731845
0.19630702757623575
0.17854736534813473
0.37819845620360476
0.07696748511809097
-0.3891641621002705
0.07686531725274576
-0.22256428603825162
0.29667097031660755
0.22391025138289491
-0.28897618722724405
0.19329383486271268
-0.15815109734337335
0.18432182271513614
-0.2840871263288568
0.37461894469329626
-0.1643700800845033
0.0013768786276761222
0.04258468196290328
-0.2424540731785569
-0.26212272149887106
-0.2256507561519792
-0.26483965327469294
0.3829658873050698
-0.3152314101071939
-0.30976289145738595
-0.3170744105085328
-0.26264064865969616
0.08400256626157108
-0.0619351179816371
-0.23492865786714381
-0.12686424498994742
-0.35991676717537785
0.09090984492492109
-0.1377859206429662
-0.08957094502274882
0.023289484483169462
0.3278075770131651
0.2363533409097739
-0.30992633128638597
-0.03435344514133433
-0.37767605576152374
0.1445149025980228
-0.3451463012388743
0.27161091626662165
-0.024943461361073137
0.24072944498632257
0.14438102423116667
0.3418412055443127
0.31153644610184844
-0.12379350053221012
-0.2850377053831904
0.24844164912552816
0.24972942393678743
-0.10380186568322815
-0.14858972239329946
-0.1652842236119904
-0.29282962929116096
0.28342659489781236
0.08452289247101541
0.3568412793348118
0.2352698546771217
0.14165478682378257
0.25402606183442816
-0.2873053090736939
0.03235674990379873
-0.13330539943290823
0.03583610595509546
-0.044324060808669914
-0.15578988259538185
0.19065143488348937
0.3545787186864207
0.14506639866261692
0.1008335934849257
0.29248198104614614
0.2329232532169087
-0.18003819928378081
0.24464689574103968
0.10884494960007805
0.15698792778058906
0.0730362851278608
0.1287252975215286
0.11363062839390739
9.112902302904505E-4
0.029975890227866585
0.0261339275248945
-0.3007615454229966
0.09917786594720363
0.3265795007552581
0.29855239230829284
0.2011210120439543
0.2986975627185457
0.12602600202661818
-0.14510444311199192
-0.00411655564771822
-0.3574983892082218
0.019297436820779598
0.01641035564203054
0.17240261871559018
0.3533215390525493
-0.07915352674758994
0.2940758515042341
-0.28175561265803417
-0.012227222551917407
0.05417265203550717
0.3308695434157511
-0.11552515176971015
-0.31691130925280997
0.3517587868236871
-0.34586401148743023
-0.333015947464864
0.33883214153610397
0.2335948823945597
0.35109159929933825
-0.1900373621123708
0.14945196805976593
0.014283820042151549
-0.28554313331850373
-0.04866273863945683
0.12748781841748383
0.2653349667760014
-0.04655109415313394
-0.1619269849626332
-0.2702885478613622
-0.2796718154412759
-0.12740752504260194
0.27949988731399666
0.17743945876450898
0.20158026032809173
-0.002408820693971405
0.12221849115458651
-0.24782348131385767
0.1151254303411956
-0.26335100919800875
0.37660591462351783
-0.10678108304756377
-0.0067792489947056875
0.17246746210297711
-0.007961715731602622
-0.3896770166046475
0.37841962552190694
-0.2546979408629293
0.15661264766009764
0.3361445570486859
0.3699271369322505
0.2314976683739604
-0.2641649292583424
0.3074693405564905
-0.06674877909874957
-0.1920394857981667
0.253518263176003
-0.3207553278438395
-0.37174018005045134
-0.3822605188473759
0.0757846216009806
-0.11869411964349673
-0.20099714569642022
0.07890023050507942
-0.22036631634060463
-0.07252336621805004
-0.07382843010526258
0.07051730005738746
-0.16272884670295082
0.09223783687087311
-0.3887716704000248
0.3171015393705317
0.16942229103428594
0.011528277835280099
-0.00863110191676101
0.3171803660568721
0.3721830456498996
-0.030387446680387068
-0.07849598159059179
-0.006278604620166676
-0.19667947133091546
0.02988710264396356
0.018304220193342612
-0.37713639361510454
0.3546377671926891
-0.08939868885066726
-0.10464999003425542
-0.09130498104567368
-0.34528110848329197
-0.007612411549341974
-0.021246962364443914
-0.3135893055260466
0.10632965937179994
0.18757483099878397
-0.3645993116710847
0.01661233529584533
0.3367965418664638
0.1740694874005259
0.239117838824696
0.0632166237879735
0.25661328258794075
-0.13166128160103896
-0.004576359226565754
0.12741325285763844
0.19053345905440547
0.17289067750484674
0.2323777554170743
-0.2326581528151164
0.14198499257403208
0.04088612207736587
0.07397480144746126
0.12620125302251148
0.31312539562728936
0.24441753813520478
-0.23471739408489245
-0.1540220395647589
-0.0015686906451472624
-0.30878106229800745
-0.20038004113001776
-0.28152582497342865
-0.13915206173730826
0.04634859985006256
-0.11806495547100139
0.33151490695159525
0.1739648476505904
0.26941667343283043
0.3164801572253171
0.22401137932140525
-0.30379509427362883
0.3320064114943482
-0.3826372138238382
0.11052961544273943
0.23240156244770777
-0.14747579928229945
-0.22454170181140445
0.18610967272495027
-0.32045729001100026
-0.029370050563707513
0.09882414336204778
-0.2007840002080139
0.22689937344047484
-0.38706342362364843
-0.3798792593496124
0.27665419472059755
0.21027619361515457
-0.27459538850250587
0.14636805291372879
0.04245067035445689
0.3086361663099765
-0.041123798261830116
-0.26733607811960647
0.22615106794524006
-0.005320632961688222
0.06727268429724051
-0.06169954573476876
-0.33059111389991463
-0.20417206790996675
0.03000990209727463
0.27437259841507533
-0.26453899897510535
0.2603666160321358
0.13020524008212594
-0.35678139117743446
-0.14469870672479088
0.10723170680722366
0.2969794561828488
-0.020379199804455243
-0.16350201077360377
-0.08066276933056406
-0.3811210933392165
-0.2276924632134013
0.26498892640046584
-0.28126096223743496
0.3491449526100602
-0.30050740070502313
-0.22931866212246418
0.15843050174045356
0.171617336183611
-0.04343861363864221
0.009232854478389035
0.09201259569837177
-0.1383092734156199
-0.2247820502182933
0.38098920861814795
0.1998269784856605
-0.26636259410946755
0.16139742037425414
-0.014445096041215244
0.11620160384744521
-0.05284971426298913
-0.33768728680339266
0.07038177314384435
-0.026033077012809647
-0.36801344656651785
-0.12194232304974091
0.20059272355051416
-0.01564123591278143
-0.10312214096546064
-0.2571472861519618
0.18919558787218665
-0.31601398300746397
0.21995662634743376
-0.3275781531770097
0.023202628416757534
0.2872047834080083
0.28670685634698506
0.028892442364493624
0.02826987386225045
-0.16883382010968626
-0.32402312695540286
0.2541290184950073
0.08290283981948107
0.366938384636274
-0.013662133307556817
0.007649481567598165
0.24394194546982814
-0.06458937767189753
-0.2760718184121112
-0.08823877287577381
0.009164104892065343
0.1618512436649368
-0.01151865565303242
0.2077624065286843
-0.010081323399851898
-0.09854640572169143
0.2442815991257525
0.0012613832846925573
-0.24005935127717648
-0.23025519097949135
-0.33314014194774605
-0.05652633542650624
-0.08681321964412568
0.31178206229027516
0.3000871628637412
0.09208251820338142
-0.08429917873651037
-0.21256802036124323
0.3206113536497351
0.04347761575679022
-0.1822544602454736
-0.30063490204295057
-0.2780506095626287
-0.07653803216124548
-0.3456980915333254
0.18332433642717633
-0.3458351246181311
-0.07683975144523297
-0.3775666679269893
-0.3866646613068863
0.31049687814387483
0.3744950674945716
-0.04499298359791986
0.3699226438548996
0.3031662352645634
-0.22684601778965724
-0.12323998049363917
0.21732859021357823
-0.37081724881543116
-0.21020908551076672
0.14596483672948365
0.1960755114822749
-0.05191634873743755
-0.03282651042084599
-0.14114878033246492
-0.020557287498168875
-0.38571989787378697
0.24542047499535613
-0.33774487322822766
0.20578207654377145
-0.12514258461603703
0.21672533514687028
0.12048002954594951
-0.13425651448027284
-0.19696269525897767
0.07087248240851518
-0.19581212546248408
-0.2931880414739744
-0.08468157427376627
-0.3895588926106381
0.044468838232744744
0.0746652826245089
0.1574308571473219
0.17259703038356888
-0.30658809889330835
0.026854702642636088
-0.26089259826927075
-0.33157722415381613
0.02626850482503875
0.31947669789095867
0.17251313788932754
0.07881873592609696
-0.32922057513328334
0.11160973391107369
-0.04116253723084075
0.16502543629159777
0.02521077332002364
-0.04986420690453685
2.2065187306744057E-4
-0.13484648290954376
-0.3390545350039039
0.09052453611878511
-0.15141469600291096
-0.3349548592168204
-0.22561523751296633
-0.11337814882735767
0.09665200138531585
-0.020752195355783574
-0.14704742309995156
0.35762797040148536
-0.3328241931557083
0.346507684143726
-0.14089243424569078
-0.09514542879512312
0.023717620763409344
-0.1873165158466104
0.2573798035233796
-0.3835408968462244
0.06701588204781093
0.38685268356306907
-0.08004188685352631
-0.07385728778711526
0.3654012765446753
-0.006909573886442242
-0.18759547296392445
0.2534144302600029
-0.09362004979235404
-0.20450050092914018
-0.13649100602681963
0.026217784306837272
0.14902532518953318
0.21423647637830778
-0.15476362942126592
-0.252503126359661
0.25653599249658804
0.22278271223582247
-0.0494576045328843
0.35793170878720426
-0.3775757035250955
0.327546971161414
0.38867700514431375
-0.3530067272763421
-0.17588972443387893
-0.11198183509101076
-0.2544739673407204
0.016104212982810437
0.38034780477793056
0.04487380796754584
0.048062729029291686
0.2213654078707063
0.18402424032278225
-0.10997101199995699
0.05168029048641723
0.36764483239398155
-0.26405381724791493
-0.1297659605150563
0.0939264856547061
0.14593537257776362
0.1491571849672265
-0.1242955906755001
0.3500205623199876
-0.30613764943283406
-0.002206929211658379
-0.20612404727760297
0.3078017741874308
0.34781031924279693
-0.36134976314830913
-0.2774570933084388
0.18624091154658223
-0.014023388131806855
0.09169189987478556
0.3224756223866771
0.21013553654791084
0.34969605365554585
-0.167837731404223
-0.25988654743101214
-0.2234025446052254
-0.21467996076848878
0.008339237766373304
-0.3683683845841332
-0.12421184814028483
-0.018233327201251977
-0.059326077220145663
-0.05579849371261358
0.02409790190662159
-0.2074179692235705
0.04920683073452807
-0.3295594289433537
0.22987041950600964
-0.09162165197967578
-0.22935607185318752
-0.05461179956106903
-0.030327800315447784
0.24904250044416906
-0.183451283497301
-0.326504817491005
-0.236336590787819
0.09070437895480939
0.16227165099867885
0.3926237160714793
0.11467242720843976
-0.07544356295533435
-0.25520628045671584
-0.26148381404464843
-0.25292809921327064
0.23497312197267262
-0.12710096804365242
0.055162304482720706
-0.1776158753095466
-0.32855562811636185
0.29318039045002026
0.3854228786102615
0.3454225885446895
0.17297840755200375
0.23719734643463142
0.08687717738797943
-0.018610535841373246
0.35062216550607317
-0.36545334137923563
-0.06377123598509907
0.11090959035094056
-0.0964323834281186
0.06356815280228392
-0.2601337761648972
0.3229849749884726
0.053671569315092
0.28163498899017514
0.3772351362836682
-0.2916673033861086
-0.013383032934294803
0.3542792033584828
0.17208665620339375
-0.18329256310953362
-0.3341385550845839
-0.04785592977160807
0.372746955117442
-0.03372039084452615
0.05934927008641771
0.1272053954591432
0.22512772320540753
0.14726173611350438
0.10273505227964946
0.2871076702885118
-0.16831998800832756
0.21927381523899642
-0.3015522893269835
0.17234659176724615
-0.3584753404631811
-0.1165581811310966
-0.13642716324565365
-0.3066280014925206
-0.19098062614708555
-0.015218792857471061
-0.20420846131518888
0.35317776087961944
0.27320063369094777
0.14668400486503733
0.19512482396574451
0.3866772087690162
-0.24725123676185295
0.13235316068623398
-0.37057460339661785
-0.18709771263048533
-0.06900636110963167
0.3724796815690876
0.20018075533052304
0.2283986240313067
-0.16518353102851777
-0.09579305039287304
-0.024349475043179677
0.23135774214631158
-0.3277203137889094
-0.14740561172685068
-0.22576992837458254
-0.17444747090366597
-0.22031789085254952
-0.3055260158670897
-0.007536524981109919
-0.10887404602999597
-0.06712131989878906
-0.24074434024668043
0.18488802121138245
-0.1976867253855174
-0.04614550546573132
0.052341588118406494
0.16328240753482617
0.30371430764682467
-0.37962498066713324
-0.2585066784306372
0.13545404839283307
0.2617390570882411
-0.32426445397576487
0.14593586837326983
0.2287032682606474
0.1856904060752736
-0.1106052429881289
-0.10640610493125724
0.29863985903764834
-0.27159816829163086
-0.3200140826247124
-0.11026886797410114
0.06528995378429571
-0.28375251930670387
-0.38195836935310545
0.22172522682128107
-0.35753270018542643
-0.3036371349660434
0.16581806122975631
-0.05671628714926673
-0.0966481963437863
-0.30348438801167466
-0.37466598059251377
0.16263116619761206
0.052904051372325164
-0.09853516114780964
0.1826832092833451
0.25242340876944475
0.3780497453162368
0.06259774574429539
-0.10624253309553401
0.09978058720585987
-0.164100399436184
0.2644803971801961
0.3833514353832356
0.3675449703085023
-0.011995815932695586
0.06112985267685824
0.16391959244956175
-0.035422355731083724
0.0667465573773154
-0.2779762702897684
0.37640932326259974
0.2546430141401248
0.27878017792880916
0.216763723942954
0.3403925143553941
-0.3749486631795491
0.041569805106851695
-0.3525381914553676
0.16149838852086948
-0.2855240412306614
0.2037375249049682
0.14582870116930902
-0.31395820755237674
-0.32432671107338046
-0.08723525384072724
0.11873956484041318
-0.3716377448467197
0.24945716445185095
-0.174779921682056
-0.1832198690157401
0.2735580737041862
-0.129980704469454
-0.2734543686078404
0.2655641526273108
-0.28163088135414727
0.015879836683400234
-0.10908632377522026
0.2723073564027091
-0.06540831347489746
-0.2859215451524568
-0.023476025219157027
-0.013560834235915514
-0.3811202129189166
0.23738362514093111
-0.21181637070532278
0.01796166410477536
0.19443030032575181
-0.38045914607168974
0.35868985177196144
-0.2614518332119492
0.2632697032871587
-0.018966015377624
-0.3455167479858012
-0.013157756842145398
-0.09864485726329673
-0.32071660635152555
-0.12532668023087282
0.007503415577795801
0.25969461507162067
-0.3844805305028342
0.10306162784317513
0.3305186887125079
-0.3360590244628405
0.37601769296487975
0.08247188988977613
-0.08478392073503489
-0.3640498751161899
-0.30944877192162823
0.2528373080651349
-0.03807069807600043
-0.047169982869124244
0.2898026785211234
0.09867469931664186
0.10276059984077988
0.25906842200061503
0.23069455113652315
-0.31655200627855806
-0.20406609820088395
0.32650136771043975
0.24102716417880088
-0.3136243339776431
0.30959238456651744
-0.13308146101254323
0.14463265080149282
-0.0959353408465782
-0.21066242522662773
0.30767251817756675
-0.09964692463855103
0.21833433882744174
0.33597332634890575
0.38228969424503795
-0.221218913511594
0.3526329201702299
-0.25020376081008355
0.3286162166256823
-0.16817125160217777
-0.18755539676912542
-0.10512933270083673
0.3423502710047284
-0.35855608994118554
-0.16836064879558715
-0.07956264884031629
-0.25192994452364686
0.10834162617860421
0.31266774717437423
0.1649078161027952
0.36863019997737967
0.28952263160243225
0.3572317710222027
-0.0817775967237195
0.1679373769375047
0.21673382816549336
0.031333309718966466
-0.20181979798028352
-0.2492399134358119
-0.06313362346254667
0.37590109760838386
0.27193541763474494
-0.32897403702611583
-0.3547140698447218
-0.2582932790230906
0.3590436408675576
0.11182875377199648
-0.11452526500679917
-0.15082660583067148
0.0359062449466874
-0.05579249551807708
0.32476757715457244
0.15842034742720779
0.2192557898744913
0.12654984922544962
-0.19684028923189942
-0.15653199486317523
-0.16255441538828208
-0.2593829361793143
-0.27621974195389976
-0.06595391036169429
0.11828489189480607
-0.005859976585933782
-0.3713273872859921
-0.12080644042192111
0.29232094436313455
0.18156282591704712
-0.27972666729461865
0.2910171074036385
-0.18450566403068866
0.04104543905744212
-0.05556839327689936
-0.36636840448694213
0.04187226298069499
-0.33696659468460444
0.02009276700003229
-0.1982586943834267
0.0036044463910750867
-0.01635689888500497
-0.07387370247782016
0.00673880972740158
0.23253490152408685
0.3388216557321546
0.06890238681312097
-0.051498669907929014
0.3084688089304395
0.10032838137256839
0.023718654593397524
0.3214698502981429
-0.33112950699970434
-0.3717096783226623
-0.172406195427191
-0.11376296709867616
0.07193372718897613
0.25001108303051567
0.23932302856065102
-0.36829102029079
-0.3730802690502907
0.1024630135530104
0.1863830024669968
-0.14536362680845819
0.20944251055548332
-0.05285170058315388
-0.02542123610352637
0.08701980089946058
-0.18397652526466937
-0.18927409532819756
0.06238431929698509
-0.08806797024094917
-0.11228190745543827
-0.24994416032012162
0.13407565557741907
0.29667238242943494
0.14925565289507994
-0.06050624366649955
-0.008785878952688727
-0.3116575710218
0.04157442294742233
-0.2869605759492739
-0.29056478148411347
-0.18649729899429107
-0.36204530379382666
0.10565431284972929
0.2242366911830757
0.36272639844391863
0.028423767543587875
0.25848363226172244
-0.29190408594919903
-0.06746094650686386
0.38854825470898285
-0.2758084392263338
-0.39199594061781895
0.04125175131421019
-0.1724301843559066
0.04730907700743182
-0.02735424112855963
0.3226864702505786
-0.23512837524936284
-0.2919167084869441
0.13810541834733717
-0.17906293300016596
-0.030814993891430786
-0.263477851660927
-0.20946056525034362
-0.14319836915655107
0.30676198735140114
-0.23789522169012056
0.3066179108359862
0.34803127628069563
0.22012309724016998
0.3112986121759445
0.01713183733696084
-0.011666390867961222
-0.3563820088348745
0.07119609121294375
-0.20555438633470888
0.25465089467913066
-0.1905577252630686
-0.223657412690575
-0.05903051752148755
-0.217655591672102
-0.18498059124623076
-0.11257009174015555
-0.18947440000461882
0.23774259341084236
-0.1757543952901872
0.05941324651590474
0.35278570512448604
0.2034380487654031
0.20136274722153172
-0.14637165829665202
0.038310055340090535
0.21616426308436762
-0.03888036575541735
0.03375397596100811
0.15609683120648643
0.08751114026172617
-0.2722488012758524
0.17665228136739533
-0.35506097136866266
-0.0053740430583008566
0.08731519112306672
0.2600899974152388
-0.0378326020952612
0.22583554743979214
-0.35075651842753786
0.31255258739343084
-0.20689243702429125
-0.08605221749166195
-0.0411176694446559
-0.33481797751856945
0.37244000466604155
-0.052849813657453976
-0.022400266390432754
-0.26728673964760025
-0.21075461211333468
-0.26586228380192617
0.09996547686532758
-0.052630055842909876
0.16318110264196278
-0.12335912380601967
0.10215781921370112
0.3309328146342089
-0.37433876882255596
-0.30490207199254377
-0.05686653711463502
-0.11057233670557634
-0.2546583510678856
0.36978290765978655
0.20552548473549787
0.22464692829390448
-0.12905433924447984
0.039770990776418526
-0.24663447696680585
-0.31667592299330993
-0.20906064131997482
0.26050455384640736
0.2716281595944345
0.31972876293362
0.2765407668527834
0.1890537674579093
-0.2966262976067633
0.20413794344959663
0.014881633729920083
-0.04457049609450028
-0.027906872760042164
-0.3502469205042999
0.23092684411452813
-0.2514607314680343
-0.13327408064874574
-0.34047213951995753
0.16979059454481038
-0.23281922401496888
-0.2409443458161645
-0.31849894977876314
-0.3205073756470995
-0.2098025058800923
0.3836461840023002
-0.34896895106403497
0.003496666029777759
0.26827289198218773
-0.22920976253289185
0.2715093870983037
0.10478832391301347
-0.09402763111392762
-0.3172688497333109
-0.0958526110308184
-0.1619775519931525
-0.12058327840916898
-0.36486983790368777
0.006782080606317949
-0.13350521397870665
0.08433204905196465
-0.17437813310901146
0.37941241287407573
-0.29952424640759284
0.006263133090773
0.09062082298196059
-0.28810936968282264
0.3854888059846476
0.15735609571827788
-0.026846799118027807
-0.16133590708237233
-0.15687007408094675
-0.021682799410934473
-0.3054184682644669
0.26046384167520775
-0.20427066117859677
-0.024048125130847503
0.0014627455531509388
-0.23827993462307415
0.1891963886352725
0.3555113211311302
-0.2885740566567181
0.14723652094238168
0.36530177157038174
-0.2580860465365087
0.36733333897893283
-0.06284370839574273
0.36343256247556627
0.3844545406006197
-0.1498683555099049
0.058977690701213475
-0.36243230495304957
0.11409900279086706
0.2269725909975252
-0.26950314788503554
-0.19026158269905977
-0.0725619858238123
-0.09646163531190982
-0.12568806472645883
-0.15905827189193256
0.3435163684869608
-0.06486559240843807
0.38175946492692536
0.04466183304508266
-0.1082093167046757
-0.22330025431920247
-0.3510141578696417
-0.3772259313532662
-0.05466706697802613
0.108509050881002
-0.04435191455815132
0.30331297171970384
0.09351919115123586
0.0034492772217735224
-0.1638831164470905
-0.08880082219479628
0.19453228752767207
-0.15157274675803634
0.2488852802416158
0.01629036731096301
-0.0293045821059893
0.33447204407234016
0.12151047740969707
0.13466507600805575
0.35537169782050443
0.05132930427210561
0.3898429165590438
-0.23516087567446473
-0.09516868132617998
-0.3187926765129028
0.3723830672642888
-0.28688043622512116
0.24539069187912235
-0.12885060585863692
-0.02462816613495085
-0.3746164775030307
0.31859463918211395
0.10154724926876685
0.3295704804039352
0.2959021494928435
-0.27797651593170497
-0.2771725807772908
0.2187414054760262
0.2904537914460866
-0.1622619672169082
-0.34737274757647435
0.3648149432638265
-0.2949864981403501
0.018387031531937516
0.0701311823574548
-0.3564871527418221
-0.006978580357602896
0.2955186653412477
-0.029134317551056717
0.323857146115094
0.15312528564516956
0.26771158364984626
0.35716201200804565
-0.10307223451097432
0.07795105476752283
-0.1641845009024413
-0.34402097850794755
-0.043007123410245526
0.10198008442010485
0.02783272118758211
0.28025310209842114
-0.24200223107982008
0.07418653845886651
0.3487290516722122
-0.2871766227872748
-0.07936585534081735
-0.2158793651217246
-0.027846097381670654
0.3038645277525832
0.3751706849311928
0.22020571474637973
-0.1038850919899386
0.3741202193800392
0.17314272055835805
0.36093927758323924
0.16727605250273173
0.0791589538430182
0.20099411918004786
-0.24727892697519704
-0.10716025526691052
0.24644725390937716
-0.13958703590371083
-0.3526002354216304
0.27988199420736515
-0.0826840484564858
-0.08621917011191464
-0.11859519432799714
-0.3364880672105711
0.2643828811138746
-0.17390796122769886
0.1017788212927192
-0.0479796828217127
-0.3419979217017034
0.10743069695139776
0.15370658919912542
-0.10409242801946711
0.23251979119530974
-0.32834608016656175
0.21262011793635072
0.15465818391726205
-0.31289027553334425
-0.1301166382452714
-0.1202709417338075
-0.21603539803824462
0.25779286062990114
0.3217083933607575
0.2907785288331974
0.22585183255819252
-0.3705177959334363
-0.15624623529336684
-0.004289241419085981
0.348703919591263
-0.05192467665335131
-0.3057277218212063
-0.31021806813245795
-0.35395327738689886
-0.14282546269588636
0.21602787991070646
0.15320295400424122
-0.09055747362938363
0.23018902529885843
-0.10222676960028794
0.3644521297009336
-0.34547940135198735
0.16377698524737233
-0.017426871765564848
0.1551674156435533
0.08209080290962431
0.26410648290636735
-0.19335660745797947
-0.3224184413559053
0.010812071299426218
0.353943600034942
0.10519286049721631
0.13360001969704263
0.03257800231895317
0.19615726398374686
-0.31460783523032376
0.327019088336279
-0.24820716832689094
-0.15615959303899893
0.022481761870657112
0.3431191993883844
0.10919762649380321
0.267588592100822
-0.040094079611226255
0.27350989787839164
-0.0030864686108525246
-0.15307526643267327
-0.05101442442460896
0.07041502732200312
0.0444431585808647
0.34388011683138486
-0.007884831482261438
0.3594953758665863
-0.019761656035362563
0.13381718461603226
0.38788777697720983
0.06837214115430033
-0.1098319449137475
0.19874730395446882
-0.22997137098887724
-0.03919641857591066
-0.3226841251919417
-0.16842763773389294
-0.09708909984919202
-0.2321370094320305
0.2653359184877548
0.29866963597490964
-0.23317914496185668
-0.09577733734954987
-0.18659937578810226
0.14242457669714206
0.24686049440381683
0.35204255194812356
0.26307518081757236
-0.11220982812670384
-0.08316163704113054
-0.12081003127401939
-0.3393544893401576
-0.010734525672980586
-0.13585795552549568
-0.15922026623671195
0.1985526494318035
0.36531927651480495
-0.36142730979762744
-0.24096806477516414
0.29815044037492866
0.13977455787506332
0.17994907865785045
0.30298726910307416
0.082951625232282
0.1524395356012192
0.24506431468868609
0.3064080227893156
-0.0023289026566762922
0.14102633218593844
-0.19618928759457677
0.38416474484933993
-0.17191134723531945
-0.3557728544990041
0.2830845977592695
-0.28014143708641376
0.011285302578475667
0.08202409237993642
-0.11880337659417871
-0.056659440748448156
0.31249493640604564
-0.30568999656953283
-0.32765598155080544
-0.047287834997673174
-0.03719601268496649
-0.23811701165630111
0.04087757230376214
-0.19475772164599753
-0.07472109963372159
0.053620696018711944
-0.3491647383688894
0.018442422450802222
-0.05862557660965614
-0.1789760140186855
-0.07496436645387802
0.2506529957149238
0.24967150888687503
-0.3310848276683358
-0.13194575168002592
0.03246122357082591
-0.11263671131819487
0.16137137145653824
0.27977105253499085
-0.29097133097342204
0.18590702769937642
0.15659840151241003
-0.3398542849023641
-0.1209899008858317
-0.37642053504260503
-0.1802350124805309
0.13624145723558753
0.02523796168770446
-0.36307075920718385
-0.1725088401025156
-0.256814523359424
0.1533649189574423
-0.059146196855814015
0.2978455256075756
0.16029850134331977
-0.2641954278995971
0.30411103620786156
0.39193922892270144
-0.029304786245818462
-0.1296283096715184
-0.15695490319510907
-0.3750121917896866
-0.3308013317748115
0.18474801709870597
-0.024646743736935258
-0.024388965314339497
-0.00586819554599883
-0.2321202151583108
0.17881688706635596
-0.02837857999804247
0.1422512244908527
0.022800705842467916
-0.3379313042993352
-0.3191072428567477
-0.3489425611168882
-0.19402411457215563
-0.2670518256539182
-0.011744769079284572
-0.025886875845751223
0.1713597467229033
-0.06061525697470661
0.07305406503541148
0.028759474045260313
0.08199609616084282
-0.10544972713824635
-0.20670052691166482
-0.024793189371218265
-0.09882174138147282
-0.04411323178009377
0.2960109903146255
0.06451096138665809
-0.34580415282217564
-0.34392199049631705
0.3873345587915105
0.0467917752879945
0.2151033535906307
0.2070662279670312
0.15217943062450218
0.23374822275754062
-0.25530421498367395
-0.19131662745450623
-0.10839674459020204
-0.14060805597520706
0.29130113320097617
0.15578395125183048
0.1788186415381159
-0.05947357602516285
-0.0761251034654001
0.05191834496542684
0.19615099978426842
0.06385423007558319
-0.3624045386483872
0.034645813294778297
-0.33629310663189727
-0.23393646089679582
-0.3651265970344413
-0.36494772356548055
0.10782010211682723
-0.02265812089320276
-0.027553108493479472
-0.10565325639166513
-0.196952482325242
0.3020003215954535
0.3449563128285703
-0.21754961419232344
-0.03271042125698275
-0.3420197336347271
0.22450566118857368
0.10361619796887611
-0.2207655569927325
-0.31607497880999325
-0.14316593244422826
0.05572461499381658
-0.28217462002288096
0.3580597920674638
0.2713436238697935
-0.08636129325770582
-0.3729011203862102
0.012193888080821856
0.3858536869284459
-0.12869814914636848
0.08073571237938795
-0.13539005119277334
0.14359328401999438
0.2576641825754119
-0.36931106534357044
0.03541900373188201
0.33835767831930924
0.0722405257559321
0.20871368180902722
-0.09833509640380286
-0.3062067091157215
-0.0672556161418935
0.31372665343436934
0.3880970547127457
-0.3653745216244589
-0.32991981043974006
0.28972381964640925
-0.2890117002956865
-1.4255712379477619E-4
0.3656044889914152
0.21198182659673534
-0.07326586869224788
-0.0844875022800979
0.3348801552081058
-0.27148329498946816
-0.3379874650646782
0.11054481396093814
-0.14007086074151412
-0.17997708411733906
-0.3535319584825777
0.009749522205719157
-0.009743134198439418
-0.2271995243454091
-0.38312692632311063
0.21721145042052611
0.0030348819510064495
-0.13894277346136488
0.18406377134801993
-0.18858248143606257
0.2825006912550528
0.021277245240179345
-0.211116752567532
-0.24436870035595107
0.003502828244142826
0.32068542610839174
0.34888265458013507
-0.006307859226031772
0.2352342491573375
-0.34089418598251475
0.22279650598220233
0.3500475401969506
-0.30814558902098665
-0.23203820516187298
0.36749512257501854
0.10082135793831182
-0.3145349495372709
0.31349307121027825
-0.05436925104935249
0.1292137207566042
-0.09697722144523657
0.22939083130945717
-0.39138281361640587
0.11236090870931341
0.1342746904826492
-0.22887026631953564
0.1754338541153342
-0.06402201898468961
0.16822784882667033
0.26891271839398906
-0.06211172344661733
-0.21985990873592393
0.2800318732673029
-0.23424242306765322
-0.3307055311334437
-0.28582963422264623
0.09874961948274324
-0.029343233509800073
0.1454684533980847
-0.34948157101099625
0.1967935944682836
0.19642896853602645
0.3399651432078015
-0.2999659795933042
0.0722041415895103
0.10416384146469593
0.05988465174769399
0.039647221872988
0.02961695928497767
0.22710756232329887
-0.15038454268757584
0.024326751292624797
0.15427424909558793
-0.07872775486898752
0.18246782783417648
-0.09260049553893988
-0.2986091997826183
0.22732177273825582
-0.10412819688961421
0.37665476285817157
0.3005005193228569
-0.18728161183618547
0.14239776701845555
0.1440072905021215
0.044501077775946314
0.27258214868266906
0.22662096225074932
0.03961741787059727
-0.3768893035451081
0.32597725279073697
0.26219594581044914
0.255423517761775
-0.3233601854281317
-0.23862838566213493
-0.35364047789152564
0.31418667519086035
-0.2868163251151937
0.23049899325597636
-0.28283133166677865
-0.3496410608460849
0.19655352434892184
-0.24507932412258385
0.354775532212407
-0.16650526150436262
-0.015312288102873018
-0.3397100301067315
-0.10325538289425154
-0.0473199831420087
0.2873901609847437
-0.35413327352730556
0.356712800800631
0.11504519327220784
-0.13689178541516256
-0.36433244270281556
-0.22736933498006426
0.31232657743397246
0.32700974628334956
0.35404205921696486
-0.26309479535214064
-0.3506103226759988
0.08806565228606322
-0.31885717037101186
0.1429380942578504
-0.17417219899691097
0.06619191275498172
-0.22366442023566194
-0.33891355829606334
-0.213618651317384
0.29059701738013394
0.13469935561616053
2.4156218528644788E-4
0.18115939617783372
0.3589490531955877
0.1453835188744346
-0.14967220568979664
0.3188677030986206
-0.35774309332636
0.28661733083103197
-0.05641943947631634
0.2899526821721511
-0.24100171607850843
0.05652682913901538
-0.2885538591100281
-0.2255921870760455
-0.30028477690082434
0.11757143912773385
0.2072133747276925
-0.046785513219281274
-0.2814725480076669
-0.12951244537812134
-0.1599915603005616
-0.08378147521642205
0.14195587353352895
0.2823138248692107
-0.03977092962357169
0.01610071324104007
0.1657846474453735
-0.09704146263996263
0.03958944182328644
0.011085399505324757
0.26766990789158673
-0.10199653836447553
8.03929563961468E-5
-0.04652812494831408
0.3776390199572956
0.0957488583531783
-0.38828668281799605
-0.39202434665422986
-0.3017753839369634
-0.2744983192273528
0.1661752279676325
0.3627835817343044
-0.11988548497715974
-0.175441001591732
0.3767157053049457
-0.2943979136524667
-0.23073300914215303
-0.3061267066748588
0.2754399864261843
-0.06652580744729834
-0.22689043876142911
-0.14925930229728648
-0.27512786242404047
0.2373229482975075
0.2284071624509267
0.3312087985075521
0.22948581367129303
0.24436996806585115
0.3757717069111333
-0.02392153748617525
-0.3172012092541225
-0.14560426276906077
0.18797820094172288
-0.20447200450920172
-0.15720618125295485
-0.28074860492440384
-0.08087427788758081
0.2960044422683167
0.04990419509216787
0.2525976884406483
-0.08751198911006082
0.39008178234564916
-0.06429736374879391
-0.09280385597740892
-0.0036906843213033265
0.0028064037085840806
-0.36590331344790417
0.21733781066165533
0.21551781349157925
0.1551204765985182
0.13698290526392612
0.316025676504077
0.11315930910410552
-0.33373416090826225
-0.0616659353701928
0.07988583891968905
0.36580436824019
0.3067230763077865
0.04154580566608205
-0.1443579094955072
0.008291871140551356
-0.21977081664330583
-0.3909156791942891
-0.2006225654324527
0.30953779004099546
-0.20379035725975497
0.3493157181507244
0.36487995767479264
0.33456758560946953
0.30413528817256497
0.296832653908723
-0.017326090001267967
-0.13843157470427242
0.2981084919485497
0.02728653837461759
0.04110335705885634
0.3370500878726363
-0.11496872018439733
0.06292477043794667
-0.3527621121206795
0.279970017873403
0.3616789148092717
-0.1362971670760229
0.1254828051868554
0.017393934203676676
-0.09840876017837999
0.10676235178981373
-0.3451374397373365
-0.30086953416455353
0.07131055060119362
0.2105680086336806
-0.2939899610065506
0.30134940723929704
-0.19073429306163509
-0.2519207812699757
-0.27203853455958205
0.008356201001465377
0.05560172490667038
-0.2490580409067259
0.025027894446415754
-0.3322518718599686
0.3361531248005374
0.3453188233041564
-0.05997901335160408
-0.23454486478959377
0.08808182904217049
-0.029643901524433636
-0.16121238407033217
0.02152330759461492
-0.16696422287382595
-0.242391354215637
-0.3021502342575202
-0.23449495567495682
0.36444050029778685
-0.21327215902158142
-0.3351044672586272
0.20444661047508267
-0.07807739814416607
-0.004690265154557521
6.672787439902195E-4
0.17233007255152397
0.0949309021591544
0.3330219323367479
0.010049843795422307
-0.2327575420860003
-0.13526693891207195
-0.15187796495775327
0.031178340396724753
-0.266339983075581
0.029151411780949675
0.02541805815362982
0.03225308897276645
-0.3531765024037692
0.11434863904354796
0.24269225994353028
-0.24515281885903695
-0.06021186586821685
0.023220090970200547
0.31134969069080237
0.16953764747183336
-0.03009838735738558
0.35977925827141094
0.007738679954284974
-0.026187832217687185
-0.08767421142938737
0.22482369225273938
0.2546839155055243
-0.11267237287019288
0.09929107874489547
0.34924416301674066
-0.022665728955683754
0.12071123919593468
0.18753085283648896
-0.2673563112311861
-0.03344913167865605
-0.03683909271703774
-0.04098880823676884
0.20766666812496648
-0.19803018086723895
-0.21983934256265275
0.015871247044156666
0.1374170454965691
0.07749346691338976
0.06718515824894161
0.29523942672112485
0.25940990983168855
0.2663981874347846
-0.11304423631711522
-0.34267574647812177
0.3321390534711176
0.359344887874239
-0.12072879698625259
-0.27049025284546613
-0.15528170983556114
-0.17153073318482137
-0.21845816846656177
-0.2447308894478515
-0.18409731446355815
0.018358981601038882
-0.39107087495957876
0.010073264713272663
0.23858830640163123
0.13120814773694675
-0.18275881693232396
0.24258583214440027
-0.36755990645585646
0.013543233818328858
-0.09372623504434
-0.3615749101988066
-0.23842848183862195
0.16262101609448656
-0.19629917146942735
-0.10910846446957147
-0.2942854522887326
0.11199966247439441
-0.2112348228529359
0.2451095409534259
-0.04200723811915344
-0.274549560110979
0.23705356031352298
0.13460242450534735
0.17616143732832984
0.055305510194324496
0.0219326246400732
-0.005928236041496547
0.3043305832297646
0.11860994259893949
0.13012600009051029
-0.2501388602283922
0.3912120549745999
0.30680406636139096
-0.016811055480619147
0.3576138985922021
-0.05485946153959
0.31645444235348397
0.3612252621991069
0.1220938105822207
-0.3838851337208487
0.36312476468037375
-0.23309487836683565
0.14577291904913803
0.018552321425833698
-0.2775475580757876
-0.3215572535881153
0.22522603987247844
-0.19575355195359306
-0.08194492759533296
-0.1263890309804948
0.3849095897380336
0.3245706635930331
-0.11553506880163472
-0.26103577841095255
-0.14023621112173715
-0.04649622790285683
-0.31860099870978137
-0.3530256950274041
-0.17847040380038048
-0.0021511010149648903
0.14650154476362187
-0.35878150262048975
0.09363064806741031
0.06563774271807178
-0.3200530674482369
-0.24699756792369332
0.3173751153539456
0.266298261005209
-0.336779250649361
-0.13171345745629742
0.21883818150255252
-0.09103122019196745
0.09505221085466774
0.051042875177264906
-0.03419978081263312
-0.29442131376993846
0.34833289240472987
-0.3683136490557794
0.17706696173871028
0.00919546797489383
-0.29089412495638417
0.11347818365714804
-0.14845866542806535
0.10036817986065205
0.01668623492819794
0.07720422420752668
0.3272305826895208
-0.12536367743815688
-0.23443568784857227
-0.36049237926740446
0.3307431935671803
0.37176859535625645
-0.2548051335093845
0.08045673667694223
0.03187327747964869
-0.29719757001461355
0.06706347089222091
0.11815746725554158
-0.1984761111917605
0.2031892870303524
0.1841647694468686
-0.14385996892526587
-0.09977727778273487
0.20251257565371944
0.23112615298666067
-0.11017968381155238
-0.2956067267724711
-0.1354952062921644
0.23691519938056324
0.2781178021438551
0.1315330672628781
0.06885742640069989
0.3725730113828337
0.06364155623705944
0.07013697825378584
0.19574040619076258
-0.0653128744315418
0.1713756151172133
0.18828160926525533
0.300850725089899
-0.3850328598475025
-0.31410181481210026
-0.040271828630277284
-0.15245978203295002
0.12146613429463773
0.3071047476486613
-0.28685802729214294
0.3651658603116959
-0.34323297612193326
0.37589613817756357
0.05972660345227937
-0.3669883586857379
0.3717111854958429
0.22806931722820795
0.007080105553301943
-0.29842101138387195
-0.38426441376799886
-0.005559712477254692
0.18560008189959024
-0.29797518913758103
-0.06877973474574853
0.19989370771689396
0.12023351781100702
0.19545233188535055
-0.013654445852037154
-0.11658162115364105
0.35352654249570603
-0.2172434141348633
0.36396957673608504
0.2898903227020668
-0.1913966049599195
-0.06879679773614118
-0.03077433327824059
0.14985882416494367
0.12266076779557843
0.3746988476795575
0.15587011472796608
-0.16076075284245095
-0.11534705664208443
0.1629597540192326
0.11330623362562463
0.04461018519199112
-0.22803207319366256
-0.17310952510891325
-0.012794634994468953
-0.05708614105543501
0.046601869535914504
-0.27636863291040575
-0.3680691829052247
0.3082867340590927
-0.03013366542248574
-0.29440640834649634
-0.1045162632608673
0.009478181622772957
0.011141919865984553
-0.016974292582029493
-0.03948703327615903
-0.18749159051985398
-0.02092297429400973
-0.3442079142057888
0.36847030967609173
0.06628295808004754
-0.26495190446215583
-0.32868307526547397
0.3532353354599681
0.21632424734568353
0.07439917484137461
0.03865571356751288
-0.03505958840230945
0.2680922334330069
0.21991511312209155
-0.0496697978365491
-0.14620840378644664
0.3906092200870237
-0.029572037669611185
0.22505206530726848
0.33656956384609027
0.24043386385357987
0.2923180938491873
0.21221979801752247
-0.31008772243082044
0.21747589830812297
0.12698603041111867
0.23971532060218206
-0.14317098582522547
0.3201282592990539
-0.10765947510672129
-0.1247372551995162
0.37551866461233
-0.16958230971868266
-0.32248092580677606
0.2910151704509298
-0.3141634213603836
-0.13632228957324677
0.15134709834696122
-0.3591444581125663
-0.2320944023616789
0.15893966719640767
-0.17983846181998558
0.003614476004121996
-0.052504802261777984
-0.21045816384558386
0.18869917454038856
-0.21034290957567833
0.09807830356545104
-0.12184372785158944
-0.2610211009260136
0.1355194869425684
0.02754691129163178
0.20964086251713912
0.1591214089760454
0.37165520523950774
-0.02033535647243641
-0.2650307168714243
-0.21189284895738097
0.3430417238702121
-0.08807782396973797
-0.08413789188781286
-0.1325635147865422
-0.30207149560617413
0.23542780021563137
0.3107700028686288
0.17828454170201305
0.10148182224367361
-0.30925566115074454
-0.026348884170996695
-0.26213296636242617
0.301242985004015
-0.06401547418726972
-0.12001149852627056
0.08687577927595015
-0.12473571561879573
0.02821840138834733
-0.27751996548015523
0.13232988509096835
0.3199524535986329
0.10106437601848052
0.01872229679654908
-0.041488978906560406
-0.16850525270367175
0.3473430232837709
-0.3796110402882821
-0.08955848565966733
0.28491087407285465
-0.29354364466086
0.10094845729403897
-0.2563144749639306
-0.13981137227979729
0.2616625880895115
-0.38667468083238454
0.04505716147439868
-0.27244434007396895
0.2657341648595818
-0.27967141215461977
0.16079893499944853
0.17042577090600616
-0.1651636923585564
0.008575261460182402
0.22875337323399536
-0.15227118482323124
0.10032901209551523
-0.002508398058177476
0.12610717557919332
0.32069694928992964
-0.11842736371465097
0.22012543034444132
0.17252419242404063
-0.3840886563465014
-0.3333650281496914
-0.3632506125127305
0.1802705218349117
0.27850587909258057
-0.15726911480946776
0.3830903314968242
0.20936127585429357
0.3716953697609427
0.23752780118595157
-0.1343430635860878
-0.04353325319035568
0.20084471044738744
0.3560944906167598
0.04066492709369994
-0.055386030781197054
-0.38513234418134196
-0.36953385233053176
0.37372575338389097
-0.09442119164923729
-0.24123954557083194
-0.20672612911723987
0.07278109256272704
0.17005414417461473
-0.34122097076048097
-0.12517575266900122
-0.00958886182386668
-0.3543547337136876
0.3916766357819286
0.139197254739353
0.10993549998893223
0.10600217304731452
-0.33594246332095
0.27745985477892926
0.3293738768606279
-0.37445729722195137
-0.0780900625306921
0.09389099695759087
0.3470223362094408
0.29285467285806804
0.25630681555965135
-0.1959289470284376
-0.19191124447610808
-0.3730718469595147
-0.2036268681291333
-0.193754210566648
-0.3916562132797955
-0.33667088093284897
-0.1467211891078479
-0.08830846546847679
0.2436771703607357
-0.3607823832571303
-0.13834976381520878
0.22272443359244976
-0.24043197231552618
-0.1310003754298217
-0.27168834845152595
-0.06235611016398946
-0.31727656966332857
0.15351824265300995
-0.24150209440135065
-0.1349770085602207
0.06997334587985074
0.28008090072324016
-0.3153002109881425
0.14225010739113672
0.33964023253863007
-0.051521931773803126
0.30068189488919883
-0.1011354789292283
-0.13467655344751012
0.2716605753415178
0.19003744604060913
0.1811825741742056
0.19786553523734907
-0.188662434767687
-0.03577429006619734
0.27760426012644995
-0.25225440907371205
-0.32717009310569806
0.3031566232551578
-0.14055205959916167
-0.10422202183436234
-0.3488562715028184
-0.1078683165265462
-0.20084297956456093
-0.2897991510148041
0.25560439022410614
-0.20971758958407768
-0.22537461938889883
0.1354322837287545
0.2088187879970254
0.3486822556146139
-0.27464316955532214
-0.28283329098925825
0.30705867062380887
-0.1395632956829381
-0.35182815148421875
-0.3757979786069166
0.34699571998302964
0.08017891817822646
-0.13448568226058832
-0.0872626808114107
-0.30294616900148635
0.311491640342455
0.21095937361354547
-0.1776318610579068
-0.04801358103296748
-0.02812109298356889
-0.27348212516363907
0.13578447897933676
0.025045660810755658
-0.2986228335744283
-0.23166193990269762
0.18992188061125492
-0.18240974020692854
0.05861313045958995
0.2992969791790616
0.2245773619960363
0.37185181645299314
-0.13983196630568787
0.33524453034077495
0.024546944759998433
0.2997246698128225
0.33274376089549107
-0.14207308836114904
0.391472276296421
0.332499300114625
-0.23735722245360116
-0.05957818817960278
-0.3837655857262538
-0.06843604972154106
0.28332878771875786
0.1391210772325238
-0.3808465251770536
0.2530026083876173
0.10558936065799931
-0.26434394163299735
-0.07579264161997956
0.10240124643802337
0.1515375268761808
0.18456340860376155
-0.38806371573477483
-0.2453006505411533
0.07422560175334769
-0.24101496364472613
0.17793769094525191
0.1080768392846555
0.01637138227019653
0.10490119555293118
0.06873388438229446
-0.23132871123110363
0.18003577600558118
-0.18552137364076315
0.06943017134955232
0.06198902727133574
0.08737529261075697
0.2924008354310373
0.28127410464605573
0.14313544482730448
0.1169698624915628
0.12915929484637043
0.04526743703540003
0.2956130919555784
0.28172748130140035
-0.11642010070063709
0.27985209407841444
0.0056079450534593
-0.3725240414144125
-0.20396905873533797
-0.3051250816916057
0.20738485084162
-0.2864122966659228
0.030324644326267948
-0.3508199002848397
-0.3805232972159808
0.35466234110714834
-0.16684057437359012
-0.08673921069286107
-0.28147226508965956
0.06359649655298477
-0.3245782266145591
0.19090867960632263
0.31276117521330193
-0.20563518903571404
-0.1588655881198244
-0.19843907878894376
-0.38127265538427424
-0.2879166381263715
-0.0027897683836816487
-0.04413364739056196
0.04227743297884121
0.05172351739244738
0.18837408258714633
-0.12018524061450353
-0.35915017460520404
0.2752451296529002
0.11251585672936404
0.1361942950571203
-0.3739344603270065
0.13689020983566869
-0.11433871810870315
-0.18035283091891788
0.36447230986625206
0.25415226543486125
-0.1891726112495831
0.16696433615026632
0.3246585737390843
-0.3800088293570809
0.12269563530849094
0.3132110526168695
0.3272120733234081
0.18422163196505997
0.15502785977498543
-0.22013521742635114
0.3377895330367795
0.03270221626526384
0.08361784942905294
0.03112575231042092
0.33400435446452065
-0.11293944110964581
0.0494954090580533
0.24005485181124103
0.34944105958517335
0.04007754245631775
0.12631645295484994
0.036888882019161656
-0.33485988923414894
0.037237430583719984
-0.3588615227247432
0.3506873581860054
0.1753384748370276
0.22222811621470906
0.11770959921929061
-0.06592084749956724
-0.2896092047673911
0.033474419220394167
-0.38118238192885096
0.25329973730162314
0.15844007047913738
-0.26002461714505576
-0.23587598841435356
0.07612397205715546
0.12192875692977337
0.06960931946557779
-0.18301023251486684
0.3716643013217474
-0.016190085036954925
0.3349553063162
0.11738273876462779
0.00793583118429441
0.26368003752406105
-0.21507017114164456
-0.06706330866469039
0.2851536050976446
0.3138857403254826
0.3290558799645181
0.13578111996950346
0.005824776259544365
0.08191816714332033
0.21338130140425482
-0.12292562506292669
0.18142618950531023
0.2967898086422035
-0.033102117810699265
-0.34482726076775927
0.205937135722703
0.21862240898781693
0.23361897661767
-0.19117492371734862
-0.13211294169445256
-0.1074229923296398
0.36785677055777327
-0.10281728994367205
-0.13557419632291798
-0.19498776176600877
0.12188034520654135
0.12927978242272742
-0.05041486974418856
-0.3275384928060263
-0.22895891352591038
-0.07894897284396975
0.2790460196006946
0.011869118611552187
-0.11111665904855217
0.314972858588256
-0.23657814074974992
0.36275072679434645
0.34637390944084323
0.15646766536876866
0.1641468554380879
-0.38317081532701125
-0.11075569615424867
0.3814512515477243
0.20812936408767407
-0.10980037097318492
-0.18231803881899622
0.05168917853747545
-0.031068602026024173
-0.3065373821109908
-0.37186241880323534
0.33700792400686624
0.17127129890780318
0.024551050144613885
-0.3748554145640876
-0.20985996553119712
-0.3859641323251282
0.15481276733662655
0.3003255529081864
0.23848166515301195
-0.20309731766608213
0.33876654583597704
0.3252617795120923
-0.22053038569438577
0.24480957824201724
0.14757953074444596
0.3009378071372486
-0.262805011974749
-0.3121467833063157
-0.16605012642464442
-0.1242721125083124
-0.36660655463657366
0.36482834014475585
0.3441591120952686
-0.14764766230296084
0.12441823833242607
0.25494846380751485
0.05355231944869241
-0.345911497667324
0.15532805486245344
-0.3016047671265866
-0.11191774089062942
-0.33718874438487156
0.30079756262614865
0.1231286266716104
-0.21232176214946652
-0.30477187682672907
0.23163549245223553
-0.031191106399113665
-0.21575849425149202
-0.055938276658103685
0.283570076623894
-0.22805151473428803
-0.06008047847352341
0.17400431530562607
0.3902147820477135
-0.16251538157009918
0.38431883596536187
0.023698637896985744
0.1414750755835886
0.2871459101342537
-0.3788444573846749
-0.35358429932517593
-0.1721792101372855
0.28955124304531626
-0.34736845596095395
-0.23237764884677398
-0.27735350370401757
-0.1326486880376614
0.07997495700338153
-0.384367710997056
-0.16268809190344652
0.0380863414202683
-0.10785505448502564
0.3032975655007346
0.027300676788814964
0.3458857976173109
0.2837324679023502
0.04713686932822971
0.04810750591062184
-0.017658838633243676
0.16331499172786512
0.15329692755755317
0.19977883231775276
0.060459572692816675
0.3672370439914988
-0.2842188312080393
0.0161911122869784
-0.17428826836706052
-0.2558700380058697
0.37187925853955045
0.026154720932285012
-0.13867221689402617
0.2971476256542899
-0.24297470768088886
0.04137004658359856
-0.0012454813532774935
-0.31418550893076824
0.2609212309036274
-0.05407662794584949
-0.23027059953915988
0.15024862653791374
0.34806701022314196
-4.2198536417058534E-4
0.23938844139711382
-0.0715830817547929
0.009124077396655593
0.21818695898058185
0.11561251949701885
-0.040236862291082705
0.28038266083683816
-0.11165920401173715
-0.26988275919906424
-0.15709230585420214
0.07916420377508102
0.2856298127318041
-0.01676166933683519
-0.3657709866339473
-0.04765552500213264
-0.3050005020638584
-0.04091012645750584
0.05932122967233361
-0.062270666699039176
0.365273711630558
0.11905809230577842
-0.34765128586242705
-0.12880473198268758
0.31949036012259574
-0.107734955682895
-0.2985989465204375
-0.29856772247361285
-0.3652314418783297
0.37862429373895184
0.29248259233811696
0.299455848359675
-0.3685624421083969
-0.06074993335258591
-0.15322099416001364
-0.16937433186899228
-0.2789367396118089
0.04687784501488365
-0.2966889748497612
0.023805193111460857
-0.08021082734309058
-0.024098180879108342
-0.12915387670722323
-0.3043609072369936
-0.3881425935557347
0.1409262551812881
-0.03407922853461479
0.27574125248989967
0.001672910447966141
-0.3343909969706375
0.24466332138016827
-0.035301895914990035
-0.27265280194425145
-0.07235414317018868
-0.14645172346786078
-0.3921318774085688
-0.3606388886547935
0.08186183668326448
-0.3791242769336975
-0.1791069653379286
0.0974275846346918
-0.27350125005414316
0.3249189085016447
0.2845643559663325
0.13428872470919628
0.3470922297572328
0.17144207294413222
-0.15266582876068008
-0.2213383840395619
0.2631460834324196
0.28229165570880654
-0.18168903381762874
0.07777750268061022
-0.32168904871530757
-0.020789203781363407
-0.3748607031816086
0.12400826257235935
0.04324684070741665
0.3793299956573824
0.38191013779447625
0.3661198949575462
-0.2698252849080908
0.19188296673702596
-0.294747844700657
-0.19760314840980275
0.25703859743092444
-0.12510500984306774
-0.08702838012252302
-0.20858184628752874
-0.041621384805188996
-0.15036561127345752
-0.2543804041382687
0.27907007139495543
0.22048856290042024
-0.005157216908118524
0.38903646147025933
-0.36930622935966967
0.13262625659816335
0.2023869531895116
-0.27020036376275797
-0.1649782336705391
0.33125952881437193
-0.02045185003732859
-0.16348748485296227
-0.2741529094530698
-0.023494117311777783
-0.3201014829902251
0.3756766544279512
-0.05452730151520401
-0.1379325065212171
-0.33135144939178046
0.021548870162149708
0.1572044154302304
0.2438314696192916
0.14763014487046294
-0.1695808594517542
0.12846106189470965
-0.10582486341851004
-0.09221381676466717
-0.08418925619073102
0.032547549840402416
0.31322429942265506
-0.2780800389459159
-0.3479079527175402
-0.019866129432514087
-0.10869442773846781
0.0993911796027087
0.2123086319221381
0.03649842836506369
0.14735304333989682
0.24077958476177075
0.2844380681379947
-0.17620484214135135
0.1814698095952202
0.2797744828315885
0.37280882397608217
-0.13132921933414735
-0.2664118825883075
0.3428757327456702
0.20287107250302508
0.22992177994331853
0.023781129649641054
0.3737111097249797
-0.26475179894179607
-0.03819210135826389
0.3180054190355352
0.2874080680531983
-0.24664257230357492
0.08351330704367803
-0.005929617622808418
-0.31569123602809124
0.2649771494339018
-0.2096376107487889
0.1577094927875792
0.07025328385736046
-0.09381132900301577
0.1308831842102642
0.3302376210640326
-0.1252618286535512
0.09371933336813544
0.19365665806670754
-0.29568123993007084
0.0829924735015671
-0.3046640944784913
0.2927276022767562
-0.3503271915358843
-0.03032805596670152
0.1711811406723142
0.06289777664435965
-0.08512386499487702
-0.38401497307475607
0.23758115563076096
-0.35820591361321596
0.21289565422518084
0.3767408092017531
0.2122149703415889
-0.07963137051589732
0.3532923562668011
-0.2988195851242265
-0.14106543773319788
0.2885136418492938
0.18715633904606296
0.1363821154690094
0.37651594444020814
-0.008664522305545116
0.021018500842466144
-0.2936528924101711
-0.38853609265710565
0.11944904056114726
-0.09952568086200664
0.08104502698194617
0.1764963099350254
0.1924100058874125
0.12242979221277793
0.06786974244565848
0.17366425983626727
0.371881166401215
-0.21092520992890182
-0.35427742142960506
-0.33726619186317736
0.23773049232294455
0.309848854235844
0.17891841197538105
0.3846443709634675
0.03033826535211787
0.14287666385697556
-0.38064038425117297
0.275849830662771
-0.17129717360031574
-0.20905519329696506
0.28718254344927785
0.005143405131632803
0.2791924925841527
0.3806899827543464
-0.24425883524906639
-0.19347205315226595
-0.12492736870992224
-0.051213848481046986
-0.04614744101551789
0.06850548462725307
0.029319449525119494
-0.28860374079558604
-0.0011946966979846387
-0.3308645358899376
-0.391343952417003
-0.17284978234916565
-0.036572686404992574
-0.11983324216419992
-0.13726039522922062
-0.335665536414812
0.13511349179544266
-0.31213402369566046
0.3550780012296945
0.3756049868081471
-0.15663950037932875
0.1305604753604763
-0.2672601226647877
-0.26173626322042837
-0.05307866111298371
-0.2225664169352261
0.2219037838458549
-0.22583514260075963
-0.15312150301056662
-0.20930137514077504
0.30192859613138084
-0.3849436956095087
-0.21176647906480517
-0.1803792804993759
0.2861874330638256
0.05209777738774039
-0.04817755686554102
-0.2101713645741512
-0.06850508103312328
0.3642371005650215
0.12124203172738238
0.23106071123587632
-0.1360537212338
-0.14105448315304916
-0.3785545148501657
-0.03264589719706965
-0.045644651780013465
-0.37411947342348556
0.32705762269221705
-0.3721586111846589
0.26597083500081664
0.27850046504605014
-0.08575836797125015
0.3329789002315082
-0.35950962413213206
0.29793784692824316
-0.34886950198410255
0.33019614702166933
-0.27278122927268805
-0.27864882138997144
0.2987396203945423
-0.19593919599901224
0.16363393284926175
-0.17016571540073427
0.20095398320173166
-0.3440895295402156
0.09517703742117192
-0.3166531136899991
0.008730387827877694
-0.07808191071742711
0.15819661259921936
-0.3207119173775995
0.32872927251193507
0.12779777761634187
-0.2869323252659469
0.15215236969727958
-0.17200395635385657
0.03623326787433158
0.20811878268156778
0.06886843276272961
-0.08594355005475564
-0.33914301556509246
-0.23666690155390918
-0.2251791852668328
-0.3899776012212651
-0.29162026253037326
0.03702503234169799
0.35741830172754874
-0.009479562983175266
-0.04340271514163259
-0.3175713342657185
0.38015320379287565
0.38026447141647274
-0.07101421187222598
-0.14974722219722034
-0.38582473544039364
-0.22866379274619056
0.06289950572016698
-0.11613997962518009
-0.05000066616855845
-0.3444483907334734
-0.34658434642151853
0.20253914738524376
0.044859123586554084
-0.16829901162970004
0.3651773838175522
0.3534155289077308
-0.06198620956981691
0.20848943889483176
0.07308233619514767
-0.33403213858720604
0.38704269012720127
-0.028085173369414913
0.07225851405139792
-0.38300942914737557
-0.3569921461257368
0.10255060078763827
0.1563051385735842
-0.012909138714086874
0.38530027613947504
0.1257284004964004
-0.28746441312598703
0.3107685741815927
0.0070086961530190185
0.32629235481755997
0.19764189680917138
0.3379156222785433
-0.06400224531249032
0.30049044128650704
-0.04486146070356848
0.32812369081829657
0.13965409623946398
-0.1792713893487531
-0.3272485509734379
0.1693674187233441
0.25362859971642665
-0.3347525118036613
0.024179387470484964
-0.26660235916801645
-0.0865085148600077
-0.3135842134250699
0.2265459131221476
-0.2739552289950252
-0.3057341163079448
-0.19070457984161895
-0.023868797887410295
-0.3376137813845997
0.17515331738714926
0.1171213697851024
-0.2877672583890304
0.06712678830521768
-0.17370204682106302
0.10477209671915438
0.2981552272783096
0.23297398898878272
0.17216530044353562
-0.32116901580886653
0.2787757377755104
-0.10518900042665542
-0.14470181913490912
0.026044969374778404
0.33947431806154005
-0.004960071501249907
-0.15629793418674598
-0.2945126766523076
0.3256650058466025
0.06843748089031873
0.10198714138997883
-0.11605912551637479
-0.35587938541225156
-0.3726393736413013
-0.10280439096660934
0.2774545870484159
-0.005423699905375312
0.14521909454626258
0.09983041438247117
0.29796721622637606
0.16098969600717875
0.22994262241408514
-0.1418186529901738
0.3668429573113608
-0.16538357591189645
-0.2111748421432588
-0.1665653463469347
0.12080846354207524
-0.34920126014573044
0.10561838275725358
-0.025361435565751815
2.575881753263687E-4
-0.0636592599106068
-0.003879521124124805
0.2926876457408166
-0.1984387049450994
-0.20345344304724505
-0.38353441429308915
-0.29976591654265455
0.13809935265515855
-0.03119634872262383
0.08895127200851986
-0.3094822403810841
0.0912690938045019
0.09324075285279337
0.3346980441026169
-0.18187931357480733
0.08803731810247668
-0.03482573166078943
-0.04732481485201728
-0.03238695965546153
0.33052297148753007
-0.15479211511559476
-0.16129974746204703
-0.24502913225119297
0.32669436608275226
0.32429799272873666
-0.06168824556617589
-0.08529915744947156
-0.039489441924333256
0.15658406862949573
0.1686152519179189
-0.11725779268698716
-0.06748160076998387
-0.3076594119145054
-0.33926704157493065
0.1340112069033787
0.041102576547449365
0.3675524328749101
0.2746424033725016
-0.017207252684569005
0.05457988831365889
-0.19804375382686829
0.28228605603731427
-0.29933054831304484
0.1698985511620457
0.06210719318608892
0.294535136839459
0.12157942525442884
-0.14054256725334363
-0.1724903879752842
0.1272663160028703
-0.058720029412586
-0.24457909299460262
-0.08236423793131359
0.16079864300968974
0.2226329935344989
-0.08066577774823454
-0.06730455645818281
0.3928503587240167
0.27866509909888476
0.2250194504151878
0.356133410967903
0.3480485608934653
0.27090945092270446
-0.12244084383666573
0.11222004230175646
0.19014185625413613
0.3874815130710021
0.2226736780619214
0.2900514094157327
0.2177308834855918
0.1675746120183859
0.24667998724532395
0.25850108546790423
-0.3419562508865806
0.3026627484680968
-0.36697617514482156
0.03640145371716578
-0.1830314047869108
0.008975349840276372
0.2835763303282038
-0.2829889747760774
0.190510787996487
-0.2639090466647016
0.15597086146647168
0.08621478842790323
0.18255479883826312
0.1905134990494901
-0.17277915994822074
0.3123140944661965
-0.2931977077405219
-0.34614764866177844
-0.18378328316836362
0.18995675633050332
-0.2306154686205415
0.1531683356950067
-0.19686191153961657
-0.2829819508802552
-0.10287478712244363
-0.09731010404008765
0.15393569323149983
0.2757090781726869
-0.2760260852093969
0.2699611762256087
0.23594348639456256
-0.05521262866148117
0.19072473581803123
0.25596977679034966
0.3164129326508531
0.18584674754566685
0.30345380776789566
-0.19426747373018272
0.30103154980434943
0.18850558016767965
-0.29223542519487955
-0.15487971988067073
0.3244855505056066
0.15138559355787143
-0.012702470174479022
-0.2322905898700045
-0.35770827136827926
-0.04633350215711236
-0.3882085915551524
0.385138275556854
-0.09366615580508228
0.16581130943810712
0.3930833326071019
0.03954520085235916
0.38832263914504933
0.15906789089244594
0.024351546208442522
-0.08339199984353896
-0.13217286846059378
-0.22117547880123822
-0.12529043499097642
0.017845658521854598
0.0570820063343612
0.2828759507179688
0.022648593630002805
0.1349460033681016
-0.15709771746486326
0.017097908233772843
-0.26556550057657163
0.3829792919434385
0.30872991708818026
0.0339662328430215
-0.01513991173443617
0.2954592075969241
-0.21130308058945743
-0.09155215967038144
0.025591694642090438
-0.08822323387867055
0.14031040255985572
0.09531894195887673
0.27674124208832673
0.3665559375611929
0.2472725006216011
-0.06954183997328257
-0.14797788902330866
0.27930637795593166
-0.34773304991521115
-0.18627756690746416
-0.13744356846876665
0.1643843300983711
-0.2892735368092854
-0.2564090448497884
-0.03967902146646982
-0.20412944931835456
-0.12045004423733571
0.12601353636440366
0.2178304035504319
0.25406197421697974
0.20157296891144413
-0.20565133697016091
0.1330808915955184
-0.369741129414783
0.06425740669508363
-0.21655373503255615
-0.3200995137210786
0.39051461844420965
0.17781954089166807
0.026278477373746965
-0.2108682912957815
-0.06589728238475263
0.25225392824432963
-0.16081681478776966
-0.2960392224290861
0.09439349628555943
0.38916751836797914
0.18071408834981464
0.19284915895036786
0.38141524504702623
-0.007969947014416041
0.13475651924904716
-0.07822914478946315
-0.10749346113828746
-0.15756054872578917
0.04780574381889549
-0.21077674917000672
0.21355588775573153
-0.16868028613888497
0.007422923317528457
-0.06816502411521402
0.3564065370188137
0.034808031861393
-0.19765012730183354
0.30690727977009513
0.12628893161998264
-0.07023904098876896
-0.08367904239563138
0.03310460041917048
0.21404393949245037
-0.28530750349137357
-0.01746508972817994
-0.1666247437352812
-0.08473409279221912
-0.2668733296162152
0.0986588287795817
0.38085152889076535
-0.2912016981819415
0.30997641832831246
0.06382514452633915
0.3213018342772657
0.10528872287345836
-0.2977002957198148
-0.36321388403716737
-0.19993376821647235
-0.1404923022536361
-0.06403535601500296
0.2861414680294562
-0.1607924736261883
0.29881731081066065
0.010830586895828564
0.2952984784745196
-0.3709032242147334
0.28636783153926976
-0.31621969590668214
-0.1967698968220243
-0.2247331798705341
-0.27736499417844834
-0.04400699527117809
0.04648715573891285
0.08683022823738133
-0.01939488475947353
-0.3092345331116703
0.12770617315286828
0.057930049373492117
0.17676085617056383
-0.3311410518347031
-0.10817381252494107
-0.3604350337639401
0.15467532780569962
-0.33115064649097414
0.26426214833296435
-0.36272054831338296
-0.03730247920919506
-0.3771347119539138
-0.1393580535745194
0.1743252025316216
-0.18206964187819374
-0.14602739135882747
-0.03484262268806322
0.0341737938798253
-0.18674801004889907
-0.08374515993864645
0.3302578003557317
-0.21360753781142422
0.07595193126562287
0.15121701505008245
0.2614468945101105
-0.24228236745005877
0.38948736997524164
-0.05438944978172869
-0.12295191553312015
-0.04873437001994099
0.36194584388761586
0.1339660151200659
0.00875011142889924
-0.2388164684272886
0.1589521826607327
0.03644284785869553
-0.10349721886912717
-0.153812399742211
-0.1652399824899783
-0.380455835570186
0.0056392957531097255
0.2949409896810285
0.34039247234229925
-0.2361790359510184
-0.25357112621732836
0.2773026339579525
0.11714449028127107
-0.26102180050757295
-0.3209141974078101
0.28852011585666526
0.19901958330271025
-0.36064250464672826
0.12067746326320834
-0.2052431517040414
0.2230271720942225
-0.09808571711302946
-0.16358148175576695
-0.3590120552103491
-0.02135090045909395
-0.28394493383174135
0.3535731257086359
0.3442488996493864
-0.1273249401849044
0.39114945884593033
0.03649714232675429
0.24718458462525966
-0.14289238272871183
-0.18151750401204364
-0.08040559926143707
-0.06371635675369665
0.0861400864244304
0.09579924065025837
-0.24641656958974165
0.24192237653121273
0.04270776035657185
0.060850603081753205
-0.3641940993416681
0.28093869707889313
0.36520275493887266
0.30024868019699313
0.12475291757645231
-0.3237874356563894
0.2161135314740601
-0.3142599377386211
-0.1318127943078748
0.1915382613096998
-0.18971303181544225
-0.2869497699970697
0.1466467837423429
-0.06844498985102973
-0.10843301359286986
0.34380227273677166
0.2975274525279439
-0.03296561145893794
0.30423236219817285
-0.09491084242586831
0.21214417727490548
-0.22871274628558155
-0.12127385084608092
-0.3276623399416061
-0.2926737502623191
-0.2840440757333284
-0.130235913126683
-0.34039757703893075
0.17785841759464907
-0.2058597374963715
-0.2652305999479522
-0.24805407481787342
-0.03417927812404336
-0.0487776163478715
-0.14329235401982193
0.15240780149407906
-0.2566961087288351
-0.27748992985246423
-0.3645408804370133
0.20444762286696475
-0.2988290335007584
0.38752586871849715
0.32142602114927443
-0.13289952348798434
-0.27715791529898515
-0.10087603444909371
0.3784539651455288
0.1039021936541808
0.30696925557205545
0.1477921493393853
-0.21331193112767946
-0.027335175953850058
-0.17663632439827157
-0.3179792184618899
0.13035709753789315
0.07780704912535183
-0.05376974822813883
-0.35955459364341325
0.07082476695480834
0.25261270021640714
-0.2536051129349306
-0.2207405525674642
0.0865969122665321
0.09382686318178679
0.1622911160273316
-0.14564649007633396
-0.2343877534890334
-0.3593925926160663
-0.3718756346604688
0.040058459544572475
-0.015250320747751324
-0.3703489267433166
0.3804895999290273
-0.27806575917694387
0.2256158948022474
-0.09900277874245701
-0.04844252113875289
0.13682556856152667
-0.04419841449482987
0.03494267296654011
-0.21591139665120326
0.25686417047292237
0.19043861081790453
0.2017249325585045
-0.2958313071945074
-0.2403345605650978
0.2661739989223447
-0.3146697432708059
0.3223236395566642
0.014423287547232568
0.15031828404589306
0.3644815433916781
0.3677871332958093
-0.13153633136234785
0.1162375966634154
0.2050882681959267
0.08871332432705095
-0.38141224069152097
0.03853930995817623
0.13888126232681436
-0.015197774643618552
-0.3415872180342871
-0.0070082218867962435
-0.19718719973329651
0.2791327075189834
0.2909567452663515
-0.02909650608955378
0.11547036520427331
0.2086236998449243
-0.1863729263224064
-0.26184754871743143
0.2715728234303228
-0.3412391154126913
0.38309087389877655
-0.2061798057712239
-0.12067046913742825
-0.02583670458168936
0.03779822452737744
0.33948601207673385
0.14485970885558977
0.1359014690872228
0.37696752143784046
-0.3004978338135085
0.18032854631474352
-0.1203309204172386
0.2512348607513962
-0.3501787224426063
0.17300069299321558
0.11447678620021437
0.317876443549771
-0.37266368510686726
-0.3722521464083042
-0.06279648247970242
0.11853387212817115
-0.1265963843602137
0.29481090648031766
-0.373883115485263
-0.24144452934048669
0.10314668638962023
0.1467205283012244
0.26379504443413176
-0.3762819666802384
0.11090908417317352
-0.28087933233590584
-0.19240002078605073
0.28508405733121966
0.290246099635903
0.3169238708697073
0.3302706307653156
-0.3229629468735789
0.0734548700152268
0.12936414667635648
-0.11044599945371278
-0.12525472679868177
0.1914874206090982
-0.1478340059738011
-0.34649139765170617
0.36170042961372895
-0.36638535565279795
-0.3482756659922322
-0.18864835736215788
-0.01718686972846782
0.05340026194382636
0.24372029878117007
-0.12236954310517185
0.12880610767063397
0.2994184073955194
-0.008881176039510845
0.2357205032666896
0.07486167178308971
0.3698682484045911
0.08429694015204696
-0.26022794923493825
0.22150882693568608
-0.04619928148914289
-0.15058189386309784
-0.18921231282016557
0.10391685995885744
-0.14970389251511274
0.32559489116606455
-0.25111975256810504
-0.03632561514866023
-0.0963768884740425
-0.22778623003049142
-0.06225363367275853
0.18837641652795117
-0.1366287843642647
0.3254088456548682
-0.16881298704045286
0.1587273195651342
0.27021911453302566
-0.21404094976043894
-0.007516957321024964
0.3106853740227943
-0.2459158270658233
0.3201132354045596
0.0922202632135236
-0.1631300265972521
0.010268119773128227
-0.33809984389699665
-0.0685862002129517
-0.10316731239699425
-0.19898291392198975
0.2186934058958067
0.12081218323134627
0.0629418806768711
-0.012264630524263475
0.051524976835210075
-0.08666226352578431
-0.2913856635644568
-0.26313205845271315
-0.25402002549861114
0.31518902587033665
-0.3485290607192604
-0.14019430892394935
-0.20189805358296956
0.12021074082425164
0.012011466554152878
-0.2126508910284307
-0.34939710533521406
0.2566748645836825
0.03351825965642671
0.1513548069927397
-0.15448267578978558
0.22639183485909986
0.20595211794161639
-0.3887075396237376
-0.026557143000773137
0.3639821890026092
-0.19547969829859105
-0.1032015556220357
0.014597084005105128
-0.2642924322231223
-0.2324907105125877
0.13334351096275104
0.19835216149368876
-0.10933403919548326
-0.26967830769360945
0.038198286486999404
0.2502380309443206
-0.18754691265720932
-0.20054133493854245
0.11604023027761028
0.023984025726302708
0.24720859127817132
-0.07988668770228793
0.21032757696151877
0.06616428382792684
0.3664565370946862
-0.057746967121853975
-0.06967966587040363
-0.3026679435038541
0.029886219579000978
0.12286097061837388
0.289495484231861
0.3297428946472061
-0.30395753302798906
-0.25689626332249105
0.040930545076546
-0.18172080320755402
-0.22442895488907116
0.17558345419524865
0.21202007321261734
-0.057393735531884246
0.260797984610193
-0.35642741812641765
8.055829583132799E-4
-0.04760226796659445
0.0786117328501964
0.16976358702754818
-0.36788665395909914
-0.2048719624619879
0.010168750562646954
0.07496914647140882
-0.005979393841513796
0.2781766484377633
-0.31229158665724094
0.11223784711942705
-0.04511371630040281
-0.11843838094810294
-0.06209872199805859
-0.2921745171235774
0.11878626907196184
-0.28337267763531104
-0.38429776110242597
-0.17446790188717506
-0.28949419260921627
-0.007203777594769042
-0.17805071473372286
0.386344162328055
-0.14944149175092847
-0.1197216448444371
-0.15125303945318705
0.042701426459804355
0.33534087213389946
-0.3175007384163136
-0.1365986381974989
-0.24197818225811982
0.3218054188555589
0.02794301496685849
-0.21178034487918895
0.33683706751995823
0.36596640525159785
-0.31738046737860176
0.21391737049247503
-0.055198774890646625
-0.29497995942539224
-0.15700606531852865
-0.3777756922069436
-0.05702744030693279
0.2187982074669914
0.07351236250145633
7.397927456648886E-4
0.3102103763314305
-0.3651038115000984
0.309986908161209
0.00959512996818034
-0.13451314202250506
-0.11677832333047687
0.12786808278034442
0.015312733456887148
-0.08431618192561123
0.002146544516570599
0.2724657225820033
0.025689726536817573
0.1515260361059456
0.3058832984436081
0.24186548339132624
0.06986635842564326
0.10748659932777269
-0.3300595852335206
-0.23567319106640172
-0.21936467068833335
-0.2448159328269264
-0.1731834961711952
0.26712328623319803
0.29130369125379885
0.2286621296062988
-0.32871709174455715
0.223707761187725
0.20656929248646594
0.3408580703071084
-0.007087404799332551
-0.229680243231801
0.11321795788821305
0.07373870046477445
0.14351460013887857
-0.2635778597216869
-0.2624666279440953
-0.15790816092607227
-0.08317757243881391
-0.3731860361981336
-0.0926915954667429
0.11198779627720098
-0.2760319316249593
-0.28160912377978853
-0.3716474224056213
0.29944214815386994
0.19178048881348395
-0.11960633744550547
0.19503706018595132
0.1377205272277971
0.050891373793068774
0.376760480520977
-0.03289368678217
-0.30377893631888414
-0.14879937953313116
-0.04862765495484464
-0.14841218476445506
0.33759986993999197
0.14247852593584356
0.18035759945702393
0.07704658746819511
-0.23212375127776166
-0.07627998363786535
-0.3443622799933281
-0.37637482746230355
0.3210068192024646
0.1830367047533062
-0.1541076379769416
-0.08929578047964874
-0.0971614130683055
-0.18848179235298723
-0.3418913172571433
0.20646109037737387
-0.28432409525847535
-0.1219878500863269
-0.23925664656859977
0.020240755371216834
0.08174733280117871
-0.3393261710670749
0.21320562045885383
0.018654837212677414
0.19559445900338449
0.31021651840070325
0.38350982735270933
0.24221231773620372
-0.1523410307727619
0.05417953678861132
0.3558335160826871
0.3774262143529266
0.36291064634060616
0.34592070659562196
-0.35500297484165805
-0.21252711050436798
0.16457112454737108
0.014988190015336498
-0.07524366684201145
0.04860647024947228
0.24649167654492832
0.05770244481990874
-0.36017581953011196
0.05290719127105269
0.25694726313771704
-0.02269767564483517
-0.09410451483955726
-0.1743984523800852
0.15256635542357375
0.24976545353812918
-0.2505851852285014
-0.11260219271930871
-0.17863387412349088
0.10034755767867681
-0.05555195923789039
0.2962842934645997
0.035436809758488945
-0.05144408671618295
-0.1320774120907608
-0.05948697956374596
-0.11480275344231919
0.1957937757935713
-0.09441716558980996
-0.2986234145812707
0.22231134934732197
0.18992467446931502
-0.09079432186732435
-0.06359771365752306
-0.263077145363671
-0.11388440618180543
0.0032466779377237844
-0.20741057380602826
-0.16063928420901075
-0.14090936030147513
0.02354655459818446
-0.3832949148488432
0.09793669291425004
0.16485381955446018
-0.2876234082047132
0.2717851377400147
-0.3331413274461217
0.16867473340270958
-0.12573871744239726
0.1472246394808385
0.13667816122679324
-0.13433822016005842
-0.2088383626158441
0.32655085049723664
-0.12225569506170414
-0.009615031391655147
0.22498642043321584
-0.15159573734272858
-0.32491999816288725
0.3867846134598794
0.1771629149276797
0.029031773486992797
-0.2144518455777091
-0.190951825255299
0.08390491535406092
0.28631377765110316
0.07915782126830753
0.005679210366622381
0.03803312613151269
0.06227861154911274
-0.1330940754180887
0.04293573216750184
0.11712723064484777
-0.29828878995537195
-0.1332432507361575
0.16117410828156195
0.20485915044780303
0.022734435153673398
0.22706339913504547
0.11501914246385514
-0.31567158936177164
-0.3744113197989811
0.12511861106317443
-0.06531892729612387
-0.24897100184982887
-0.35410460395804383
0.09606595058574646
0.12165721292272008
0.17481499473905956
-0.3039692048684062
-0.3304516569851706
-0.07870214557123086
-0.12147294368002931
-0.33623616319661415
-0.016878944733288045
0.08844193644208803
0.033182551587109005
-0.14383542033021487
0.1385298931066089
-0.014914113545860603
0.2240764918105032
-0.020889690711732585
-0.31085757479708986
-0.15819151559941166
0.04470074365525109
0.2535856586207437
-0.21745598211598569
-0.1005944343594726
0.33883582215320723
0.09958152160756885
-0.3035436133826327
0.38099078357218713
-0.053382163882689834
0.35664034475630385
-0.3234339740046679
0.3337964362672347
-0.2945016922140381
-0.08739784680362335
0.3104467747842074
-0.04750195375852924
-0.16838626060372253
-0.22207438263222037
-0.07137152032346901
0.23287421002577907
0.018825291471960964
-0.1444148669492391
0.18356495176128443
0.24249769247396288
0.3674930653369327
0.35549302267331895
-0.19820924773211174
0.20846066602728075
0.33202411456605896
-0.2562922169801793
-0.009560929406303199
-0.19673020097537386
-0.006884706963533911
-0.18538940299543127
0.14044949117709
-0.23806403414868565
0.19901147213736883
-0.3822621192658629
-0.08694527312365372
-0.07578489315779474
-0.015220380671900428
-0.27388198003030034
-0.3769068468841696
-0.09434460991740598
0.2259191191908016
-0.07741432294948329
0.24968995206216532
-0.31225923298656566
0.25036118660280016
-0.3772835162025372
0.12493943498330505
0.18950085212976997
-0.15055733365628685
0.05929804520345021
-0.3052753101789568
0.30706515250096994
0.27517290382181214
0.39208860157151293
-0.24478517464792737
-0.2673729471442457
0.21418794850837236
0.0673011742167833
0.203442884952038
-0.18849438836158736
0.2514181376841317
0.18803241862591288
0.23648732131116568
0.2963476179652103
-0.20916439168887624
0.1795734641675823
0.04252116055381555
0.13547482166263403
-0.07094263555307136
0.08937163751340968
-0.26971703245206513
0.19314880573968132
-0.36039090587565126
0.24876200611799765
0.029490076818941415
0.21317404929350198
0.033214888421112386
0.004736720750493719
-0.25679992725958944
0.22963979260143472
0.0718693065780539
-0.32462278364652475
0.24733978161141773
-0.10466248074031129
0.2630648461385895
0.08172653752626655
-0.03694053860074
-0.12149913134969553
-0.2782242314019385
0.2342635275084489
0.06334447307610469
-0.33585503847094267
-0.11915618561242745
0.2968878425706538
-0.1563408412425596
-0.22747023895454813
0.38081138233050743
0.25370502978708
0.33703716057109845
0.15975869375135285
0.021942458493094195
-0.2607206045058289
0.02777893490575455
0.10142686537253866
-0.060784317951397916
0.2160361144224094
-0.16802280428663174
0.23367246090631183
-0.014879809465539615
-0.347121495238915
0.04819247302069561
-0.37863538412806436
-0.04300865351779359
-0.013175461833637265
0.0328580870843312
0.29416955135324957
0.38011209208689856
0.3591400775276499
-0.08152334995183595
0.16806099635070162
0.3906109227006468
0.2800313976480074
-0.22093731497246089
-0.15979438152450703
0.2856312397124696
-0.331785204248095
0.0981187191294669
-0.21493385579519392
-0.24864471979017913
-0.044627790375772046
-0.19305809065094312
0.26875565431781806
0.11763102029719903
-0.2261105363056954
-0.023427804169994272
0.17697471440666238
0.3181980880767872
-0.20888713875263526
-0.2100487997967214
-0.1111069490244328
0.108334686204392
0.00759138806490651
-0.036875253684146375
0.2041979960886655
0.15958424579854114
0.009028597772510017
-0.2779273158579752
-0.31130548224641397
0.20962007495111823
0.12890443936400264
-0.12556522357953587
-0.04583044259720429
0.2539533474365459
0.2303506013672488
-0.37773270623693933
0.11291134047909894
0.347373103916493
-0.2440721073981787
-0.12665081075346038
0.06390443797993828
0.21833796369851144
-0.2546998201058885
0.37299038712986066
-0.06797190034476325
0.16395429241559709
0.1673360285404025
0.19279692361227
0.016918121288110266
0.3287366178675369
0.09505226148587013
0.06334701991810852
-0.14310782223575885
-0.06035307340290634
-0.02926940567863421
0.004494432781712932
0.11499769359814238
0.23017661721008223
0.3892549828569906
0.03848632094166602
0.3633615855689214
-0.15761694315777347
-0.10446592759255982
-0.08537060968432607
0.24637460494619565
-0.15262179340260734
0.31955551885071837
-0.2898448696958091
-0.07510303830355228
0.3896515123994021
-0.037613465959027446
0.19906949477677327
-0.2421279141428323
0.3516799316078336
0.10820030350182298
0.21859146248194233
0.011394322449192317
0.0981226503101199
-0.03409761305619708
-0.3476964769578472
-0.19967183747989367
0.09456192143221445
0.18577812879084868
0.3279109816948014
-0.13365328074241326
-0.133397532266368
0.2681774551046682
0.1227373993575055
0.27847002051896613
0.25275025083477287
-0.3493789441033469
0.3142369842923487
0.39142454599370935
0.2610400377494828
0.09214520961960192
0.006701822028312528
0.2359774561172702
-0.2299779701250824
-0.16706176440699558
-0.01725832198637434
-0.24627951523393246
0.0643751123847111
0.14003909346520563
0.2418469187363179
-0.29626289473952344
0.24197282727604133
-0.14485633323979744
-0.09482472305085848
-0.34626036259766435
-0.0658568682674675
0.032571649031092574
0.1619953168736179
-0.34004436761698775
-0.06610613865912635
0.3201191652593124
0.24527262186149668
-0.23770864513314813
0.28500711008460444
0.1584227206868103
0.09798263775800399
0.09610662257461497
0.3186905225232486
0.05382220623205876
0.3834622547686917
-0.3413563280288866
-0.006380036838173992
0.3910724319007805
0.2512997117940331
0.30027177544993655
0.01393622565864514
0.07831341576046105
0.3829102585926328
0.30644405091448496
0.350478361317273
0.1449751999055151
-0.23942743521421453
0.17836817632927887
-0.09961588155939793
0.12567140216725342
0.04446841287005711
-0.3363372023544659
0.049090292000797425
-0.2934557885584567
0.031347212590545216
0.03610988371557789
0.1794740463868576
-0.08563201958751701
0.12943901466722274
-0.017791121851809203
0.1667309513691588
-0.1604092606713178
0.1380809062555704
-0.3833425599024885
0.200355243021541
0.3074669867461282
0.31665118723081237
-0.2015375892586425
-0.1825942251145615
-0.004172204851080381
-0.24300493103840343
-0.2946168588772517
0.27467468915239207
-0.30947766578259606
-0.348028052358875
0.34781489489013856
0.25961783596064986
0.3794229244394576
0.19425780221839287
-0.36925424241695937
0.20353489228332095
-0.06101122573449593
-0.04817961428807676
-0.21109493884609598
0.09650924576083857
-0.05479624273457102
-0.2787995389285828
-0.12995960778013743
-0.3763454111932339
-0.37206838189675884
0.23916924672650122
-0.12804941853017343
-0.24955796188760065
-0.0972429120516039
0.09028580734432642
0.33291791566649015
0.005993419183699992
0.2513513255346231
0.3509643859730691
-0.38628093057943913
-0.1951410418517883
-0.2992251754544085
-0.3617192365731858
0.0036861976682187993
-0.32707264715213746
0.35276512273050836
-0.17001565441565705
0.21874655713580107
0.016211526988877102
0.16425016551003793
-0.3442147753315833
-0.10144864280082352
0.11393399528392102
-0.19786494946360797
-0.36153692774670676
0.12852899920152902
-0.31617732249307695
0.37347962029798965
-0.16494000104197276
-0.2931659961525591
-0.34212171162103594
-0.2826003745450756
0.2653099939830035
0.12659004732317727
0.28873426567151844
0.20371366036270228
-0.3524508669584599
-0.1122987913557752
0.24430551844363735
0.24190437404497941
0.2298675460486912
0.11790947852933253
-0.29037254772010085
0.21989942478272412
-0.07278694881907957
-0.01356079947299016
-0.18629812759935668
0.13950934183950373
-0.05135532068731658
0.05601776882478128
-0.273356560900599
0.24360456179809714
-0.09193186064816887
-0.16669921557442297
0.37677946495505343
0.012830557472805306
-0.3553339866224868
0.38481801883196154
0.032044230249853915
-0.3244186324464471
0.09174874227209456
0.280922131449124
-0.030943962485461263
0.15499902902651316
-0.1971295323030625
-0.07213884756688588
0.06390020153881246
-0.28966649238622943
0.3113041734025102
0.33269534753602154
-0.2703717411129319
-0.05220310552118504
0.3141566592847143
0.34614470889009036
0.33016065002131934
-0.0747618462850134
-0.1775867661064498
0.26046108213589647
0.18794294015639657
-0.3726384232159346
0.1352938126817551
-0.22288861740755783
-0.19009262469460012
-0.016819208022133315
0.1806917585718234
0.12223516697747724
0.3455122108083769
-0.053390507244652045
0.2805622875819145
0.09021641775188335
0.33760113090121
0.10964599984013912
0.06655210172578777
-0.27006314484487554
-0.06888500074655533
0.16385256879574392
-0.19903125685735235
-0.22228686681151882
0.022340900748915763
-0.305057246968973
-0.2963114100330109
0.08501637292511356
-0.03458527103642746
-0.3033779372650271
-0.25688264533350896
-0.34845493674947436
0.3612071358199475
-0.14581533330637228
-0.2942083483527661
0.16516756829919013
0.055429413990431914
0.34543822246946937
-0.3717880470563324
0.046102696130522564
0.05785355462736797
0.2642012029011687
-0.17421981254562952
-0.33342436117786045
-0.2836452317088133
-0.10484246514279287
0.281313523018099
-0.17673409535454102
-0.1775140935964109
-0.3505343163735047
0.1267044761338536
-0.35959953401914035
0.1902218013642469
0.2973493436844774
0.28563010061948846
-0.18698003366913332
0.18563057214128353
0.04715382923374027
0.21017768567415915
0.22563733702144514
0.3048741176458204
-0.3382297907617419
0.2900598781786135
0.18893894085443314
-0.2777648951028502
0.26789567390688274
0.21263366840121337
0.38316359242881093
-0.26458146220174944
0.28291371372827556
-0.2985932109866561
0.29821162166848086
-0.32429281359906015
0.2911244863510491
0.3852752258926308
0.008808421478608067
-0.3267549408434317
-0.043807804934065636
0.36941558627760124
0.2586987658961577
-0.014098738211307466
0.03416662645349304
0.20804561556518375
0.2970118568859258
-0.26360672693770815
0.008679803356221222
-0.15315165647360934
-0.10901931893104058
0.17985632739446195
-0.2862618155201582
-0.24623307133609945
-0.012303331201944783
0.36758899659702976
0.034519012667099225
0.21114192339938959
0.18085319101527855
-0.056064575755493035
-0.2316063569513628
-0.06951908897409285
0.2518637951360526
-0.25987061336200024
-0.1998146719386649
-0.2826240438812926
0.09736889250356193
-0.12531585516567634
0.09198697857834605
-0.004851597834722791
-0.2537256442730687
0.3021774000064511
-0.08443135271776404
-0.05338638115550037
-0.151309091112818
-0.01916500084820089
0.08934671304485876
0.35979543139645365
0.05518035968361343
0.23987683302210655
0.13041511001524042
0.03714408593911772
-0.1317730291518592
-0.03502672085681828
-0.30682053183673924
0.048155523537017145
0.3046136390870805
0.3046748408891882
-0.18342622533358274
0.059923336451818326
-0.06300175359863269
0.03330067973253203
0.10451771357676348
0.3587434860594456
-0.018499470508629542
0.10317113486603686
-0.11469636412194437
-0.3422391028182634
-0.0918773771716262
0.37922167549712404
0.074728844275959
-0.2267463759921287
0.13693320814987986
-0.2277594327425965
0.0965946923716658
0.261296878038196
-0.23649336431993284
0.04220886419571559
0.24083205943145952
-0.08723356287006064
-0.37953695298272594
0.37236803420662745
0.044951888031908534
-0.24628604559229217
0.0771992697558649
-0.02781775035771225
-0.061927444980167605
0.11934889565078033
-0.3057292970235822
-0.317260801438062
-0.26019079709619725
0.06908639939112975
0.22089259754156615
-0.39048387686629055
0.1816961313630887
0.07202666942171294
-0.07096701657850352
-0.09433166838698304
-0.18079738799569733
-0.2889789749014288
-0.2939955523561857
0.05562762819145415
-0.005871457076386974
0.18970622475037185
-0.09276142458627389
-0.001712571519956976
0.06117569492756157
-0.07710932713124531
0.3928120035149659
-0.3878796197663083
0.15623220423960016
-0.012621727194261962
0.24334122136415048
-0.24998414544152364
-0.22907060140685342
0.028950833563562067
-0.3576564637000257
-0.1304885054196184
0.3843041557913736
0.2379755113844773
-0.23124495522436214
-0.2878224233353217
-0.11732431251553718
0.07846611892209641
0.02616598116931783
-0.12440046073146227
-0.30732375629931835
0.07431375555121558
0.06780176099243677
0.13816453574203047
-0.24965781643226823
0.054830161640240925
0.1417104444709293
0.09522715410526811
-0.3146307754161122
-0.008727299395594343
-0.32093817102118527
-0.0696995425033478
-0.14208783131882174
0.03392221224033485
-0.3869772241846019
0.3760423014191386
-0.2755604211612192
-0.08607332411536296
-0.24856926824767261
-0.06775471615648106
-0.11247741056782652
0.37673432030663373
-0.2940048802558406
-0.12136541545739257
-0.17888976873422893
-0.23724982454725804
-0.05844012254509901
0.1680263297146006
-0.15999399732415742
-0.33709522873205394
0.047400988442096004
0.07575672820320534
-0.19781554981035485
-0.07450365322871617
-0.34501646308193124
-0.3079527495016917
0.32539838319512726
0.05004230540254567
-0.02617788060092604
0.3243051229136595
-0.0053152613959733044
0.0331815415561666
0.3104842968660259
0.03812450613855718
-0.10231612397465374
0.09611742753925094
-0.10954421638916063
0.06853174657711147
0.23145594675946154
0.1323527649359565
-0.2220971026092624
0.11694583163639818
0.08290420048347609
0.04902166921811347
-0.21938810165223857
-0.06917771508476778
-0.33308466627361577
-0.10655358212503804
0.1867025150115322
-0.34673642395136767
-0.12562215585804254
0.025434521179084582
0.06421260877371315
-0.35202387697256404
0.10046112375192445
0.3450807973983171
0.23465522584970902
0.1875358067183902
0.15732600349615064
-0.012751497294831847
-0.018851779479710527
-0.36338013549531484
-0.020615547991270612
0.24062492049917958
-0.1363744367032831
-0.07885612989609615
0.23882675356472688
-0.39036306288808503
-0.12747480664496744
-0.17191847234938476
0.23418208287469797
-0.20853866185990103
-0.17056005635066512
0.10302647205140618
0.2576750636961772
0.27211281947052984
-0.20345424473637996
-0.1925983185051575
0.08941685024975682
0.33687878438844865
0.06744758929042823
-0.017367842915255945
-0.09331733992069235
-0.19609019382764165
-0.33733004373478204
-0.21464384150340823
-0.31811523431146926
-0.26634145296779016
0.19836666756974
-0.0021947489934808326
-0.22329583201513453
-0.11230543701635362
0.0018277699677784155
-0.23394746745997647
-0.19883477057701182
-0.09343716383266162
0.19052799015634694
0.04232630989534909
0.06911313172878324
-0.13314152159275233
0.31343234063709136
-0.03205142392939621
0.27180316937062876
0.03967785682477467
0.19329067241888112
0.30526054679501086
0.25119720973372744
-0.3881620359808784
-0.011278639933635932
0.2588181911576267
0.2500544372885967
0.09549478933412221
0.31650036827085637
-0.230786599095129
0.2762309256435407
-0.28551574569520866
-0.06166374752442711
-0.30257405763565115
-0.010795688798420786
0.30909821545076827
-0.24323549058362923
0.2576826596420917
0.2774030821352793
0.07266087777120715
0.09918964565647874
-0.17275179620637654
-0.11028844908718066
-0.24319739282027328
0.36742034922956407
-0.26662387470140625
-0.25706653832072635
-0.33615770667582223
-0.016471884274520076
-0.132413668669114
-0.08287337874082967
-0.3364985699965992
0.32838531141595495
-0.388759898282051
-0.2335261840359587
-0.25487523022000674
0.1947468578221837
-0.3893910202221683
0.31226646674051994
0.024553953374255495
-0.09873279051012603
-0.013525681891881547
0.3381100304871561
0.3196888329636724
-0.10098240851809197
0.1353243928556756
0.0011346981363243365
0.30950537014998436
-0.18427638450599634
0.06738885156512284
-0.19584733976340116
0.3546479666951599
0.34931304931850166
-0.3022972762154322
0.30224616110945873
0.28593433679731534
-0.25442553676790103
0.1045461372134577
-0.13206030330468388
-0.15768325810564826
-0.36638889268254443
-0.3641521584228235
-0.2620316952132716
0.34100234650988426
-0.19361109255750378
-0.28188990456480634
0.06177405565495156
-0.35134953192595875
0.13596833170427108
-0.012792355746793948
-0.27750780926201296
0.08645502581914498
0.3526506814180216
0.3029448629543894
-0.38619064904741474
-9.38647988907718E-4
0.1312874022739098
0.04679384473249057
0.25393271630516606
-0.263280984659662
0.2717811602793045
-0.2520691974501252
-0.3337577301907244
0.21770584088675932
0.04014292246685049
-0.33824550643687923
0.27806688262776647
0.28748613991257577
-0.36676375608653994
0.08654913353772407
-0.19306977569910402
0.17783373170112463
-0.1322753158747121
-0.39050730131769185
0.3129958446619617
0.3134965682700532
0.23554404392962097
0.2369861300983139
0.33966373653363086
0.18993204171002082
-0.10778786524428229
0.38462373619106627
-0.3866516614018139
-0.055432938746431085
0.08242878575029453
0.3271141805249878
-0.07227484166688573
0.17703015658746415
0.38149013342620136
-0.2920630026664388
-0.005887824051121424
0.01865294226034945
0.06782874183088689
0.3659270505703265
-0.3586261353485983
-0.029836653547312728
0.21267916243856724
0.25844162702601614
0.35047914709526723
0.2943915519002897
-0.32899163096766126
-0.26460271224782056
0.3015895025979962
0.38880941107100264
-0.001424613999013493
0.05116972376256334
-0.12609835256014781
0.03500154404210743
0.31570955704875525
0.28377264436261257
-0.16859986778552044
0.2787767554203213
-0.20913291060037176
0.1449041934737893
-0.09694760083653321
-0.24935264510150099
-0.11134666918320966
0.25921993767251494
-0.12217197779457747
-0.24259197266416563
-0.3131921975750571
0.12680352454340107
0.02176933661429461
-0.06180483093293798
-0.19066734780834968
0.3159300933906849
-0.2322292834870874
-0.2570289140390802
0.10703413595808962
-0.03781262449615987
-0.065098626204703
-0.06776320091197112
-0.09625553145852918
-0.19440205246108885
0.01024826590311044
-0.22657978621722774
0.24525603567549223
0.25698535557837393
-0.0032572058979181036
0.16525464623418398
-0.2758152367884288
0.2597019842556346
0.07492328334834274
0.2822260541229848
-0.29800011976508334
0.2736860605099725
-0.2618275663085313
0.34694161242190547
0.02271468312823455
0.1726041906791039
-0.28005789078411003
-0.03859081551621635
-0.1524174540622036
0.28488287844005494
0.233172107543328
-0.38726180498066687
-0.14479656006918654
-0.05123459041934387
-0.024692738244772153
0.2586678367558023
0.09885375147758403
0.13655054999770053
-0.16640523041733224
0.1807069157272475
-0.09239468643734984
-0.049224592497756126
0.09398464052890136
0.18308995316748797
0.19380522461268107
0.217971452177344
-0.29076333237875734
-0.24616148339576896
0.05799377174768586
-0.0951045450980209
0.3285871190614553
0.14084155771604537
0.10807280083444262
0.24319780263405014
-0.3019057999027744
-0.2649211691925566
-0.19395995816032438
0.27505558231388966
0.16481256415545725
-0.06149295179302936
-0.3317677223637084
0.07547257139850638
-0.2805999540579154
-0.0406048942929195
0.18420275704127634
0.11593034402246585
-0.09165357516732468
-0.14066499146184244
0.11013861163454011
-0.033591167163602983
0.2184555122917783
0.33427944348827876
-0.3165078663935213
0.2612705413247534
0.36166492285634233
-0.23351082317168712
-0.184667323927081
0.11995895707776448
0.004349353200635608
0.12430766351344247
-0.3092283804666151
-0.31184676773421366
0.2375935002836871
0.031925120393472964
0.2204390978159346
-0.30185521048587194
0.27067847783405097
-0.04860722290105175
-0.20174678997829365
-0.2046380525725827
-0.20585675950516297
-0.3575409709213953
0.3926963936499821
0.2937291056684364
0.19745069815769498
-0.0031967438032684836
-0.3340403361026004
0.12256909301700643
-0.2646059224701797
0.38081510384290884
-0.20812522815444073
0.230659015518411
0.38382208360045
-0.12880818410120976
-0.03878207096227429
-0.14244406448947294
0.3229423556140187
0.26373636289506414
-0.10861671561581
0.03988392802723479
-0.08879545550054115
0.31241691739664873
-0.18055282384747331
0.038960214888768975
0.3508591490239331
-0.33628648731531674
0.2244933964393914
0.3649348493815217
-0.2591058302216511
0.003370057363187751
0.2387648008585517
-0.005847919557059326
-0.25011837480046273
-0.2399209828107306
0.33760953783037395
-0.31654698888690724
0.21615298616249798
-0.15410419727902108
0.24446701686937128
-0.19239273523768374
0.36651672081364445
-0.13530949297391048
-0.31196440873775705
0.20099405059853287
0.26701470772338937
-0.26601430857559527
0.3438057544329424
0.39022730768754704
-0.3480934021341656
0.359167037547452
0.2835246563603452
-0.15895936877380543
-0.16941879716731484
-0.23082832017328786
-0.2857933233693251
-0.012261802030943389
-0.31213688443780774
0.118749882574052
-0.2086860614944889
0.29781068737405314
0.1271571191565842
-0.004275025138094613
-0.31945889429575497
0.30254202482680037
-0.024961877590022413
0.26852444206646714
-0.0643892052446025
0.03485788400164345
-0.23016858741245794
-0.004396025185859034
0.32169038692516627
0.24520735453441486
-0.05747218336727701
-0.39265675345279966
0.23839282032835057
0.23452173158712264
-0.1931926875484358
-0.12134703300674175
0.006228797947388704
0.3132848953844489
-0.36614020598983016
0.22485696182911247
-0.033399641500147736
0.04710828573663832
0.3544903828915888
-0.30903194689783575
0.015489021016491623
-0.0678369765316935
-0.21353561952523023
-0.38709056475231973
-0.06970027327202649
0.10615786164910235
-0.03759625216133382
-0.0427701863336954
0.10624301562435914
0.15344235434483078
0.36532217407773343
-0.02826786824121287
-0.09726892755963062
-0.30528573398982783
0.392049328042232
-0.018492480934443077
0.11718128185057822
-0.06719009886258612
-0.05696617101536214
-0.37707990998362284
0.19461461604969757
-0.1475559530616741
0.06973851017172611
0.16107686408203636
0.15741904287178668
0.34956170036223755
0.09364933152528888
-0.02078104859319077
-0.3841986944548214
-0.22829665167904545
-0.2881228690930033
-0.16829941130452128
-0.0520923531184869
-0.11475681517359675
0.30670312718048404
-0.341006654783532
0.3218639379678987
-0.04962135575745945
-0.15992344290678687
-0.3529353744161528
-0.3278508934554734
0.22541014725929046
-0.2395763457755729
0.16178653884114846
0.39109284850105114
-0.1575637835131843
-0.04948454272698553
-0.38216768479102803
0.15682291941784862
-0.18632248005302451
-0.28881352587720943
-0.19987843054919796
-0.05798946023258195
-0.061036943359256926
-0.1376581306689989
-0.14745371076428918
-0.36575945880318983
-0.2735312667199008
-0.3353461387721325
-0.08915750553812155
